{
  "name": "MLP (2 hidden (64, 32), log_si+prev_lr)",
  "features": [
    "delta_fs",
    "fs",
    "n_back",
    "e_bag",
    "fs_nb",
    "nb_eb",
    "eb_sq",
    "nb_sq",
    "fs_eb",
    "log_si",
    "prev_log_ratio"
  ],
  "input_mean": [
    -0.11878172588832488,
    12.618274111675127,
    2.550253807106599,
    3.314720812182741,
    31.937055837563452,
    8.526903553299492,
    13.751269035532994,
    7.612182741116751,
    43.9492385786802,
    15.24290716906344,
    0.1892089894717672
  ],
  "input_std": [
    0.8532425688457077,
    1.8889126316320008,
    1.0528001996841798,
    1.6624966083621295,
    13.827071859399734,
    5.812077138667805,
    11.568382471583405,
    5.62967606493014,
    24.160912804405072,
    5.176763071941807,
    1.0047569814711876
  ],
  "layers": [
    {
      "W": [
        [
          -0.12484604145936401,
          -0.07015502241298677,
          0.14494425385095255,
          -0.04007111314085218,
          -0.2979152928765575,
          0.042514127105866356,
          0.49865811746255934,
          0.24245657855713515,
          -0.32570294158642055,
          -0.7162118986811076,
          -0.3231272380755814
        ],
        [
          0.09412539078372027,
          -0.9361260487906455,
          -0.21888208618475716,
          -0.37237105901122264,
          -0.2964609665522646,
          -0.0484615015679871,
          -0.09013635442681514,
          0.11952244444053914,
          0.5662081970982965,
          0.12527089819092732,
          0.6746255482075202
        ],
        [
          -0.3193264903111125,
          0.06488893313215321,
          0.20102846384603595,
          0.11316603075480339,
          -0.4441998281871765,
          -0.3905873697871012,
          -0.05163354126319378,
          0.36127638663091394,
          -0.3739367016978231,
          0.007503967879589364,
          0.10269732405745406
        ],
        [
          -0.030767310275169806,
          -0.2103022654432238,
          0.1381944863114777,
          -0.39347301835219045,
          -0.11620907196005105,
          0.32109349582696495,
          0.4363821033759208,
          -0.6139771232057541,
          0.4361415588652826,
          0.21677320733971361,
          0.42122290421109226
        ],
        [
          -0.03270472374472354,
          -0.36642125093102834,
          0.5219675518544504,
          0.6629686852283256,
          0.5594781845486648,
          0.359432397530216,
          -0.011438145769896935,
          -0.657312198478199,
          -0.1960170162057905,
          0.017630946114600247,
          -0.5437304675901339
        ],
        [
          0.3072672603107621,
          0.24412185989156074,
          0.23889874602415034,
          -0.4082434236414126,
          -0.24703553127139544,
          -0.1457937668583304,
          -0.31244448058009877,
          0.6519174396738572,
          -0.0915834629583333,
          0.010105269174731835,
          -0.02743406356382875
        ],
        [
          1.046625255047118,
          0.03440828998568191,
          0.6493544104865959,
          -1.048698778093225,
          0.16656205889196285,
          0.10681444747604317,
          0.15308260801637405,
          -0.32898427707565986,
          0.5313725910175332,
          0.021637736037063232,
          -0.21414140690202127
        ],
        [
          0.16340203568948922,
          0.09526561596478889,
          0.849488575280586,
          0.19872426096746962,
          -0.2529602725878725,
          0.00882835897543271,
          -0.5898397087565722,
          -0.610530381188151,
          0.32888961995142674,
          0.3506101333597153,
          0.5101634441598621
        ],
        [
          -0.22998814421087635,
          0.683616779931267,
          -0.05524712442271773,
          0.7532385992397198,
          -0.11352106739321965,
          -0.16358070397407826,
          -0.04985540114446679,
          0.34632682065022236,
          0.12054270890667278,
          -0.5341665612313878,
          -0.5386784720772183
        ],
        [
          -0.40987933011058625,
          0.517830000524146,
          0.49144158246879044,
          -0.10935182215116275,
          -0.2343903310623465,
          0.45207634591029594,
          -0.5079764178015035,
          -0.3753466132298424,
          0.29333371867502217,
          -0.9839526403373757,
          0.1561386942302672
        ],
        [
          -0.28287457659739934,
          -0.3911966237580593,
          -0.2035959389431999,
          0.05038181797305064,
          0.11755640472317119,
          -0.3225909979027794,
          0.4468308664174551,
          0.04782268616989801,
          0.19077445274314928,
          1.0909197319366783,
          0.20818817442416643
        ],
        [
          0.15641353059934812,
          -0.07125377523858975,
          -0.3204087566112614,
          0.07730834417066468,
          -0.12618074013356081,
          -0.4222865724675252,
          0.2521647034922045,
          0.0735883205104145,
          -0.32123238558917644,
          -0.2570219499303459,
          0.02293084445373116
        ],
        [
          0.033693849258950526,
          0.6796519766390859,
          -0.12022814045476805,
          0.46502418900743964,
          0.5350766357937491,
          0.4613474844988882,
          -1.051492019427477,
          0.43735433276526126,
          0.12807757886425492,
          0.13825814210727452,
          0.06118144195861531
        ],
        [
          0.2665451835823392,
          0.1748532460330773,
          -0.15315642506766727,
          -0.6670636716109078,
          -0.023900141620708106,
          -0.2840166048027377,
          0.5768014923374035,
          0.06299952292117322,
          0.1573785065508887,
          -0.2102673238054433,
          0.10057354756324523
        ],
        [
          -0.014943736468156582,
          -0.42696611095186754,
          0.22473161666548355,
          0.042642736174472805,
          -0.32318569153419546,
          -0.8812330656228994,
          0.22968844984465958,
          -0.025410913478390234,
          -0.1485245536346656,
          0.09196525082245152,
          1.1021869362997083
        ],
        [
          0.1235164198106426,
          -0.07025910067141045,
          -0.6533252574725059,
          0.5183738254377346,
          0.3525181096439475,
          0.3556597097347905,
          -0.16013140229994013,
          0.3553404649307139,
          -0.015717508943639418,
          0.35972583336609826,
          -0.029605170794585828
        ],
        [
          -0.9906076686442072,
          0.35327183381100546,
          -0.8422819107939342,
          -0.010381476805998085,
          -0.08074849352868371,
          0.08104583093078309,
          0.15525271685239792,
          -0.018493433601477153,
          -0.3259012183625756,
          0.354427323013134,
          -0.041505047062875625
        ],
        [
          1.0133211002424425,
          0.22037516225011397,
          0.034379537007761106,
          -0.8513448314573246,
          -0.3309430691079348,
          0.518951495492212,
          -0.24437212125275,
          -0.16429736779570794,
          0.5655994520007307,
          -0.3730076209737659,
          -0.14911247305747471
        ],
        [
          -0.3197436024229838,
          0.2804616914885309,
          -0.17374221180835547,
          -0.36611614138119825,
          -0.6023953561226686,
          0.21986518796354707,
          0.24089540896123568,
          0.014423887407115211,
          0.033404855569733514,
          -0.42874815591275806,
          -0.024723128450249758
        ],
        [
          0.714662951421991,
          0.3302504245334337,
          0.894822444847187,
          -0.3338444774757308,
          0.38408465411079157,
          0.10210571106839997,
          0.21893779538564093,
          -0.34062129762338916,
          -0.2628530444018757,
          -0.5486276947387294,
          1.2780566317624793
        ],
        [
          -0.029900080368725126,
          -0.869312820481346,
          -0.4338366632277327,
          0.2596532360176993,
          -0.32840121341067957,
          0.5498772809885392,
          0.3867978763482961,
          -0.05568415041300956,
          -0.2541049263491732,
          -0.008816749215336017,
          -0.1607307150976984
        ],
        [
          -0.7480292632911846,
          0.549796552901256,
          0.7213157530045363,
          -0.29194918093779654,
          -0.18923596841519394,
          -0.4767599661815618,
          -0.1483177273468721,
          -1.2342192456799657,
          -0.31913569149274684,
          0.9267647925350032,
          0.03632615786892945
        ],
        [
          0.5900059347303505,
          -0.32059767860043914,
          0.7469779197044879,
          0.03405066742697947,
          -0.21507271601267483,
          0.8971303159675182,
          -0.3791069514518441,
          -0.423779610170967,
          -0.023478791403672105,
          -0.19185607823985132,
          0.0829700060878377
        ],
        [
          -0.3651604091169959,
          0.4439312893165543,
          0.47445412781005586,
          -0.15745614758164586,
          0.25229224053509136,
          -0.07492762083294628,
          0.8247832821126326,
          -0.3881812370995872,
          -0.22411163004917742,
          -0.9318370223836598,
          -0.024533388421317723
        ],
        [
          -0.02634788976519033,
          0.21626499559592713,
          -0.1862453676663094,
          -0.1727443611997743,
          -0.7210436322930547,
          -0.18269774718291837,
          1.182728780298685,
          0.583490476333951,
          -0.35111537340196786,
          -0.5229375802649856,
          0.09013522742596836
        ],
        [
          -0.25486599681135985,
          0.38356082337187514,
          -0.36999744533445167,
          -0.2780062596131501,
          0.6872220576479741,
          0.6305320484328569,
          -0.45160670117990503,
          -0.4687709540348384,
          -0.16430789401675477,
          -0.8766539517323875,
          0.023195754994634294
        ],
        [
          -0.6535353913448283,
          -0.5006730533682834,
          -0.1493927256229771,
          0.3690108857413024,
          -0.35987396438817687,
          -0.45784123168779683,
          0.22059029344264144,
          0.31554967921528815,
          -0.40964363369387874,
          0.6971741048468002,
          -0.24130881827090336
        ],
        [
          -0.21079080899646058,
          -0.6466893185388438,
          0.19458705885332314,
          0.7770690765114605,
          0.11413686987613123,
          0.15267354668320532,
          -1.4095057730717206,
          -0.09328602276689807,
          0.23281970366441684,
          0.217284461342101,
          -0.18233726777706663
        ],
        [
          -0.12501821928176748,
          0.11338481798140343,
          -0.025946443117696102,
          -0.13536697286128932,
          0.4666634455639272,
          -0.42968910352608963,
          0.411632743333807,
          0.17038135814541244,
          -0.3702303068203776,
          0.45716651063608366,
          -0.40017920184216377
        ],
        [
          0.2081896913332305,
          0.2540505103129438,
          -0.0976780870108978,
          -0.37975745856329357,
          0.21133965368616434,
          0.4109799279399768,
          -0.050300529873160936,
          -0.16938175136208825,
          -0.09956302265398662,
          -0.340006089996291,
          0.021370608931416447
        ],
        [
          0.4060494952245158,
          -0.5891667084438388,
          0.367402157885777,
          0.09217659710831616,
          0.09724049948727792,
          -0.07689468990097503,
          0.12296249618425104,
          -0.5635545929896685,
          0.6095082277884815,
          -0.39379535845767716,
          -0.3275035305676798
        ],
        [
          0.2179677385194577,
          0.6125547580723318,
          0.10550411869397446,
          -0.1019797617029037,
          -0.5370389895987282,
          0.15536960069967262,
          -0.13032294461289837,
          0.7316949883004956,
          0.16059856972480063,
          -0.15833545698722926,
          0.8087304463784963
        ],
        [
          -0.11866039250573406,
          -0.44353282172454384,
          0.288371372574827,
          0.09511249666214455,
          -0.2431590284235721,
          0.1086588766613178,
          0.24459807693477928,
          -0.04246625144490374,
          -0.5932201836019215,
          1.2643546811197168,
          0.40009225231393625
        ],
        [
          -0.46745501334304806,
          -0.3384581086745386,
          -0.5936762008134042,
          0.1301606648210991,
          -0.3628549764080865,
          0.025885549314860607,
          0.3592239864091759,
          0.34926011946505847,
          -0.16363021764472793,
          0.20606910790067076,
          0.23550123781768656
        ],
        [
          -0.26582576352974413,
          -0.6359347967179869,
          0.4483653576082922,
          0.2701729392672588,
          -0.05456111753706162,
          0.34959342651148057,
          -0.0892968150972778,
          -0.48832177381678876,
          -0.5402119063912206,
          0.8686729654043793,
          -0.31481717364728484
        ],
        [
          -0.3005369502818511,
          -0.3822644537727919,
          -0.21676531989840264,
          -0.17470843998782004,
          0.22855294133136442,
          0.5022055581605359,
          -0.009713043644501245,
          -0.08080906556811936,
          -0.036516850536850685,
          0.30270653423221994,
          0.038590116732143256
        ],
        [
          0.5562064293956855,
          -0.5180466751106138,
          0.11517709233639893,
          0.2637983197452603,
          -0.25000288769438056,
          0.22089327804731093,
          -0.42814846437891774,
          0.8910889099344911,
          -0.4710514930341501,
          0.702019587165645,
          -0.49198351880431335
        ],
        [
          0.39728023283536207,
          -0.27228817921408005,
          0.34146386357365244,
          0.24568446403637575,
          0.6377895717052227,
          0.04087436180495652,
          -0.9971987871481462,
          -0.47792429397518155,
          0.35039995504623433,
          -0.17023723172870253,
          0.04180271322957555
        ],
        [
          0.4229930563345637,
          0.34189702404133643,
          -0.730489213100527,
          0.4059453994070755,
          0.428045521423864,
          -0.28799224232543896,
          0.5726344804221705,
          -0.0719425656842792,
          -0.7001768905566099,
          -0.06943794678597842,
          0.6600313538491389
        ],
        [
          -0.5782845311821782,
          1.0637252738691243,
          -0.2786646396740339,
          0.11684283987011303,
          0.5059158110286758,
          -0.2721135540820439,
          0.1422583974577265,
          -0.31654174806537744,
          0.5016308425674518,
          0.09230501078618224,
          -0.2936410273010431
        ],
        [
          0.5781364043535084,
          0.37667913900126443,
          0.24564286974664615,
          0.6261589157291809,
          0.4392353214181484,
          0.3802551520409503,
          -0.44229940948928037,
          -0.1786259278573344,
          0.026105763948971794,
          -0.3586047294666345,
          -0.1815110247799434
        ],
        [
          0.11059327031742956,
          0.40161636415626006,
          0.013304256930123425,
          -0.1395809972572423,
          -0.28453644142715956,
          -0.3865367370781665,
          0.4237353335398432,
          0.1345529642583586,
          0.4931921343045342,
          -0.3295726000518347,
          -0.8715347776226698
        ],
        [
          -0.5530184373064754,
          0.42500835303261053,
          0.6514542895066445,
          0.1366606892737343,
          -0.22253404765096907,
          0.012582457829060636,
          -0.09581871362781609,
          -0.01162213358140386,
          -1.076052359333414,
          0.19988297156739376,
          -0.09735604849202725
        ],
        [
          0.954439238389927,
          -0.09696451560027163,
          0.8364097068643865,
          -0.17233573060172702,
          0.12867255145632397,
          -1.3542406175465165,
          0.23503122305980387,
          0.10804698307626891,
          0.7259858051130988,
          -0.24741645988042893,
          0.28351442856142106
        ],
        [
          -0.42678857191910197,
          -0.6872121758947646,
          -0.22918372899298559,
          -0.10869497504794504,
          0.6148557417134073,
          0.0036097916161358812,
          -0.16294007475419137,
          0.05672354028764935,
          0.04191369161633396,
          -0.33759401355201557,
          0.5727491376808276
        ],
        [
          -0.9656168794365254,
          -0.276322823163139,
          0.33653887162764323,
          -0.2932853544727968,
          0.009417090962167845,
          0.5159942487892281,
          -0.0483883344153548,
          -0.5787121570769226,
          -0.27226201167371483,
          0.8432231404005134,
          0.21337403618658476
        ],
        [
          0.4157035636757406,
          0.2577923152707873,
          0.4491414966413237,
          -0.39426823324079663,
          0.08229275541193487,
          0.52561332400755,
          -0.5286340534806051,
          -0.1785254204304509,
          0.20014129988138157,
          -0.5007864443135562,
          0.7394267003344316
        ],
        [
          0.8899016649633265,
          -0.9278417695327895,
          0.2682562693199998,
          0.4131563447666214,
          -0.239699531355588,
          -0.20020786720650935,
          -0.1365254174123969,
          0.3507876950812758,
          -0.11672389610924153,
          0.6501740722618914,
          0.1944034033987591
        ],
        [
          0.4770723451437647,
          0.6890702293771818,
          0.3538521040976775,
          0.060360746274371185,
          -0.13323649451900155,
          0.5950588508628819,
          0.1695400648501844,
          0.022425560439385653,
          -0.7935063337125994,
          0.07562506555620371,
          -0.17126153841730504
        ],
        [
          -0.6969594181340385,
          -0.209208042468211,
          -0.039527803201092664,
          0.6168795482386401,
          -0.023326623013591296,
          0.32798233326097875,
          -0.6391745232389859,
          -0.24483736824531235,
          0.0016099996398304302,
          0.23276527599099947,
          -0.09530606162256888
        ],
        [
          0.2591799848651903,
          -0.28775176005896425,
          0.31507116958570053,
          0.17839750008662678,
          -0.39219000432952855,
          0.18837940441133813,
          -0.16132624108649155,
          -0.6506208523228122,
          0.325218424251916,
          -0.15762434479495055,
          0.014349659151398825
        ],
        [
          -0.025208915260753934,
          0.08380886812582009,
          0.27998545158760235,
          -0.16395852207706463,
          0.05459977298225554,
          0.39541365266186695,
          0.078646560111101,
          0.0847938774263552,
          -0.33724283292385676,
          0.25744464889726876,
          0.22215840269805792
        ],
        [
          0.522173806238944,
          -0.3447177396879565,
          -0.09877898938655649,
          0.41790635893695394,
          0.12868786176503608,
          -0.1200923551252667,
          -0.09660395386176647,
          -0.23919601761499923,
          0.49747050102416857,
          -0.4359090984421937,
          -0.12281730313121694
        ],
        [
          -0.05138978142411277,
          -0.11608448013106393,
          -0.3581105328976155,
          -0.23070595746839398,
          0.1825098788884352,
          -0.25306986524434244,
          0.35752194958114836,
          -0.587790980282312,
          -0.25690409074825105,
          0.049369288161929745,
          -0.22144272782247004
        ],
        [
          0.12010442154796165,
          0.13834743203977254,
          -0.42796540727944743,
          -0.47512654393729215,
          -0.6002032268176728,
          0.16175428598802716,
          -0.5261946625358894,
          -0.3395210007324072,
          0.04832410655940348,
          0.6572383845834339,
          0.2152148850955978
        ],
        [
          0.5083923856691881,
          0.051749080120400345,
          0.46815260141640735,
          -0.3245001995506711,
          -0.13287131240255987,
          0.15499027355635986,
          -0.12583332122776658,
          -0.15786234410341238,
          -0.22352838189085164,
          -0.15015031060773992,
          -0.19891812400443865
        ],
        [
          -0.9929037765330272,
          -0.45557032037244394,
          -0.10832382095629181,
          0.6974126400771457,
          0.45315653419592544,
          -0.09661105956796312,
          0.4638295760065229,
          0.10637661868972388,
          -0.2390802553512794,
          -0.4794037126048814,
          -0.04533464835408496
        ],
        [
          -1.3034984441874171,
          -0.5666413815740815,
          0.01169066401542628,
          -0.4470779222698618,
          -0.15453369795563332,
          0.395829290302455,
          0.18213545797356176,
          -0.015180184549818938,
          0.2577863235731806,
          1.1538833187630027,
          -0.05412045092331095
        ],
        [
          0.5964974594205122,
          0.23531501441752523,
          0.042626582047833664,
          0.07241697984056052,
          0.04201195521253141,
          -0.2146463542647986,
          -0.3168032249210388,
          -0.8822373320050944,
          -0.021180260885372504,
          -0.11976911789799302,
          0.01710812514194138
        ],
        [
          0.8339910317364252,
          -0.39254275892281354,
          -0.0934842024830684,
          0.5524491553497138,
          0.33052885546295036,
          0.3459953896088884,
          -0.3385287291121527,
          0.23945987108206201,
          -0.4079559421647337,
          -0.061172438525082924,
          0.40134574428948167
        ],
        [
          -0.2818086572215302,
          0.20292529953101512,
          0.7993771989933225,
          -0.5496593535122244,
          -0.45179188583948854,
          0.3891581223346565,
          0.026099449805988738,
          0.2627406066607932,
          -0.44045293967584254,
          0.6516924701343738,
          -0.09538816692300475
        ],
        [
          0.05332483417955925,
          0.23686489392335597,
          -0.6896058687044709,
          -0.5346971590126592,
          0.48804440405629795,
          0.08597645053770302,
          0.14999335693952612,
          -0.1580009754540585,
          0.11920937192589486,
          -0.3192375613796053,
          -0.36604659366092823
        ],
        [
          0.3328208947381707,
          -0.016033068574661788,
          0.5336074434010555,
          -0.1584497775119306,
          0.628490473574736,
          0.05721558813137949,
          0.3482643839161512,
          -0.10025510793161758,
          -0.3189026461141272,
          -0.9754620002931731,
          -0.3589606589857217
        ],
        [
          0.13624755313938627,
          0.5128659738037816,
          -0.26306655841888743,
          -0.07256349301582994,
          0.3257883189661171,
          -0.10760064226036298,
          -0.7069787516905789,
          0.18162795636926157,
          0.08908199278340025,
          -1.0514201473486062,
          -0.11692269085240364
        ]
      ],
      "b": [
        -0.14050176552218177,
        -0.10957343865963369,
        -0.21314717716527845,
        -0.1196326171102947,
        -0.18004074058872696,
        -0.29506621980278397,
        -0.2318838379659366,
        -0.14582143584086754,
        0.16005521447290372,
        0.27724059516179755,
        -0.20378558950534506,
        -0.11993926144764962,
        -0.2579845369771661,
        -0.3482114959888065,
        -0.26604262349469165,
        -0.18019403932820152,
        -0.08153698222568843,
        -0.030191539727061144,
        -0.3897414013725726,
        0.048451744836756155,
        -0.13894466298541036,
        -0.444271841423629,
        -0.2675570604826122,
        -0.12345509017425028,
        -0.568964915063581,
        0.06497962748752713,
        0.03385611162543062,
        -0.14050753528736049,
        -0.22140905257640106,
        0.3617923622420158,
        -0.2605312313941492,
        -0.3369417526557591,
        -0.5808929797597094,
        -0.03838832602805896,
        -0.32202807732765215,
        -0.3334856262125078,
        -0.28732054397904594,
        -0.0020894776229010707,
        -0.21425157347468285,
        -0.4714305979251404,
        -0.1352352575040762,
        -0.17652773313256215,
        -0.0993104864379941,
        0.02982971525321923,
        -0.28403005126734615,
        -0.05339909363892379,
        -0.01645809895913057,
        -0.20074947886738853,
        -0.1267159460718566,
        0.24030712301033316,
        -0.22295035858494083,
        -0.3951730836483878,
        -0.12424556697776218,
        -0.2357982809290925,
        -0.22488644562288868,
        -0.43459579667643555,
        -0.36863643731397866,
        0.3882047641026327,
        -0.13536309397680332,
        -0.009198039241031564,
        -0.22195479731635243,
        -0.10271141438473477,
        -0.3971537826124969,
        0.012797648214826434
      ],
      "activation": "relu"
    },
    {
      "W": [
        [
          -0.008952723844232685,
          0.05624517895393636,
          -0.021606371625845448,
          -0.20919940263646142,
          -0.03527972588035788,
          -0.026785516823556392,
          -0.04958471612109218,
          0.0006247206692734654,
          0.00038750065361746363,
          -0.28645070507638926,
          -0.13953177081197368,
          -0.25602457205561274,
          0.02797804735867778,
          0.09299336216139786,
          0.03088712335053821,
          0.004289106908775398,
          -0.02739952926164249,
          0.005555489017262548,
          -0.04041937207524691,
          -0.04100057356813538,
          -0.005078745087963112,
          -0.06056193229510993,
          -0.17263021902640732,
          -0.8128984217012821,
          0.22988144225743415,
          -0.28675241197883833,
          -0.015646798259670473,
          -0.056357399355526985,
          -0.23293024138050195,
          -0.11071065967146083,
          -0.07309323232652376,
          -0.11984866763775849,
          -0.51696298712269,
          -0.22448810097742736,
          -0.06643727654234007,
          -0.39308492838593156,
          -0.20550560663854736,
          0.1548288018025486,
          -0.02903063943020105,
          -0.2865905139894571,
          -0.10722230595989975,
          -0.07084391156763145,
          -0.047094154790645,
          -0.16663740088491155,
          -0.029695279853114896,
          0.06547121292274156,
          -0.015050274285295597,
          0.12715498340340647,
          0.09434373701868314,
          -0.18468733824175323,
          0.22167970311752652,
          0.08299483229047257,
          0.014155157329914087,
          0.2903803112848319,
          -0.03747252151284971,
          0.16594837898486955,
          -0.12005306729027822,
          0.5338772185237947,
          -0.05856204757675661,
          -0.0816747182473054,
          0.2997295518055163,
          0.007096824125157661,
          0.08108520474553185,
          -0.06807005318985758
        ],
        [
          -0.11313749267983594,
          0.01798428595450408,
          0.11401454650377994,
          -0.018882882897887227,
          -0.024203492751468506,
          0.20967671943743624,
          0.005177779091115302,
          -0.38720063510047154,
          -0.05203474051082995,
          0.051507439663484714,
          -0.47379538310168146,
          0.29517561257819785,
          -0.0302854059729655,
          -0.26587177804852763,
          -0.028686236995516493,
          -0.037676140463672146,
          -0.22566128493634272,
          -0.11883267685248057,
          -0.00899503551112783,
          -0.04337648673695219,
          -0.28056728069883063,
          -0.16358731465537532,
          0.12783687485313405,
          0.10516439015534383,
          -0.2354259538231647,
          0.044812278192065166,
          -0.02473727206012163,
          -0.014503676221335431,
          0.09640338150940038,
          -0.05049596005786807,
          -0.1742858733404474,
          0.03804348517977918,
          -0.05578998723536959,
          -0.018056285346521872,
          -0.263333628282916,
          -0.10301916593876989,
          -0.05138897331220166,
          -0.04257867842651498,
          -0.10954398509421547,
          -0.08937331970457921,
          0.004676827663908107,
          -0.03616347566431196,
          0.13414435211029246,
          -0.07817142207815063,
          0.32358958706266305,
          -0.04651456616098403,
          0.05384553786252932,
          -0.3207810621531207,
          -0.1575608484568752,
          -0.152955379222376,
          0.10390113810674716,
          0.10433977680781135,
          0.10120685228645182,
          -0.22874912006683398,
          -0.17748840357118623,
          -0.026681282970192285,
          0.015864321250944367,
          -0.06001169667185903,
          -0.08153734493647453,
          0.06257978369729107,
          -0.011050861601789473,
          -0.04551036849247898,
          0.01922316068932162,
          0.08371724061620506
        ],
        [
          -0.23508205741333524,
          -0.08648354278996713,
          -0.09898763188809837,
          0.1374512113197195,
          -0.17804254024827573,
          -0.06830612828951844,
          -0.2301843453901939,
          0.47998442516255285,
          -0.10199018049140371,
          -0.012599318771988381,
          -0.09318287681907024,
          -0.026316913034386713,
          -0.22151370018091432,
          -0.0581522656891536,
          0.017655782510762243,
          -0.006002857721241973,
          0.18829223803536446,
          -0.0847961725582821,
          0.11793060902807319,
          -0.005921264741414632,
          0.10246058991821651,
          0.09811938020486342,
          0.13179322382593825,
          0.27555130072768286,
          0.08648534195228233,
          -0.1380196970910751,
          0.06665211826822413,
          0.21875634040079192,
          -0.2114697618570609,
          0.0061947858354209975,
          0.028630522610216477,
          0.23561046753581588,
          -0.0364272069988887,
          0.10297010182460224,
          0.1404544438417799,
          0.04862390532658306,
          -0.06879097251538938,
          -0.0063155835915133275,
          0.11730343540576926,
          0.02377010364772815,
          0.02227583155533307,
          -0.8582046362024532,
          -0.15664171457651785,
          -0.2114813775417029,
          -0.29286466474248946,
          -0.11840605118510329,
          0.05550321940862957,
          -0.2003147553396714,
          -0.05390420575463108,
          -0.028817396167938394,
          -0.04586167856304196,
          -0.009925724731615513,
          0.17674929603006675,
          0.022224033505077997,
          0.038024639278009524,
          -0.06861985791280084,
          -0.0021321399834055925,
          -0.0803446742187914,
          -0.07870418223199036,
          0.007463065301821863,
          -0.29287971620347086,
          -0.13305396282131,
          -0.6653187912426795,
          -0.09658234332728347
        ],
        [
          0.017790940719164965,
          -0.10786661233849887,
          0.1681855010045765,
          -0.0007792532364311925,
          -0.030006392488320544,
          0.15741508895815673,
          0.10521692164262138,
          -0.3670799352184705,
          0.10585772550352919,
          -0.3047982290256625,
          0.5630710169477,
          -0.059022088771915816,
          -0.3285835922512986,
          0.044037384045863236,
          0.08217007906229715,
          -0.35032945710218416,
          -0.0073548259865426815,
          -0.17796542621023453,
          0.14983626258726077,
          -0.022684637188642862,
          0.46705927279287934,
          -0.07632172223126618,
          -0.6019236321826591,
          -0.055072522600227575,
          -0.17750416680017725,
          -0.21533357641379836,
          -0.30352147762793374,
          0.06924893076356749,
          0.02852138705838446,
          -0.026472047643984774,
          -0.1847974331652859,
          -0.1837265098658386,
          -0.30655663130009203,
          -0.04611086844077594,
          0.061053997442199415,
          -0.10283716550041615,
          0.14141228983748846,
          0.3409676753884541,
          -0.2918772776410134,
          -0.10284776413914175,
          -0.34142256622776906,
          -0.021410959200698926,
          -0.04669837511562415,
          0.018521859459588466,
          0.020773042827322317,
          0.6117763823233252,
          -0.06881341050582412,
          0.01981939720618749,
          -0.19033926938044038,
          -0.5224711884133222,
          -0.3624715717092554,
          0.021001750195449136,
          -0.612959961883601,
          -0.10886439310344284,
          -0.18435177790452076,
          -0.019767497308871562,
          -0.1675691252671504,
          -0.3504065693547263,
          -0.32613545233975766,
          -0.05073761735659203,
          -0.08566849583578354,
          -0.2550363601334953,
          -0.14579989113118078,
          0.036924039706734045
        ],
        [
          -0.35303884573627947,
          -0.030284074660434247,
          -0.6148406967875097,
          -0.10553711088594178,
          -0.0028121830631983413,
          0.03156949594989382,
          0.030453058149019507,
          -0.025020908894953776,
          0.0487855772462274,
          -0.10782950897890371,
          -0.06600506211839727,
          0.09511876127933686,
          0.037214407506613964,
          0.15516185014338554,
          -0.122878122765688,
          -0.1815598166659646,
          -0.17241616585238265,
          0.1323004720682648,
          -0.0027899171034856183,
          0.06238698713860343,
          -0.042576825281714165,
          -0.19308164380994294,
          -0.16265169844575947,
          -0.2021905871160717,
          -0.025626446577839107,
          -0.1825103014603508,
          -0.20375025096367097,
          0.14887590931243203,
          0.18214023871189466,
          -0.09561312551402615,
          0.08538952793478523,
          -0.23510078530508094,
          -0.09957424221670026,
          -0.007672599514742604,
          -3.794529138464333e-05,
          -0.050016002708553386,
          -0.033350084523354105,
          0.23798309789352515,
          0.044138014408406215,
          0.13606464470373184,
          0.12909759024749246,
          0.31943307087807293,
          -0.10288414411960452,
          -0.017415535112630495,
          -1.0215862052491727,
          -0.06479554389263159,
          -0.04485767909108131,
          0.18807533509002386,
          -0.03214940831577763,
          -0.013988045972884274,
          0.08506989060393624,
          -0.06178231751638388,
          0.1584684084121032,
          0.015675750834971667,
          -0.03264272859340983,
          -0.1434412407583291,
          0.017277507878129216,
          0.013458312410727896,
          0.044862313537689824,
          0.18691270277917238,
          -0.17986354864572215,
          0.15533729142701533,
          -0.44963652001321225,
          -0.021153340581155578
        ],
        [
          -0.04113157378828297,
          0.14264553935670923,
          -0.14899624954234866,
          -0.06566208364191915,
          0.13523813011702335,
          -0.23359557074490206,
          0.0855914799168814,
          -0.04956601033960727,
          -0.1495559594557033,
          0.0013512022113454482,
          0.019454822139972735,
          -0.25739327276785806,
          0.020424733881189743,
          0.029217186247027953,
          -0.2596523820349551,
          0.18808903478806868,
          0.9876659555917625,
          -0.12323068389992312,
          -0.21500519992322234,
          0.07602444859784871,
          -0.03989077137290808,
          -0.09615005303514265,
          0.1660876081624844,
          -0.055656058382606524,
          0.11019255704407703,
          -0.013427077228509424,
          0.34097848193873015,
          0.49647849955852014,
          0.07526052335908436,
          -0.05547026609691992,
          -0.0049967176516265855,
          0.09307810203842651,
          -0.2237829238042569,
          -0.26603782038701906,
          0.046635280298212685,
          -0.41291955526056195,
          -0.16676618898214524,
          0.046725197973089105,
          -0.1365751025064315,
          -0.4057827071933923,
          0.2856590242209273,
          -0.33923146782238045,
          -0.17686005893495768,
          -0.0688417955275282,
          -0.06610626550982644,
          -0.0024776251006704223,
          -0.014822748875394127,
          0.20181269564363674,
          0.034755895687668646,
          -0.13928973762009386,
          -0.2657856026199119,
          0.06370575085622351,
          -0.004847902976832342,
          -0.506000931585636,
          -0.20450798492727626,
          -0.4723912797716262,
          -0.025242525375775513,
          -0.1824255962170211,
          -0.26117102340392834,
          0.11359425238378487,
          -0.17963352040398145,
          0.010018469737639634,
          -0.04475585249263228,
          0.1123198974002488
        ],
        [
          0.012898499550645832,
          -0.0005335697624716625,
          0.2612451285990315,
          0.2841410127973021,
          0.23603936709213194,
          -0.053749002129514195,
          0.6106258982122674,
          0.37302655392126405,
          -0.05535551457300517,
          -0.02044013891166678,
          0.20571712733830533,
          0.07880708430556439,
          0.09330049662788746,
          0.011362266137114491,
          0.1093635712459767,
          0.17883690137209537,
          -0.0029415206274061804,
          0.13269832539179932,
          0.2026757481619864,
          0.02276750800626241,
          0.14106872736927473,
          0.272867463644471,
          0.25177593470144166,
          0.23500202445274718,
          0.13834835654461258,
          -0.2661114527264915,
          0.09935063100338072,
          -0.07198732187380343,
          -0.049699198140841165,
          0.1800782527929592,
          -0.023385603831602993,
          0.0656511789520841,
          -0.09194728670458605,
          0.18129994990729242,
          0.04635058184477394,
          0.21983054627546633,
          0.1987947567198172,
          0.12372816772177014,
          -0.04452038242312896,
          0.08384267416977792,
          0.27467686002485225,
          0.10623037168328467,
          -0.1551716236386804,
          0.22238643350424825,
          -0.2515829267015111,
          0.17078353765464832,
          -0.18845924696845398,
          0.17497820571311481,
          -0.0255360804500021,
          0.050177755654076645,
          0.0038255604266469777,
          9.01587496787829e-05,
          -0.09333430979010529,
          -0.028553105769335528,
          -0.29277819165660235,
          0.13224558639621123,
          0.23842349773268215,
          -0.18309092903938815,
          -0.26331654923847675,
          -0.04340458740454577,
          0.1412682839666543,
          0.12956310391484813,
          -0.11697086940987325,
          0.1709484244845987
        ],
        [
          -0.14191915914044448,
          0.054116195115328634,
          0.10148112037325496,
          0.20376353079952303,
          -0.23088979695559125,
          -0.21490205882115054,
          -0.10966777023067845,
          -0.12310370922351066,
          -0.1583805147400822,
          0.13755948377396737,
          0.09368386673720765,
          0.0782942846635157,
          -0.852603623307045,
          0.02949445818581685,
          0.1820533348037056,
          0.11670696935972158,
          0.3030128006121561,
          0.25424817111817327,
          0.019428783552551076,
          -0.14759665774925718,
          0.33402517308613755,
          -0.10874861232992845,
          -0.5253568130364951,
          -0.03895802500006392,
          0.31813522121522986,
          0.11364076160312059,
          0.1968972888948299,
          0.012896093910380912,
          -0.07044321781233522,
          -0.24321083909041719,
          -0.07037261540382199,
          0.09898142942483909,
          -0.20556773611848156,
          0.2561591542979265,
          0.07298831834867693,
          0.023028977248848805,
          0.4083746911523651,
          -0.18362528303599174,
          0.1713450940918315,
          -0.0841468216874072,
          -0.16013872281776032,
          -0.06132414883756575,
          -0.10614714116076986,
          0.005482390271737378,
          0.21621449307413768,
          0.11442929839681058,
          0.009032406890083578,
          -0.09787096387847684,
          -0.6224141685935841,
          0.2153989969831414,
          0.3556610585784273,
          -0.20788967744064785,
          -0.021101848035871226,
          -0.23458580372009388,
          -0.18425662754870809,
          0.25222194709923546,
          -0.1265003468153119,
          0.07474510357018924,
          0.016991708666479276,
          -0.24193945599507954,
          -0.0016436374598090882,
          0.07608806532125617,
          -0.008653156807762033,
          -0.05503916276186511
        ],
        [
          0.8659133264065507,
          0.05099367350962876,
          -0.016855674133781185,
          0.033541917012023324,
          -0.13013251993829114,
          -0.006570621791264555,
          0.23515802759161838,
          -0.04413277735472363,
          -0.06810805171507749,
          -0.08071051083503293,
          -0.4282087180628055,
          0.014118674593312409,
          0.03603303176392059,
          -0.35053251568959737,
          -0.10249212427258847,
          0.004518348903832371,
          -0.4678317939255792,
          -0.08683602802012994,
          -0.3668645059683362,
          0.7198566298958382,
          -1.0422254088708123,
          0.04952300448900682,
          -0.12314427948345355,
          -0.3031360226416254,
          -0.486550755365261,
          -0.053571604755807654,
          -0.048867985543952136,
          0.0002076470811532122,
          0.28397637752047383,
          -0.03368073230470147,
          0.08694199505606004,
          -0.05053601330108746,
          0.21785107270396847,
          0.16426550720862043,
          -0.3362529675963102,
          -0.5311414327900619,
          0.14602327610729968,
          -0.05671419068471956,
          -0.2855426059202502,
          -0.08880701691636647,
          -0.002152542242354153,
          -0.45870454079812756,
          0.009091305177597962,
          -0.31297132122733207,
          -0.2342939599987375,
          -0.1400481629923733,
          -0.03023648856120726,
          -0.3027232478403241,
          -0.03472739640106453,
          -0.44807129444243804,
          -0.8281778144570289,
          -0.03738072132208507,
          -0.21486284920371473,
          -0.46505623975187277,
          0.004891793414968447,
          0.37364909308623906,
          -0.09354260695109531,
          -0.1400722454234133,
          -0.087206644911214,
          -0.10377806325860744,
          -0.010193784296266915,
          -0.008095056380299406,
          -0.28062454073671866,
          -0.15794007635917415
        ],
        [
          -0.0707636054345564,
          0.058638467863350044,
          -0.03996255597621815,
          -0.161613359389254,
          0.004138656624275276,
          0.004914782227614912,
          -0.10963447779388139,
          0.05751553618050653,
          0.1036728084149748,
          0.21590090926581207,
          0.3202743154938409,
          0.18239221049019919,
          -0.23286805173533193,
          -0.11500907031022409,
          0.4607374150337478,
          -0.09440192225544444,
          -0.013241553450116518,
          0.3290772324230439,
          0.2291506050792571,
          -0.05108712501237247,
          -0.025509312173828968,
          -0.18807983129868958,
          -0.29500172612017056,
          -0.0033198372354962015,
          0.15398292062327612,
          -0.017988530954962483,
          -0.049783216575322864,
          0.39465598144251507,
          -0.14897570205780328,
          0.08699223833407167,
          0.021934957935177187,
          -0.08324339014520322,
          0.17865970329733943,
          -0.24706620579245725,
          0.019690191454957897,
          -0.17119565630383116,
          -0.09431541686958274,
          0.025200976133795183,
          0.14485311636377354,
          0.22259339328636807,
          -0.0135963603157653,
          0.42153167278003967,
          0.34575595021969774,
          -0.0285584065019399,
          0.06506619323149265,
          -0.3001262013801038,
          0.023254639980527698,
          -0.08414513492427901,
          -0.34556722182247496,
          -0.050029924855506704,
          0.11757304194147478,
          -0.2956915245365241,
          0.15902156593835276,
          0.11090350095707023,
          0.014853056491191303,
          0.0559891091870876,
          -0.026816683495023558,
          -0.12920780815607866,
          0.38455277473009847,
          -0.303709722581952,
          0.016855584962487853,
          0.2117841770397192,
          0.12810825797219028,
          0.15130524125107644
        ],
        [
          0.1279458311408424,
          -0.16702693567612784,
          -0.30225348912535976,
          -0.006599805542776346,
          0.09503804712024577,
          0.05532661775674933,
          -0.30904695093542917,
          0.3562722543835233,
          0.335028544981503,
          0.32495273164593047,
          -0.07413283285712859,
          0.004980317839026278,
          -0.28343067566521085,
          0.24278224908618468,
          -0.3958990842649573,
          0.139933544653698,
          0.06407994157167085,
          0.1529164202994083,
          0.15981669828753542,
          -0.15816829535341426,
          -0.10920256715963446,
          -0.07150764586860595,
          0.07855402210563886,
          0.27153971439771496,
          0.11735977440880098,
          0.4018178324475519,
          -0.031547630058015495,
          -0.00974184519924429,
          0.37351996704774326,
          0.08285160553779407,
          0.04845441814500339,
          0.08634774760659254,
          -0.2691652933312918,
          -0.09903443761868104,
          0.011311679947945099,
          -0.0883713790122555,
          0.18168001804813863,
          -0.06890775307566606,
          0.04522096352819432,
          0.34912454175875907,
          0.06611633859527452,
          -0.07930121959728545,
          -0.08496423305240355,
          0.3304402682188275,
          -0.2182688845468569,
          -0.21225155602145743,
          0.1303670944055378,
          0.40382040548413967,
          0.3078318003616969,
          -0.24720806289542713,
          -0.2365013010667129,
          0.2596545961763948,
          0.2418705081628889,
          -0.2204877729438357,
          0.03297901049043067,
          -0.20699817811990456,
          -0.12313839243259328,
          -0.3203450340956294,
          0.07577139751613732,
          0.11260629786100235,
          -0.1044282879367686,
          0.2706925417028134,
          0.07409763746437954,
          0.15023560850483797
        ],
        [
          0.1008374624483491,
          -0.0845839769988267,
          0.05865183588427433,
          -0.25763558185207175,
          -0.2686809703347902,
          0.19734923872172858,
          0.07569676393862386,
          0.227144352979671,
          -0.4456648971006149,
          0.04331555849596056,
          -0.06192765303618366,
          -0.00690572420975725,
          0.056804962080323075,
          -0.007099796040432849,
          -0.18723117701045092,
          -0.007994410757911297,
          0.19882298485521974,
          -0.20419019777095365,
          0.3077643322565208,
          0.008037717773115372,
          -0.05981795927298421,
          0.07294898631249398,
          -0.11512777792078704,
          -0.18910128112788369,
          -0.06630425987453985,
          0.16190266822233795,
          0.3719280823867764,
          -0.07832248953944486,
          0.12395114813455319,
          -0.1394068072363481,
          0.08043377083828036,
          0.17999273960196527,
          0.20358454504271079,
          0.008612919817080622,
          -0.11804554360681428,
          -0.14706067687582564,
          0.011383741981424321,
          0.008538766275436569,
          -0.05192943344215276,
          0.058820801143435054,
          0.04734891642282874,
          -0.2895931089381387,
          0.19383586797123212,
          -0.17556595535795505,
          0.3547633243147824,
          0.12915850994575254,
          0.06374489795155305,
          -0.06807020823300597,
          -0.045611184305749744,
          -0.30860100083757375,
          0.11521752333914999,
          -0.02154056135052304,
          -0.5164894195405039,
          0.1699229894254953,
          0.17759299644936682,
          -0.14524921885063788,
          0.15953344194348795,
          -0.05474224639119482,
          -0.4460780434678443,
          -0.13034495710178615,
          0.1279896222798609,
          -0.07163928472994732,
          0.01743324643969691,
          0.012008749645429907
        ],
        [
          0.15685034544790663,
          -0.03224955084153513,
          -0.05618091212259549,
          -0.6470807441113987,
          0.09871338283598634,
          -0.1864038922176281,
          -0.2564800655543358,
          -0.1366424471878144,
          -0.0981033092429106,
          0.057784443788828174,
          -0.40447711157199834,
          0.028662330124866058,
          0.12943359443631672,
          0.09673778453541251,
          0.1690916600540242,
          0.03853377297919252,
          -0.1490481628409947,
          -0.022737898317904803,
          0.3443717443999841,
          0.09687697800821769,
          -0.11463550385942656,
          -0.21840082179628847,
          0.15734561734347977,
          -0.03881596443859043,
          -0.11135739476933915,
          0.13070049036971487,
          -0.02965768515166306,
          0.2663920952825991,
          0.3342602612942039,
          -0.14481280257534362,
          -0.13651847509086015,
          -0.011251197189408205,
          0.06235326772530923,
          -0.2890718068369771,
          0.2643759891532692,
          0.25217692098568106,
          0.18587935578969994,
          0.2851287973076986,
          0.0480855062725823,
          -0.8427331904427743,
          0.05668111856631,
          -0.14258688587203963,
          0.24540167643062988,
          -0.05611341532866356,
          0.030870760095843504,
          -0.0651615282976469,
          -0.009551717888260827,
          -0.2834738334885782,
          -0.06519724280718014,
          0.07201699662957374,
          -0.048149757298380565,
          -0.25716069656722695,
          -0.2524089701297948,
          -0.029319200646760687,
          0.039019849075733214,
          0.40698685260520706,
          0.1585214654841068,
          -0.012260615249137106,
          0.2640330796130863,
          -0.06875312956369833,
          0.1750285552151212,
          -0.04346646852110664,
          0.11407635299868928,
          -0.09396228778012168
        ],
        [
          0.30700868974022916,
          0.2913756580194358,
          0.054735437298081835,
          -0.03949179888189062,
          0.03541942283143243,
          -0.03587450919629972,
          0.14698533542567271,
          0.013687636413553195,
          0.023922600301529557,
          -0.001401542743678035,
          -0.17373037092645327,
          0.04111609813332488,
          0.1175388371526149,
          0.1003001141769327,
          0.15153708812317254,
          0.12210215243498858,
          -0.04209933127521538,
          -0.1159185024946839,
          -0.04669150579092259,
          -0.1704617576716522,
          0.37694250645560784,
          -0.26067576803134024,
          -0.05448463992805469,
          -0.07947022725801932,
          0.17917662535436402,
          -0.3218478583217713,
          0.04950044298549353,
          0.18506307391013516,
          0.05642532631096399,
          0.09063712380978271,
          -0.07057565386553136,
          0.2944185029471919,
          -0.30559927037335,
          0.33359066436772494,
          0.045904519994709216,
          0.08566436260759067,
          0.0657977900537206,
          0.10783243122017182,
          0.24008456860625116,
          -0.11642828937894047,
          -0.19753437888732,
          0.002853967300355166,
          -0.01673254453246087,
          0.14358860454810735,
          0.2655295687675366,
          -0.18349798532523698,
          0.1295315449585292,
          0.19966581543258555,
          0.3944214869643937,
          -0.20946338334598863,
          -0.03552179948659086,
          -0.2321526833160413,
          0.25272105459839533,
          -0.08130693212934735,
          0.1999474580440041,
          0.28416107388977146,
          0.08629366277358681,
          -0.053836989035399886,
          -0.21461082046492796,
          0.037588883089113165,
          -0.27305303493441974,
          -0.042491669492721304,
          -0.005092438505190996,
          0.014945264728101844
        ],
        [
          0.20629500317151836,
          0.0418716301753107,
          -0.0307945557542427,
          -0.19461588258095763,
          -0.18984420219561343,
          0.06315196286510641,
          0.11179597185504084,
          0.014808380155690908,
          0.03866422159910411,
          -0.40846469484802,
          0.33984295258082414,
          0.1999538428465198,
          0.438456438274767,
          0.07887185346595985,
          -0.47179058308324284,
          0.3870789780508856,
          0.12430489638374354,
          -0.14466547480493208,
          0.11345353634376885,
          -0.05732428741291072,
          0.2383672485456813,
          0.22109964319692318,
          0.16438777498457055,
          -0.02539535090888662,
          -0.2875146558234284,
          -0.47152117835883606,
          -1.0044891389684898,
          0.07417596711728937,
          0.4191736165442139,
          -0.09726183659261156,
          -0.14501186495630297,
          0.11035479950989495,
          0.3059547469622337,
          0.4791012213672791,
          0.3299631960470827,
          0.18814858484119576,
          0.20236551398510877,
          -0.039362397558636505,
          -0.14147646524222054,
          -0.12250419465993169,
          0.1593223531715561,
          -0.04009780616377027,
          0.12789012861209478,
          -0.5148824979953726,
          0.025355229929454305,
          -0.0918126886921396,
          -0.029396647166290795,
          -0.11587887465462499,
          0.3581708608955385,
          0.014781222940975246,
          -0.122870534364275,
          -0.10618491793318809,
          -0.3238319288110906,
          0.11624204031012121,
          0.017193002512392152,
          -0.401465946392387,
          -0.03965767742182647,
          0.008825140295650982,
          0.06010408435858611,
          0.1091726030534253,
          0.11533949904176208,
          -0.058328241892854744,
          -0.17203753922765896,
          -0.24811528963548585
        ],
        [
          -0.347149718270711,
          0.01461721084700568,
          0.09663506268568363,
          -0.026355902285605033,
          -0.08556571407949423,
          0.08755154705666088,
          0.20755744135859003,
          0.3085854666209442,
          -0.047582654078551216,
          -0.058046995591156725,
          -0.31454091768793696,
          0.10876850445398382,
          0.1677508571170561,
          0.10887704190092334,
          0.02444981593256209,
          0.11266100975962746,
          -0.26135106176137374,
          -0.14564131795112328,
          -0.135905033507642,
          -0.2269076148097781,
          -0.06580953183289824,
          -0.03512505590509812,
          0.1727535726437393,
          -0.144017155794038,
          0.0710994928675765,
          -0.08910879060823779,
          -0.6620227379982424,
          -0.3099822825599767,
          -0.40963614426489486,
          0.021139242323310943,
          -0.07929700972411347,
          -0.043950384730214766,
          -0.3662437577912618,
          -0.3456911662722183,
          -1.5423186670155737,
          0.16315523481615107,
          -0.14517980639311182,
          0.0524815844155027,
          0.1503878651215494,
          0.01428557690576718,
          0.1485132754970963,
          0.087691625189071,
          0.07117544133486381,
          0.28860757886412225,
          -0.012841891754434868,
          0.1806783616485292,
          -0.002018288176545919,
          0.0036487587359674664,
          0.15519742666345576,
          0.005124205155771212,
          0.01492423638793622,
          0.20410383764565915,
          -0.14194285035651316,
          -0.08768006826453571,
          0.041897410908825275,
          0.4401364931977437,
          -0.15203898168381208,
          0.039920220732831066,
          0.041068643384394615,
          -0.049397953907390664,
          0.036825679654757776,
          -0.19868344357646456,
          -0.07674262293502646,
          -0.026623227642227403
        ],
        [
          0.0031171120621402153,
          -0.06640138176939142,
          -0.9527906602101021,
          0.208668001455727,
          0.1343094356923516,
          -0.41066316782432843,
          -0.09202937681748623,
          0.13357973998460654,
          0.1043040631176229,
          0.022212213050930994,
          0.3329087370606343,
          0.06018754583757272,
          -0.0196487023370025,
          -0.26708908713522883,
          -0.07124946911690348,
          0.2829239365594436,
          -0.14649282252312162,
          -0.01782484678978497,
          -0.09912393810661561,
          0.034238489235334825,
          0.04157324679647232,
          -0.018706329446501743,
          0.12352540889429582,
          -0.04811950050550144,
          0.005542042176343267,
          0.017567902681481087,
          0.06157679526657772,
          -0.34180767199291145,
          -0.4439582041975916,
          0.044763915521537224,
          0.058230210432273,
          0.05768944734624819,
          -0.14446626635164836,
          -0.09271241172822808,
          -0.0002369954072417071,
          -0.11589889224393302,
          0.27313400971362783,
          -0.11134193819273526,
          0.14463958171236815,
          -0.003403137504109027,
          0.07332076449924661,
          0.07081078501674566,
          -1.3978718031810977,
          -0.2429180240089233,
          0.01332811401626481,
          -0.002419185341666308,
          0.006035735544387775,
          -0.1741938055695565,
          -0.11018173375351724,
          0.011742969699820674,
          0.09034588858967364,
          -0.03738567248661861,
          0.05765960848429304,
          -0.06320316708041167,
          -0.04713649021683738,
          -0.010442722053625302,
          0.038174840075403275,
          -0.15594018255900582,
          0.12093150908775963,
          0.08269373499072631,
          -0.1273930522758443,
          -0.053804796483242344,
          -0.11460067610754954,
          -0.013709679093501851
        ],
        [
          -0.16684238297300774,
          -0.052550184298390167,
          0.0421048558195173,
          -0.09509578722099259,
          0.153610546918441,
          0.3483285719305028,
          0.020743502404806775,
          0.1636222098776622,
          -0.14971209469515287,
          -0.14588998642460607,
          0.40206520665403384,
          -0.269745375504196,
          -0.048385839662033005,
          0.15192684243444587,
          0.438309722214162,
          -0.00258536922831411,
          -0.037058726858631943,
          -0.5363203335996193,
          0.26808558770650925,
          0.09188033013698822,
          -0.20507039927009407,
          0.14524561206966463,
          0.07504724835404789,
          -0.13943758231789247,
          -0.23539651677305756,
          -0.017085723371110337,
          0.05650518154943215,
          0.1011954404005656,
          0.2118352473970908,
          0.0649030918723062,
          0.07333798023268606,
          0.08673270574221711,
          -0.1635397889964956,
          -0.21469594555986446,
          0.19471598643345767,
          0.1758420727573805,
          0.1533709070331179,
          0.10330267584227953,
          -0.13347189347888208,
          0.09131182183919251,
          -0.266875083791756,
          -0.05669248513981801,
          0.17300826242321216,
          -0.17869695947109315,
          0.5501912741923922,
          0.25367672914534506,
          0.14321829412190443,
          -0.00656500637611157,
          -0.16114573145711605,
          -0.024242002010847585,
          0.039746981188989255,
          0.1559617890127179,
          -0.033902915235034366,
          0.021397896999940505,
          -0.14773909852213477,
          0.09881022160214224,
          0.23504818783059753,
          0.09093104845798101,
          0.043099307881366074,
          -0.014734953630737608,
          0.15865877471559786,
          -0.08175559718106674,
          -0.19233558233739315,
          0.15627485029107316
        ],
        [
          0.06947372910068182,
          0.1882975482388625,
          0.13112911583671116,
          0.04980599265597605,
          0.0023442630500477664,
          0.04423026483552695,
          -0.32423868501527003,
          0.10363225161539599,
          0.04354650909932556,
          -0.2091136248045971,
          0.11054461218193348,
          -0.14909633843963024,
          0.05009607286416219,
          -0.33813324464967326,
          -0.05544156612134618,
          0.02810902205577638,
          -0.023754114599111753,
          -0.3701338299985442,
          0.2195587058963392,
          0.03509132174818537,
          -0.02048272415320962,
          0.08421923245528588,
          -0.0974218804775069,
          0.0627240757214787,
          0.12459290456794925,
          -0.48533703560512514,
          0.1954176229777616,
          0.07529879422290997,
          0.1228491165298634,
          -0.07692873523251632,
          -0.030744934329807707,
          -0.09913461464344121,
          0.44794294750442615,
          0.140828146085543,
          0.05344409311525125,
          0.2957099395828165,
          -0.03694619554690282,
          -0.024952382840663836,
          -0.08776969718050368,
          0.047155421037182475,
          0.05553523332449097,
          0.09291400802599258,
          0.12393597811802431,
          -0.275636814536192,
          0.04987462966725218,
          0.11908986166459715,
          -0.04221332010127078,
          -0.19070702842089898,
          0.07472374292910601,
          0.1493656902940925,
          -0.2559531432064076,
          0.09039020535804158,
          -0.06250747699271693,
          0.06417636390360414,
          -0.07043529055937851,
          -0.09791977047339724,
          0.07539451298443156,
          -0.9667983197774127,
          -0.17705566720630597,
          -0.11163253717910537,
          0.24393222273250356,
          -0.12990909192130262,
          -0.09893438180575866,
          -0.2159988803327518
        ],
        [
          -0.08032573989363148,
          0.1436099953733445,
          -0.17706743042642029,
          0.1843946471659712,
          0.4021689935099203,
          0.05965365115429223,
          -0.47930127553040436,
          0.2749562073788938,
          0.10484918597510456,
          0.254476289019118,
          -0.2667090910718241,
          -0.006721117137283766,
          -0.10184173921504143,
          -0.20069784379095218,
          0.12059800361732805,
          0.12509965397368802,
          -0.27623199380965924,
          -1.0391613040548626,
          -0.3050166630845547,
          0.08584546439223072,
          0.025160365310547217,
          0.06713728708209894,
          0.159898263187328,
          0.050322921691841146,
          -0.4397167075865734,
          0.09008075624112426,
          -0.2175687943714646,
          -0.32423548789315854,
          -0.23440088255039568,
          -0.013166562504877253,
          0.20176606122605475,
          0.04713504028406662,
          0.20257076393137438,
          -0.08305649502895861,
          0.1971087045114881,
          0.08353342598466702,
          -0.00960932824604635,
          -0.11799030996994775,
          -0.3432840596944553,
          0.30763966498231526,
          -0.05580407893208239,
          0.03155071641658453,
          0.04853172131509562,
          -1.915737645859315,
          -0.011484800947581936,
          0.3131649249479329,
          0.004447591364192316,
          -0.20824530697037283,
          -0.1040672485985299,
          0.2380981022917924,
          -0.21877945828803752,
          0.0476483108669167,
          0.21058490242323188,
          0.20865623220596202,
          -0.20837081485458184,
          0.09885262762861578,
          0.20671320902866322,
          0.24629735818934365,
          -0.46202148901612533,
          -0.02608239598008054,
          -0.06427951162506297,
          -0.19238107321796044,
          -0.30572125494887814,
          -0.5216703135741109
        ],
        [
          0.055885735830651886,
          -0.06567635688715472,
          -0.22998145513223003,
          0.08633559133321965,
          0.3284726016761411,
          0.24022988613788526,
          -0.030120137316588063,
          0.345124464905753,
          0.30955655630881784,
          -0.27900986264722377,
          0.09322706620491238,
          0.022706009262646057,
          -0.18770286989837986,
          -0.5093794134618482,
          -0.06299288291779089,
          0.017002396077056475,
          -0.06390193345785276,
          -0.1442282211172061,
          -0.02849559620604308,
          -0.19534510418137294,
          -0.09542941301105544,
          -0.063835998627757,
          -0.12424384999107692,
          0.09159627453911362,
          -0.14877736167512015,
          -0.46380464089997986,
          0.5372046060875687,
          -0.20417669750530476,
          -0.13602687913174935,
          -0.14125785634377186,
          -0.008377891708805832,
          -0.0837012348262039,
          0.0750224042531033,
          -0.14460465212036977,
          0.20092547903907895,
          -0.3779470915945247,
          0.1156699062888722,
          -0.23800403274906978,
          0.06969102719574519,
          0.20401196405933023,
          0.04405716936234513,
          0.05238420025563186,
          0.16591719127356663,
          0.11694823295342233,
          0.3645977808378642,
          -0.018799956456406426,
          -0.46414868297889716,
          0.11359316051661895,
          0.2675743576031225,
          -0.5366837152055363,
          0.12870193711489017,
          0.006667257556308434,
          0.32849282953021725,
          -0.07634338597689194,
          -0.02258094124756022,
          0.053047557475492876,
          -0.24325666321978304,
          0.2907422199855699,
          -0.05240919612527049,
          -0.048879770584048285,
          -0.07660912201285601,
          -0.13064216558799005,
          0.06626768526893954,
          -0.14617122811741878
        ],
        [
          0.2413869188014051,
          0.1703206130581937,
          0.054271397724085194,
          0.217918840356924,
          -0.1629882138947796,
          0.10204572065940375,
          0.10378513430474623,
          0.35100043049609764,
          0.05728036649181709,
          -0.08850836498574566,
          -0.15263046367187263,
          0.22006088386882153,
          0.01394988812172646,
          0.28445606984517224,
          0.06620007547215544,
          -0.049985828092664594,
          -0.1916562094961015,
          0.08603285879925658,
          -0.08339574690965454,
          -0.053554117827333006,
          -0.08419819958120454,
          -2.9682323361810234e-05,
          -0.295773741452799,
          -0.24514813033984756,
          0.3050753723916884,
          -0.19023562773850497,
          -0.14213973603494656,
          -0.2728573153301252,
          0.4138313881953201,
          0.08131272740528218,
          0.18584482511560937,
          -0.028724356213767444,
          -0.014810208802276077,
          0.035845883068659594,
          -0.06187960749945288,
          0.099484727617307,
          0.18185057762808812,
          -0.15651338939509282,
          0.31903280112793053,
          0.09287944416390598,
          0.08081433181330938,
          0.2076195390158629,
          -0.2980548963383958,
          0.018990618563794134,
          -0.25712122519436237,
          0.2728872599333518,
          -0.10995641930265287,
          0.25333846659183906,
          0.14845265835789198,
          -0.10746927728384613,
          -0.2617416384005406,
          -0.09957404113074657,
          0.1249129804525369,
          -0.026609020072407327,
          -0.13416611441688306,
          0.11309903532913551,
          0.23119243333011,
          0.4439384979449878,
          0.008538435524576076,
          -0.021394437344624345,
          0.07737844152271176,
          0.03843646283805293,
          -0.09488742744689611,
          -0.16541877147304151
        ],
        [
          0.11645786386018118,
          -0.1975556170360676,
          -0.1398778657466802,
          0.1692480483188301,
          -0.08911320505550926,
          -0.45258656314584933,
          -0.32558293560655716,
          0.20249460015295656,
          0.00602494774626404,
          -0.26608702432722436,
          0.4035436496258913,
          -0.3493987535407131,
          -0.1634394115592094,
          0.2768055117800823,
          -0.2577139665034829,
          0.12735795007482434,
          -0.5362398208166657,
          -0.10919395018944462,
          0.36700071668362805,
          -0.08352608158836457,
          0.09283765230967427,
          0.332495603076942,
          0.043817681917349,
          -0.1777376553349365,
          -0.009887710830255485,
          0.09153488017964588,
          0.5597099400409618,
          -0.19134168485897451,
          -0.21267447330394415,
          0.014610639404102468,
          -0.39377347820661,
          0.026056346090825477,
          -0.18850093505983476,
          0.5209134678099882,
          0.13425932930704823,
          -0.005297375025606623,
          -0.08283944700148953,
          -0.4522776164489155,
          0.1261441064924871,
          0.023844145010010854,
          0.10013113255859592,
          -0.33662241650477914,
          0.043153729964027006,
          -0.08965494825463632,
          -0.3006388769089523,
          -0.10833600961888108,
          0.1482808037653318,
          -0.8518283583456225,
          -0.11401400420226113,
          -0.1182026992918621,
          0.030432624729367985,
          0.33193152630916756,
          0.017961277648099575,
          0.08381976896992356,
          0.21142045745685117,
          0.44482203645666685,
          -0.18484980717271735,
          0.07357029874839875,
          0.09585871437238509,
          0.029778933815357612,
          0.007873655552221357,
          -0.13076737300153318,
          -0.1680397655406652,
          0.3749237476432078
        ],
        [
          -0.14426094042158713,
          0.16845790549013803,
          0.04679850302887635,
          -0.20292672501081518,
          -0.4211648153878662,
          0.013395056528920975,
          0.21013989452012344,
          0.10509172849126397,
          -0.7330886989887516,
          -0.24044705032035482,
          -0.007876314160420304,
          -0.07290468546816915,
          -0.004846601822813025,
          -0.7381570724508141,
          -0.16036900335664056,
          -0.2677215985499174,
          -0.04764516347133694,
          -0.3902898700630121,
          -0.07629031483866716,
          0.19195657798847543,
          -0.008866808350844722,
          -0.015924658733404,
          -0.030066404718009095,
          -1.765684657396673,
          -0.39379908989618945,
          -0.387512647194437,
          -0.013461350010203479,
          0.35862715768055264,
          -0.03377804311235958,
          -0.09924964983720605,
          0.04726130211682004,
          0.12450458557985405,
          0.5389966123320934,
          0.11932174374662553,
          -0.0578287806707126,
          0.2060660387988569,
          0.00427317863227909,
          0.2800946153266248,
          -0.07155003947676672,
          -0.2089869965676844,
          -0.22563458892914037,
          0.26173434265269446,
          0.1114813328025243,
          0.41556320740841646,
          -0.06056769525407954,
          -0.3598504801072685,
          0.051563052045836305,
          -0.053974312207071676,
          -0.1970730549099009,
          0.04295043526992426,
          -0.2883034106802013,
          0.020285326535324815,
          -0.3481708758302888,
          -0.13928440429744546,
          -0.15808841741395294,
          0.3455058170186261,
          -0.06929195644999661,
          0.49302851552049354,
          -0.36486224755092606,
          0.036264534645348304,
          -0.02812450838082617,
          0.03763337240532942,
          -0.2212049074113399,
          -0.16221847134756937
        ],
        [
          -0.38944886769654474,
          0.15169812437026203,
          0.21842346492310472,
          0.4070223193111728,
          0.19986353551484773,
          0.05215826748518631,
          -0.1762665680424525,
          -0.14835922842861923,
          0.06076180754257641,
          -0.20055247784502392,
          0.2531061494348935,
          -0.03071485924320576,
          -0.08292136915078922,
          0.03698388062381282,
          0.25220203984956147,
          -0.18377748639870664,
          -0.3371980081510995,
          0.23721859127570422,
          -0.22045637428316303,
          0.43353747012115434,
          -0.14430112605695264,
          -0.01184733686952887,
          -0.09776636451967127,
          -0.010146177539061593,
          -0.14885485763326567,
          -0.18812151804450625,
          0.07860870577250127,
          -0.04477831053157708,
          -0.49499283694374985,
          -0.21499039835517145,
          -0.3148139482861392,
          0.15660242458845297,
          -0.3138296003287705,
          0.11477007082697985,
          0.08523830423473241,
          -0.17865168481217622,
          -0.15168768864456095,
          -0.0172233964250702,
          -0.03252399431234438,
          0.043910209961042945,
          0.269301727164884,
          0.09261977342467141,
          -0.09539343497998963,
          -0.45863188762984963,
          0.030132332425404394,
          -0.3293092732562796,
          -0.30787280329009775,
          0.7112786858959028,
          -0.006790037154742211,
          -0.2139896259643871,
          -0.11184649591813281,
          -0.09157924932428124,
          -0.04206354427745573,
          -0.049081570890243974,
          -0.19107889643734824,
          0.1898408194997592,
          0.030384809727939235,
          -0.10609173867090514,
          -0.036791188238313045,
          0.12903882938464042,
          -0.028150580217613505,
          0.07735355188562637,
          0.38929353839088177,
          0.09080271216792765
        ],
        [
          0.13182454483891592,
          0.06397058403498694,
          -0.13332877585143219,
          -0.09051243692720581,
          0.09226599771099696,
          0.06878535439107832,
          0.13367664273672206,
          -0.12827141908825407,
          -0.10055776596607283,
          0.2143400413541984,
          -0.11945082919000588,
          0.01916317997906876,
          0.024610215181678816,
          0.15310885138743488,
          0.11551923883251389,
          -0.13699076763172,
          -0.4829379791692833,
          0.006379095570748799,
          0.0630219303709326,
          0.08788535017132702,
          -0.0687915339281122,
          0.02910500851324141,
          -0.27363971064312675,
          -0.052728821534625665,
          0.05484936302806496,
          0.09936978362302074,
          -0.19582738468619418,
          -0.03983067298114297,
          0.007564558795397506,
          -0.04293299096214709,
          0.03006576499611647,
          0.007286803845832065,
          -0.07481416606667735,
          -0.41743430743923926,
          -0.21143865674342627,
          0.285599453043345,
          -0.15037048546653925,
          0.23206111295521795,
          0.06516415606414819,
          -0.3434244257721005,
          0.2656816378261986,
          -0.04801430367810932,
          -0.012349334314620063,
          0.1334149987302881,
          0.02896192364482111,
          0.009270944381803538,
          0.01013770847983647,
          -0.4132046604757502,
          0.0934102877322052,
          -0.00556122417763295,
          -0.035272087347314955,
          0.1608338169063046,
          -0.09116770609586955,
          -0.11382630569795085,
          -0.09718508352818055,
          0.09704643278127845,
          0.23015772193470155,
          -0.06390036611479548,
          -0.08945410666421588,
          0.28038287250542593,
          0.07182401917085737,
          0.008149859159491147,
          0.00495305942332937,
          -0.09723153041183111
        ],
        [
          0.07532058973828414,
          0.21578133223976814,
          0.10957172132490009,
          -0.06633417862554607,
          -0.11820057931486724,
          0.0031640801203447234,
          0.10487473961966925,
          -0.20628105092847723,
          -0.10721346967565731,
          -0.24880887811359212,
          0.10899593747784571,
          0.030559225928687633,
          -0.039387911679914574,
          0.007108215582019284,
          0.2670269684667343,
          -0.10599340494914092,
          0.04336992533429407,
          0.32339640102065,
          -0.28479146933343025,
          0.004418505782266624,
          -0.025815238161691796,
          0.2711939658449418,
          0.0025066571788747837,
          0.1368384848110506,
          -0.048633670454026466,
          -0.11621695144687093,
          0.0058287281559288116,
          -0.04657559861901551,
          -0.01117120108615249,
          0.0321988537645957,
          0.14472737709048528,
          -0.12393676512804037,
          0.29654396424098184,
          0.04156820993659172,
          -0.13707744638001368,
          -0.3338675754752682,
          -0.16472357870685692,
          0.18928885415815652,
          -0.04267713776840623,
          -0.2249489672388091,
          0.19116465395673876,
          0.11400738280429956,
          0.08887601080311537,
          -0.14538478180824116,
          0.12044019415158334,
          -0.12349893199670274,
          0.0008312048529505797,
          -0.050066946243209426,
          -0.03902044543709793,
          -0.3585177153814896,
          0.07423577176730632,
          0.09429997435064852,
          0.23935436051208828,
          0.2262178536715287,
          0.21912269217600747,
          0.02659938827487217,
          -0.18097423665129153,
          -0.4791910170611998,
          -0.021998680930203126,
          -0.06969633797316972,
          -0.19334927136015703,
          -0.013461616426211779,
          0.40898655511352355,
          0.1514155741509999
        ],
        [
          -0.0269892161750468,
          0.025546051827877544,
          0.027134164179048556,
          0.34140925455184207,
          -0.19084764136401255,
          0.09695287188335269,
          0.008928558463139176,
          0.01700105789685117,
          0.015785352905758297,
          0.12847211624163832,
          -0.12569584203116,
          0.1658372957316304,
          -0.7305512146690569,
          -0.007597309881635709,
          0.28931500592177634,
          -0.14220232528622292,
          -0.25230178593256936,
          0.2203146509223176,
          -0.06343983399197656,
          0.029444763634934992,
          0.03385763376895499,
          -0.1949549849126073,
          0.04609811511691509,
          -0.22066318348423006,
          0.20491618411430518,
          0.01221480456571822,
          -0.03690993665435656,
          -0.0003712308777032318,
          -0.30339906037164716,
          -0.0806820526529294,
          0.11361290497443366,
          -0.12504769995517048,
          -0.2530962385843593,
          0.04336635558164459,
          -0.30359944629030805,
          -0.31738245805374177,
          -0.14122636064746957,
          -0.02425175352856008,
          0.027329465921737295,
          -0.029024068142085406,
          -0.07866363411405171,
          -0.1992565063857646,
          0.052349792958171916,
          0.06351086671565206,
          -0.012422999370669834,
          -0.07048091609716947,
          0.012114102760062759,
          -0.05809026324513896,
          0.16293612369240298,
          -0.39861138387316863,
          0.18218815944622924,
          -0.181292281617471,
          0.03495866436430496,
          -0.10927990635786057,
          -0.16792639106404794,
          -0.5016660353963592,
          0.06703019558590903,
          -0.29395034930340247,
          0.07847434788306615,
          -0.2680466240253517,
          -0.028838042344594878,
          -0.05243258935541655,
          0.2794139379687099,
          -0.19417337016467368
        ],
        [
          -0.02020256513239527,
          -0.06842726614193967,
          -0.1165469095994725,
          -0.03588257439729135,
          0.04622355021425789,
          -0.19437676533929227,
          -0.24486723611688982,
          -0.303678858425841,
          0.12122195317864433,
          0.05131184797465017,
          0.022156452177838112,
          -0.2822642215455465,
          0.006679313610036592,
          -0.2351630825902998,
          -0.008991038166639051,
          0.027325053473520572,
          -0.07995063353740903,
          -0.06025748174437971,
          -0.09844347373536742,
          0.03957151516737871,
          -0.42511412880685895,
          0.04322016886427068,
          0.26570652310931864,
          -0.014438973550671615,
          -0.16881659812014824,
          0.012528626651077653,
          -0.5549808777206906,
          -0.008577483394856799,
          -0.12421428315803358,
          0.180475184179723,
          -0.055232427683274826,
          -0.08263525276783064,
          -0.5772823767086768,
          -0.1411459808259587,
          -0.517386837308777,
          -0.4740769855315103,
          0.14241972726016108,
          -0.48896622668699896,
          -0.07778799443736421,
          -0.005160241886792604,
          -0.5734676153944064,
          0.025694306503732167,
          -0.09179014462667474,
          0.5576725459650671,
          -0.07340243327438506,
          -0.3868981259983499,
          -0.028779782423735575,
          0.006314451973002972,
          0.5383494954999225,
          -0.02589598758232276,
          -0.06281963416887966,
          0.029211153486444628,
          -0.0002889468316091294,
          -0.44590329895079306,
          -0.20160060358101442,
          -0.059592816142634196,
          0.07678851653471973,
          -0.031411906060211776,
          -0.01895094073554548,
          -0.12626225160398455,
          0.003639847032874576,
          -0.08527718512608434,
          -0.01073193818857013,
          0.09341911653641352
        ],
        [
          0.3728510588112168,
          0.3758370700837069,
          0.12307381439110888,
          0.37146226854014713,
          0.19672476847693443,
          -0.09480295425646633,
          -0.22348367453031198,
          0.1089519929793977,
          0.027374565030217523,
          0.20810472988079057,
          -0.17348468448098048,
          0.326219146038647,
          -0.09786365942827807,
          0.2514136172267579,
          0.29904865156004473,
          -0.12349926776203544,
          0.15940818775745383,
          0.3510066222345769,
          0.17899947029096944,
          0.15751606257592027,
          0.14854040136273247,
          0.05026207161660144,
          0.22186618221000334,
          0.08689517619679142,
          0.0035741995873856316,
          -0.03323875381304547,
          -0.2632362802159871,
          -0.07776975083954489,
          0.299326449241371,
          -0.04160223112056524,
          -0.04753079549388718,
          -0.021861980261708887,
          -0.023546644606518858,
          -0.07960517595608749,
          0.14938176138165615,
          0.0833807789172721,
          0.16907458120539653,
          0.04617706965729564,
          0.02401853481786362,
          -0.35383853345674665,
          0.019905117389672034,
          0.030853085355488967,
          0.1585704816357686,
          0.06297513973445881,
          0.02240969622004358,
          -0.1051875511344859,
          -0.15497087171740284,
          -0.1045785745726037,
          0.06935412225167356,
          0.2258538332041523,
          0.06314754983624098,
          0.1305294527605553,
          0.17355868633836988,
          -0.036484792942839496,
          0.25767320267351007,
          -0.20948902803895209,
          -0.015061733234004955,
          0.05830272980123309,
          -0.28250700466153744,
          0.2715305918211488,
          -0.3683888288196797,
          0.14037007869253004,
          0.31915544272014423,
          -0.04069750850327208
        ],
        [
          0.07869898432786766,
          -0.19395784856349987,
          -0.0003896228200005712,
          0.01022487184656849,
          0.10408506427011731,
          0.022080515992558277,
          -0.6959938025681247,
          -0.32176941686985183,
          -0.137522758174151,
          -0.000817756213681348,
          0.12305752090787012,
          -0.021104565100936917,
          -0.00046122516478403153,
          0.35851336655589827,
          -0.05518829618731104,
          0.05852924787194447,
          0.059492650256007217,
          -0.1744225836325604,
          -0.09273436701874406,
          -1.1217770598060044,
          0.037033866390185625,
          -0.04177644494059566,
          -0.01485902141220472,
          -0.13355047737426443,
          -0.3044705939861054,
          -0.5879830075053877,
          0.08296065287741618,
          0.04847689870686724,
          0.1931861382447142,
          -1.012580978745403,
          -0.21254509054961337,
          -0.8824105421423043,
          0.05547031873604513,
          0.013923888843577578,
          0.05971625891184896,
          0.3807807360208848,
          0.024039769459661985,
          -0.3814159157242741,
          -0.6684630784287834,
          -0.041612339657887715,
          -0.1733282231117076,
          -0.17115841293105544,
          0.024601941025238282,
          0.243040074301521,
          0.002920784691512291,
          0.03905896940267312,
          -1.31626143635572,
          -0.05445963196214436,
          -0.1231581897826572,
          0.15130205020746978,
          0.08653819928167418,
          0.0689387094941387,
          -0.3697248595588341,
          -0.08838000009335845,
          -0.04423140639525822,
          -0.1344936505223809,
          0.16615471494714454,
          0.046177826897775436,
          -0.26890528017194715,
          -0.5188524234412857,
          0.011140736252148606,
          -0.018279715181699584,
          0.09521796177557679,
          -0.3328970476254373
        ],
        [
          -0.024759638680549867,
          -0.05071201972099969,
          0.35038335132033144,
          -0.09934805878764931,
          0.20620615947864968,
          -0.26298342789506723,
          -0.12896270622785755,
          -0.1671981397125615,
          -0.0816852932010518,
          0.10693820866596015,
          -0.12688891114380096,
          0.10169708016321787,
          0.34969663227049397,
          -0.0890537938911957,
          0.26329004146876295,
          -0.08921555588008878,
          0.024745059097931232,
          -0.19011243668593056,
          0.1239726358491725,
          -1.8746546866373828,
          -0.15314377498255613,
          0.03606408048212732,
          0.5336975536033902,
          -1.0479411290304224,
          -0.23067703595894581,
          -0.027198800783423696,
          0.2600510783924399,
          0.45882245611886224,
          0.017216768444316626,
          0.02759816657421746,
          -0.055486805614942104,
          -0.6263325956705886,
          -0.10605095425085892,
          0.17989735017068462,
          -0.19692043303713871,
          -0.034575122276668493,
          -0.015031309341886642,
          0.20163033766632632,
          -0.007760111220729787,
          -0.14299615262629273,
          -0.13855318899154456,
          -0.06305560771651071,
          -0.08946497180884387,
          -0.4104524660050346,
          -0.22871996517142504,
          -0.11509940788450643,
          -1.7395647289867675,
          -0.009537153859409621,
          -0.1579589100106573,
          0.06369736641320138,
          0.10408356303287486,
          0.2879937581567177,
          -0.2052028965877357,
          0.1161906533945628,
          0.05021070399306678,
          -0.20533854520092396,
          0.06885985174559552,
          0.018023452801538477,
          0.08015399385504374,
          -0.05785043797065252,
          -0.059012196689375386,
          -0.08656105009323876,
          0.024497573382753105,
          0.03387999199811538
        ]
      ],
      "b": [
        -0.18523232036546258,
        0.0036313776186612775,
        0.04930165904368021,
        0.055401693382385556,
        0.27386159206269123,
        -0.06204591946578629,
        0.2707110810373203,
        0.08257049942779728,
        0.09023886418719017,
        0.08192019370978865,
        0.16752824671742766,
        -0.13360161333921738,
        0.34445631036467067,
        -0.027555386065926075,
        -0.17921181434600864,
        0.34133576318474235,
        0.3836935521039595,
        0.039328869756727565,
        0.2845659916628026,
        0.1828708867738984,
        5.522911827481012e-05,
        -0.10619065797005306,
        -0.15812216325904208,
        -0.1702263215579803,
        0.018826839076846222,
        0.20205697211762338,
        0.11604807141980364,
        0.1760430864960558,
        0.47115144850151314,
        -0.070949072711202,
        0.06582858258710869,
        0.17602301456240643
      ],
      "activation": "relu"
    },
    {
      "W": [
        [
          -0.30058047302745844,
          0.380226241421746,
          0.1599758435799054,
          -0.26720645361026063,
          0.240878500508747,
          -0.1320300495037398,
          0.11131967576642571,
          -0.13333738394686606,
          0.2657186178089342,
          -0.12389447273268127,
          0.1180816306274722,
          -0.08913492117238457,
          0.18422662663149814,
          0.11203038708688243,
          -0.14074749219452798,
          0.2166096458714046,
          0.2247120057212339,
          -0.05182747408107361,
          -0.4162518893802183,
          -0.1622159874035716,
          -0.13727461069661234,
          -0.15828246949757693,
          -0.10584218388102064,
          -0.284464344746809,
          0.10061688680754395,
          0.2091179850326592,
          0.19120264859695907,
          0.18806218978134856,
          0.2241428863028969,
          -0.12823238740318826,
          -0.5103928144896268,
          -0.17347032053624736
        ]
      ],
      "b": [
        0.12831349336620654
      ],
      "activation": "linear"
    }
  ],
  "r2": 0.9844200352441332,
  "rmse": 0.15576246802582722,
  "loo_r2": 0.9747545417743849,
  "n_obs": 985
}