{
  "name": "MLP (2 hidden layers (32, 16))",
  "features": [
    "delta_fs",
    "fs",
    "n_back",
    "e_bag",
    "fs_nb",
    "nb_eb",
    "eb_sq",
    "nb_sq",
    "fs_eb"
  ],
  "input_mean": [
    -0.11840796019900497,
    12.6636815920398,
    2.555223880597015,
    3.354228855721393,
    32.12139303482587,
    8.639800995024876,
    14.140298507462687,
    7.635820895522388,
    44.635820895522386
  ],
  "input_std": [
    0.8504663354873794,
    1.890622150912721,
    1.0519751972119495,
    1.6998374307293747,
    13.872310013985796,
    5.885948184451573,
    12.281572893840357,
    5.621273597988624,
    24.867263750072762
  ],
  "layers": [
    {
      "W": [
        [
          -0.35019845286494,
          0.0083721850694085,
          -0.027260881965319155,
          0.0968002384937619,
          -0.39847928496942175,
          0.08410941722187433,
          0.39926532539272797,
          0.2846549914319259,
          -0.4100475777152383
        ],
        [
          -1.0580166162789129,
          -0.2870301825889678,
          0.13952954573256174,
          -0.8517836972196656,
          -0.31416223278381306,
          -0.4550125397238105,
          0.19646714998104328,
          -0.270246853454912,
          0.1728181049403564
        ],
        [
          0.5258672879339207,
          0.3267957165896064,
          -0.13255886745922554,
          0.42822075359217193,
          -0.4013904626375646,
          0.00835500661267935,
          0.16411149701467975,
          -0.3092909650282843,
          -0.5989609708206075
        ],
        [
          -0.31439760121562155,
          -0.14698827823714056,
          -0.04611192814069986,
          -0.27413107962298533,
          -0.23316649563220665,
          0.1379855020117068,
          0.04631765074534726,
          0.043772170095024036,
          0.28733403048178835
        ],
        [
          0.10594519006919478,
          0.20081839643321714,
          0.5726093893861691,
          0.43257310515654007,
          -0.3067766941546342,
          0.7446211478958252,
          0.03838343223724661,
          0.6473115019609769,
          -0.03842760875218333
        ],
        [
          0.018342485124567043,
          -0.04911449121938064,
          0.8921275277751917,
          0.676441280018014,
          0.4025577697601991,
          0.036419511080014934,
          -0.9878912903242238,
          -0.0239830997418773,
          0.12060020697421701
        ],
        [
          -0.8744163871700117,
          0.07988208417262996,
          0.007270388157956528,
          0.13252545972256743,
          -0.6891479837944542,
          -0.10217155666429144,
          -0.43826509977230177,
          -0.572548113450288,
          0.41740990080289236
        ],
        [
          -0.751662760916089,
          -0.1687984457442439,
          -0.4222945546110887,
          0.8360591669533082,
          0.46678228755284656,
          0.20134947921911756,
          -0.7968159603729225,
          -0.17698243936675198,
          0.013482845485170763
        ],
        [
          0.4108706147797229,
          -0.33824808148892194,
          0.7338783279203464,
          -0.7202998541123943,
          -0.38068402845641147,
          0.35549582030589544,
          -0.04437955746208221,
          0.6199200851782449,
          -0.024576367682051427
        ],
        [
          -0.633454426478896,
          -0.30909876994925145,
          -0.6484037999970322,
          -0.8884651184452028,
          -0.04147279589195614,
          0.007481524910705289,
          0.43728064595570443,
          -0.42316372274656344,
          0.539150779354379
        ],
        [
          0.39759015414910415,
          0.6880857798147986,
          -0.10955610526892728,
          -0.6573077512147644,
          0.2639580104368765,
          0.16233417286365212,
          0.5111792594444095,
          -0.15478604300961754,
          -0.7592223333162942
        ],
        [
          -0.9958743087186497,
          0.09297817149553463,
          0.4509470509336761,
          0.009422876843412965,
          -0.6522228634150707,
          0.540388128790741,
          -0.4405900363150293,
          -0.32679119139146334,
          0.1745055155952626
        ],
        [
          -1.0821225940327066,
          0.07006400682225467,
          -0.13032894849669066,
          -0.2735259770560514,
          0.08629723731420412,
          0.20750575886016004,
          -0.11838799102341349,
          -0.43233017927817047,
          0.2485720693897867
        ],
        [
          0.8816598935283517,
          -0.23027940477771602,
          0.5647085583062098,
          0.46042929009452804,
          0.16007041901302937,
          0.03724644660604928,
          -0.5542392667114882,
          -0.191759582990168,
          -0.2601909659523295
        ],
        [
          -0.582451814529731,
          0.22354746171995044,
          -0.5124542552675051,
          -0.3625031336880337,
          -0.5749151627770963,
          0.5290246006067938,
          0.02499343805734385,
          0.39532516467646583,
          0.009331348162003358
        ],
        [
          0.5978451071294791,
          0.33777760387384576,
          0.42997023328886363,
          -0.8878326852137769,
          0.36352834192263345,
          -0.2835556768211412,
          0.5022599116676354,
          -0.1444908043116855,
          0.3085238301153502
        ],
        [
          1.0127623051911674,
          -0.2779476655581607,
          -0.7555605353517254,
          -0.2257758692227883,
          -0.10562148113543618,
          0.6102779788239596,
          0.06460430984755021,
          0.028405300648652623,
          -0.3235471987357193
        ],
        [
          -0.4057045113518687,
          0.10480205704969418,
          -0.7486707453131963,
          0.3676273208499162,
          0.04736789092824716,
          -0.15934825178308523,
          -1.0448241909145066,
          0.44140685016252945,
          0.08630561960693021
        ],
        [
          0.555788225322728,
          0.259432538376571,
          0.8369612327335368,
          0.031409812057658464,
          0.19520469410039973,
          -0.6647843009898629,
          0.7843779237160554,
          0.5532312908485147,
          0.5893456615882227
        ],
        [
          0.30212019778594607,
          0.18991519480219013,
          0.3493091985809255,
          0.22398142385838232,
          0.14156228500821613,
          -0.6050818658672231,
          0.39646301247386223,
          -0.9091449373354084,
          -0.21840023339739895
        ],
        [
          -0.36286952819154517,
          -0.4525105918775722,
          -0.07635213755750472,
          -0.02802009756207265,
          -0.4420136217479598,
          0.1699238305973884,
          0.03471389037256602,
          0.2531410449494934,
          0.25820341756796145
        ],
        [
          0.022632097869699833,
          -0.9144131162410477,
          -0.4780474202795243,
          0.5703622058769651,
          0.1923991037339205,
          0.01520635932457908,
          0.777525063988955,
          -0.48213494032711285,
          -0.21201705279351574
        ],
        [
          -0.20699681558682542,
          0.11411958069304107,
          -0.21592867677586716,
          -0.28313141572554323,
          -0.8733169752071839,
          0.38732774327727026,
          0.24505130612480439,
          -0.0049013882406580165,
          0.17627002212643553
        ],
        [
          -0.8835017898498382,
          -0.1105034743551544,
          0.32484837591480914,
          -0.018895757426464793,
          0.9502811616018466,
          -0.45646105870304443,
          0.23746288102627786,
          -0.3375050952508585,
          0.037259101028157035
        ],
        [
          -0.19538183393881567,
          -0.27213039259742455,
          -0.426228925897105,
          1.5245406022438543,
          0.050826845664902205,
          -0.6554392408744464,
          -0.6952247942455965,
          0.574211772423016,
          -0.2379305017015494
        ],
        [
          1.2004464663118797,
          0.16604227745198696,
          0.1182836385535546,
          -0.2956050081778329,
          -0.3068747111104578,
          -0.1254589456738265,
          -0.7239586724381881,
          0.5772135739485521,
          0.6164456481832025
        ],
        [
          -0.863822755472545,
          -0.6516345974958867,
          -0.5109723932830122,
          -0.5219567772067846,
          -1.2244693328506207,
          -0.4416637238786448,
          0.6339298258665794,
          0.2878428892729288,
          0.3145837995013464
        ],
        [
          -0.15552476195141732,
          0.6786080772515465,
          0.04783200180388101,
          -0.5616046924252541,
          1.1897853516055104,
          -0.5904516393979954,
          -0.48969260008507126,
          -0.05784331505850817,
          -0.30440620020580705
        ],
        [
          0.7448092341946159,
          -0.3973605923520757,
          0.15100424947470817,
          0.4410729687059393,
          -0.3048522578069522,
          -0.002501003949771776,
          -0.11397928844263733,
          0.5799866320914535,
          -0.24844910463064404
        ],
        [
          -0.0230891697901651,
          -0.8119549677966932,
          -0.17352457936954982,
          -0.09243286341520095,
          -0.24491112111923488,
          -0.3133968520287842,
          -0.12462980404354593,
          -0.6165819756128699,
          -0.49914706476161425
        ],
        [
          1.4690194140683392,
          0.46476717536052164,
          0.15800522434889316,
          -0.6139810300757366,
          -0.015572787279812348,
          0.04152287589518971,
          -0.44691303472334376,
          -0.4713484079016199,
          -0.7361239406876673
        ],
        [
          0.5775484078214301,
          0.7427756055158431,
          0.08371769342471566,
          -0.013474139587917837,
          0.23985363510720387,
          -1.7048082412302883,
          0.1800382407603577,
          -0.17982825292898266,
          -0.4423596625634118
        ]
      ],
      "b": [
        0.0521715712268819,
        -0.043150436480600365,
        0.14423621949379778,
        0.1281995483245575,
        -0.38992418915790317,
        -0.3612110280703913,
        -0.16263546231875453,
        -0.22926974491995014,
        0.04417364172335428,
        -0.013649833083580207,
        0.02950236569457985,
        -0.16726987605694038,
        0.033353078016497124,
        -0.07900170611930693,
        0.002379379905334014,
        -0.364404212472184,
        -0.13798019848586535,
        -0.3539344226624629,
        -0.22392358112459676,
        -0.07726590328848244,
        -0.027419073039454313,
        -0.4378413069320482,
        -0.3942028249469497,
        -0.28854075827944115,
        -0.4976807545303016,
        0.1295779288658335,
        0.1599376344541485,
        -0.5480152530431336,
        -0.07757846433272494,
        -0.22540586282564323,
        0.39124383016182984,
        -0.2499303167262069
      ],
      "activation": "relu"
    },
    {
      "W": [
        [
          -0.006816383344809565,
          0.27560763044851827,
          -0.5203734840950691,
          -0.23805450021124933,
          0.22418905218152305,
          0.21240195210297722,
          -0.11558314635425186,
          0.41853352356619705,
          0.13781492027848663,
          0.05581758752648502,
          -0.233488703246245,
          0.1790185272453633,
          0.34597658729839836,
          -0.45347315926291126,
          0.1837678347043697,
          -0.37125524853527253,
          -0.4741348976472866,
          0.06456255957767766,
          0.10233951936118856,
          -0.4201271265736002,
          0.0855011130744866,
          0.001225241516138441,
          -0.19943013239885227,
          0.12251094030151803,
          0.16043380434718857,
          -0.5227187614350065,
          0.11734897174546134,
          0.21145126242254145,
          -0.09382932390767149,
          -0.018394012446196012,
          -0.23663278059785345,
          0.048240610514465244
        ],
        [
          -0.013035042221703435,
          -0.10758224530134687,
          -0.23156115198183577,
          -0.20265676280336223,
          0.11495982661914825,
          0.0644255211482989,
          -0.040741404695484255,
          -0.2654870062832693,
          -0.0005623070669705543,
          -0.03837021036914164,
          -0.19304505718727877,
          -0.5962547583504861,
          -0.11356097086257526,
          0.0032261294996781516,
          -0.15731614309860942,
          -0.1180822350436679,
          -0.10610425456031497,
          -0.20543092897577306,
          0.4201355099593364,
          -0.4220588608187683,
          -0.424690564508884,
          0.041359239106023064,
          0.15802425893048275,
          -0.037572741975547046,
          -0.08244776798918517,
          -0.031676644929095076,
          -0.037487139558323744,
          0.05074070427267789,
          0.39124239240828507,
          0.06301580107737295,
          -0.24397771100488744,
          0.5565993480690322
        ],
        [
          -0.07943760937335154,
          -0.9148443924678088,
          0.30988802082007944,
          -0.4022342742999249,
          0.10100488091575445,
          0.1917683749732055,
          0.20301950207798342,
          -0.026012963586026606,
          -0.040141148005426966,
          0.03189035215601594,
          -0.15896628713378091,
          -1.1974988199219916,
          -0.9952140478602501,
          -0.893052583235876,
          -1.055532481348488,
          -0.15165398051056397,
          0.29662211765571894,
          -0.7784031353335084,
          0.060364444489067554,
          0.4731804233873653,
          -0.23178226784848002,
          0.10674131761487693,
          -0.14788254592550382,
          0.02029800966379189,
          -0.8046699780963052,
          -0.11940738916072101,
          0.06242909195667489,
          0.21473854558745883,
          0.16146543182931958,
          0.02990998948948103,
          -0.0973656648698264,
          0.052935506446286563
        ],
        [
          0.08901659559129588,
          0.05049288044139655,
          -0.16688591613608228,
          -0.22876994974922465,
          0.0358993610175026,
          0.35384497556969513,
          -0.2800981742187731,
          0.13346777262185677,
          0.049483063039807096,
          -0.7376336784593249,
          0.034226414620178294,
          0.24395129548780461,
          0.11076933159919593,
          -0.16138817729962524,
          0.049707085850110265,
          0.16212279943355176,
          0.09934589238373785,
          -0.40096061420254087,
          -0.20813244080268414,
          0.2767252674558105,
          -0.1698347690410651,
          0.0017346371929581551,
          -0.3941380108039175,
          0.19803771245691695,
          -1.1413561577586786,
          0.014330064339714907,
          -0.7017884375094188,
          0.22344349352170467,
          -0.1519335717234445,
          -2.0845063228033234,
          -0.044183320109235126,
          0.07489371634794319
        ],
        [
          0.05698865405690782,
          0.29703915666445974,
          0.17225168771028124,
          0.08765148185338652,
          -0.30143013877658864,
          0.29075698260780547,
          0.3460147431756037,
          -0.004047287454380031,
          0.2626557803220509,
          0.0835930929589246,
          -0.312537207335208,
          -0.165690981461084,
          0.39160232807028167,
          -0.33922364397449206,
          0.47071846527867595,
          -0.20924392759275207,
          0.46038333028623263,
          0.2770559552957214,
          0.0236384511097374,
          0.2593910560711611,
          -0.28720852044108763,
          0.4489104375303814,
          0.024113657147117235,
          0.10701129753907884,
          0.1854648470208945,
          0.2871587451215164,
          0.23715104751336522,
          0.6620561705914055,
          0.388174337667549,
          0.4242219595866611,
          -0.008871323576116929,
          0.0809279600783378
        ],
        [
          -0.04795676486185507,
          -0.04445628287154654,
          -0.06687331529119446,
          0.02665271166895823,
          0.0762789444735667,
          -0.0815601408946482,
          -0.31710168617437823,
          -0.4192321030736127,
          0.011265976523523524,
          -0.02204479404774414,
          -0.5820791575913354,
          1.1619519614736677,
          0.08567405334441425,
          -0.4771010537075888,
          -0.04545053820384756,
          0.07022151601905585,
          -0.07775971958017854,
          -0.12684132866222156,
          0.03870796410537153,
          -0.25632953005999004,
          0.0050397370755059226,
          -0.13319105649591867,
          -0.6822842475638036,
          -0.5191346482901186,
          -0.17958966295002804,
          -0.004020501919331622,
          -0.05280167759164059,
          0.19266517199846306,
          -0.01851329354143393,
          -0.019625653143045412,
          -1.06413387522694,
          -0.31551729360138575
        ],
        [
          0.3796482040035359,
          0.42627157361833895,
          -1.3420697611883905,
          0.16393544923644016,
          0.12709261847083164,
          -0.08410950348564503,
          0.07882132807392944,
          0.5631910299588352,
          0.18830472166985693,
          0.4315270282810499,
          -0.5911659312691937,
          -0.2163807807786143,
          0.047452623505122894,
          -0.3626759060219515,
          0.27706917707726375,
          -0.9204900711913048,
          -0.5469530625717425,
          -0.08266553659982635,
          -0.3924010030816463,
          -0.9567718881760631,
          0.3822740274992541,
          -0.12992421176471164,
          -1.0765148806115545,
          -0.04389076511372801,
          -0.0227296214652589,
          -1.186932921489537,
          -0.0638966169940003,
          0.021693895121560114,
          0.11954289804728017,
          -0.0056275535983993565,
          -0.06477404394247277,
          -0.2227867634016257
        ],
        [
          -0.2392840018046426,
          0.004439442191249659,
          0.08433338424974587,
          -0.3793662268916607,
          0.5718853524892645,
          0.3578604069832409,
          -1.0952266485975055,
          0.11273364440589048,
          0.2795593643417396,
          -1.1858379308738294,
          -0.05072473794618217,
          0.0373197963052833,
          -0.1265213517266274,
          -0.18082826286170173,
          -0.056171408318357215,
          0.27746254052922287,
          0.29081345123056745,
          -1.049438307181143,
          0.27264682795418654,
          0.09740829822098215,
          -0.07908486762030438,
          -0.05449171140808984,
          -0.824119117881809,
          0.3327618285063834,
          -2.5646921435770813,
          -0.14910595109952623,
          -1.4583552248887597,
          -0.8090899147811547,
          0.15680374900421198,
          0.02708796346449617,
          0.001278729456441894,
          0.039961832804164196
        ],
        [
          0.1345744040748495,
          -0.6531109141718731,
          -0.15030710966474364,
          0.09725959841054335,
          0.32010896558548174,
          0.11547654759549263,
          0.14266098741360367,
          -0.04574260775710405,
          0.15568677729892832,
          0.1115785652252443,
          -0.2663514427150605,
          0.03945878914883726,
          0.05201776050453682,
          -0.20262028965570947,
          0.16805425188879514,
          0.025092847692034567,
          -0.17496940775054098,
          0.24340441370122665,
          0.3551015210200429,
          0.12761130944062965,
          0.04715616885634558,
          0.11047357514724217,
          0.23002866557057297,
          0.24372526189606394,
          0.2526628919478603,
          -0.04562903794910048,
          0.049497171187183435,
          0.07521296364725938,
          0.32403381314683094,
          0.12883307374829647,
          -0.3353677047276078,
          -0.009018225936380832
        ],
        [
          -0.21806980622938107,
          0.14174662722793946,
          0.052305691527839156,
          -0.42003605274857553,
          0.0897082410652098,
          -0.17646285116028132,
          -0.17987415530761797,
          -0.15779819774640957,
          0.14263038557196045,
          -0.15325308549454064,
          -0.08286502643698704,
          0.0809833797145406,
          -0.039095920236427786,
          0.4351770325478847,
          -0.3987239799639427,
          -0.04236395389820761,
          0.012886443189057796,
          -0.07102192664257449,
          0.18337873647041156,
          -0.14379212180271453,
          -0.3331484985362101,
          -0.27855081669765025,
          -0.39445278194061795,
          0.0016509400171741408,
          -1.1999274210078728,
          -0.011582208673945705,
          -0.06471198868308986,
          0.717393564581241,
          0.13450729723263882,
          0.017313513523710928,
          0.24061578098982314,
          0.06782868574822587
        ],
        [
          -0.4443338186710519,
          -0.050292789948614885,
          0.06442323404726956,
          -0.09342870925775043,
          -0.15641804080811889,
          -0.18727804803023965,
          -0.13665499216479848,
          -0.3515570732221008,
          -0.6194533328854193,
          -0.5966097878055722,
          0.10378697606117158,
          0.26906923704165087,
          0.2955279305873302,
          0.014108474738932652,
          0.08283890290632534,
          0.5042145922027716,
          -0.24751724359925217,
          -0.6720295285359742,
          -0.03050049388411588,
          -0.46448878585490044,
          -0.16427798743617714,
          0.17618839874761516,
          -0.35197683848936656,
          -0.0745000171350003,
          0.2592205710015917,
          0.08230176232667234,
          -0.20324509392326826,
          -0.0038562417170351915,
          0.28878669236985377,
          -0.15338536239758305,
          0.3361158448104055,
          -0.03557044329220454
        ],
        [
          0.1664677739213257,
          0.28306525421615514,
          -0.00838800667451903,
          -0.06517628885065821,
          0.05832705710551011,
          -0.8708996575672184,
          0.06756271485139335,
          -0.4456207194250798,
          0.4812678361643623,
          0.27513968975321473,
          0.01378243078648279,
          0.1894000836645542,
          0.39729040283107264,
          0.4494152673235363,
          0.41538759365018946,
          0.07540935398032304,
          0.06871126263636389,
          0.20771952563864637,
          0.0034363497677289603,
          0.1588065216470312,
          0.1213130095378556,
          0.21303700659098335,
          0.5406422118307935,
          -0.16364692837056072,
          0.31491857604795975,
          0.2994846706253725,
          0.10253191183973487,
          0.05035197306431203,
          -0.12504609384499057,
          0.24376674730777542,
          -0.10813494686441873,
          -0.07225919674303702
        ],
        [
          -0.05168605417643862,
          -0.3355256388727131,
          -0.02362226052138102,
          0.26415933484092236,
          0.028842219934419107,
          -0.13645661125088632,
          -0.2041265331245437,
          -0.15857438221023457,
          -0.30904115843903834,
          -0.29498368492981386,
          0.035125619757211256,
          -0.06894276731833071,
          0.04492674972840328,
          -0.1868954466442172,
          0.23960704671915592,
          0.3330927375758263,
          -0.17357900142095478,
          0.050917658794301275,
          -0.3624020324850534,
          -0.0880835689818638,
          -0.3314340674841444,
          0.2140149167468315,
          0.07116797845905445,
          -0.17409349036753463,
          -0.24020016131955416,
          0.600293308094948,
          -0.12340551345771254,
          -0.19786196692581487,
          0.24843066057825344,
          0.03653284633171081,
          -0.22197323869730343,
          -0.2518200506318998
        ],
        [
          0.025861436488480043,
          0.13973371867206447,
          -0.18878557898385112,
          -0.08979221064099854,
          0.099342030586776,
          -0.0006503355233780957,
          0.3516174333756026,
          -0.07888633176730502,
          0.09137515790900347,
          -0.2655524925930356,
          -1.1397552261716215,
          -0.5922155495284313,
          0.22770661092537295,
          0.041307648334470426,
          0.2086167510861339,
          0.05746805302947924,
          -0.5908240205066694,
          0.3144600276485337,
          0.10299144548570092,
          -0.7546678204923613,
          0.18313757512344184,
          -0.22684155309187498,
          -0.851503687377683,
          0.16825040284707926,
          0.5275964735353841,
          -0.15615288202791217,
          -0.026499463723723693,
          -0.20491357289314474,
          -0.03224302290954489,
          0.02396393343423705,
          -0.9205540480229586,
          -0.6279861184021515
        ],
        [
          -0.2671570925798978,
          0.09981181757624329,
          -0.2005471822603691,
          -0.2879972599478914,
          -0.5862756228584113,
          0.3399194068736186,
          0.1616567055965676,
          -0.38639663036443156,
          0.23543243227001154,
          -0.1686970380942639,
          0.07994833996843255,
          -0.061960038253310985,
          0.0997521703982291,
          0.09834022240817708,
          0.1785331605954333,
          0.24033516185915407,
          0.20726193276457636,
          -0.10638910165318205,
          0.29728281821391844,
          0.32570127478004796,
          0.20669946638851178,
          0.6113003213178911,
          -0.01661718662585536,
          0.13725463620046977,
          0.04812475828496409,
          0.2948020315138109,
          0.15516857919622137,
          -0.147393714523309,
          0.6519808040142135,
          0.1342592661490242,
          -0.01840088583358549,
          -0.04573360182098627
        ],
        [
          -0.22540085046741531,
          0.037570423553043825,
          -0.18302808054104264,
          -0.057560729189183236,
          0.0069456177686617335,
          0.001589958562522327,
          0.07539409822513031,
          -0.20408381115124505,
          -0.06938647662506912,
          0.018408447008254423,
          -0.8729812992220248,
          0.8191063835962358,
          -0.44196353501984526,
          -1.0400510377407637,
          -0.3840647884003489,
          -0.1613490507294984,
          -0.3186654426532639,
          -0.0513719554600129,
          0.10726369806874739,
          -0.4108095898120282,
          -0.15827824901942916,
          0.07343783962670992,
          -0.16897584474815616,
          0.38450920139530614,
          -0.25191627727396454,
          -1.0027351845839803,
          0.020982735395415997,
          0.04195128516509946,
          -0.32783772231472214,
          -0.03686400442569245,
          -0.9626269267228043,
          -0.6693461438369859
        ]
      ],
      "b": [
        0.1777911370375057,
        0.3287058293082753,
        0.5293696290048369,
        0.09389801293013032,
        0.21361324834261516,
        -0.047514941629332834,
        0.385129248644379,
        0.5119492386079891,
        0.0043756828725543045,
        0.439865790903108,
        -0.0033978658694965025,
        0.044183988275650336,
        -0.010290011179602111,
        0.17661154863412176,
        0.09188864446449443,
        0.19428056342643985
      ],
      "activation": "relu"
    },
    {
      "W": [
        [
          -0.3152224524333103,
          0.30444102427183456,
          0.24448464864188368,
          0.4940933257230117,
          -0.17330323062545824,
          -0.5416961050550108,
          -0.20570614817334343,
          0.29329874166079406,
          -0.3758252177556314,
          0.32122905219398723,
          0.29117012783115354,
          0.18911406722170823,
          0.4472241959472172,
          -0.3877446992808691,
          0.15368410099561575,
          -0.4836454511238837
        ]
      ],
      "b": [
        -0.05065643809706238
      ],
      "activation": "linear"
    }
  ],
  "r2": 0.8752465267528123,
  "rmse": 0.4374341593633906,
  "n_obs": 1005
}