{
  "name": "MLP (2 hidden (64, 32), log_si+prev_lr)",
  "features": [
    "delta_fs",
    "fs",
    "n_back",
    "e_bag",
    "fs_nb",
    "nb_eb",
    "eb_sq",
    "nb_sq",
    "fs_eb",
    "log_si",
    "prev_log_ratio"
  ],
  "input_mean": [
    0.2033213644524237,
    12.204667863554757,
    2.139138240574506,
    3.795780969479354,
    27.026032315978455,
    8.266157989228008,
    18.872980251346497,
    6.052064631956912,
    49.91561938958707,
    12.403303631403983,
    0.3615879775331623
  ],
  "input_std": [
    0.8305476719156641,
    2.852812988147081,
    1.2149700488772213,
    2.1130610694168017,
    16.85148041972806,
    6.57709316786479,
    19.791133941238456,
    5.809434864018164,
    33.048154140902405,
    7.0447476723966975,
    0.868912612629172
  ],
  "layers": [
    {
      "W": [
        [
          -0.1862759208958057,
          -0.044290155351810474,
          0.4113570662739843,
          -0.0296786861706568,
          -0.24995110647490235,
          0.06895038933681698,
          0.5222199826403287,
          0.312407653234201,
          -0.36668246525591586,
          -0.36075717156631637,
          -0.2917122289169156
        ],
        [
          0.1283409195490512,
          -0.8826139489090971,
          -0.0997451368052724,
          -0.3761024881482212,
          -0.24035379287941985,
          -0.12252289553563019,
          -0.04144189462127196,
          0.2480932350192148,
          0.5781493695676877,
          -0.2334588610553139,
          0.6196205507810115
        ],
        [
          -0.34221558375506483,
          0.09142163533870094,
          0.2629529426211575,
          0.20076790327760757,
          -0.33521619987780726,
          -0.2543825785984161,
          -0.2615024696645589,
          -0.06925033709731203,
          -0.4290448852953195,
          0.2260841302267483,
          0.17028679784015377
        ],
        [
          -0.09613901148693987,
          0.007739469995949153,
          0.17978721178068713,
          -0.45512055947552055,
          0.05066620512242805,
          0.38011226054517155,
          0.34757062557520363,
          -0.6223106712097407,
          0.4471451060729001,
          0.48219135117933093,
          0.049180178655616684
        ],
        [
          -0.11809097021201742,
          -0.05247033229628996,
          0.34910743551562895,
          0.665640847496297,
          0.532407782905161,
          0.06402018799337293,
          0.014036508567946766,
          -0.7562407731295074,
          -0.12530733521278659,
          0.14168436945923432,
          -0.6875540998969424
        ],
        [
          0.453218259456824,
          0.12655054672081711,
          0.37738174512562944,
          -0.3646723783653764,
          -0.23263621679399554,
          -0.17525807856225709,
          -0.46736078305162,
          0.7462051333933613,
          -0.12504869443908137,
          0.2063539038946846,
          0.12613911330043048
        ],
        [
          0.6414539720419121,
          0.37186933938144134,
          0.4897710718645547,
          -0.9787542058428959,
          0.21620269444833162,
          0.1513117994863995,
          0.07938717759829139,
          -0.4628275868806979,
          0.7677920954920282,
          -0.4918585350551862,
          -0.24728487112835223
        ],
        [
          0.7162376468834865,
          0.13585107581413106,
          0.7746962034446387,
          -0.13298936286305477,
          -0.12813108109293372,
          0.1329477531143773,
          -0.30655475570721574,
          -0.6207329559180269,
          0.15709047086846947,
          0.12683471762191478,
          0.48348317622704773
        ],
        [
          -0.3550595851328407,
          1.0607724860579717,
          -0.11853718958069884,
          0.4002976381067761,
          0.011072996748016328,
          -0.37741183638523407,
          -0.12599557371347275,
          0.34716056442898247,
          0.1666829500624765,
          -0.09541666898462262,
          -0.28092591514682225
        ],
        [
          -0.35487702376415226,
          0.34019241450949517,
          0.5446831232219493,
          -0.02155317756946097,
          -0.20249023438635752,
          0.3938129901653486,
          -0.5826384542649546,
          -0.2982711698865475,
          0.16834895477928466,
          -1.0211416641538473,
          0.2948674819562967
        ],
        [
          -0.30783160338955423,
          -0.30981059598207233,
          -0.1334706247518795,
          -0.0470952830496066,
          0.17517251435992295,
          -0.4449982768184165,
          0.4585060439215273,
          0.25865847383196505,
          0.23582850784687015,
          0.41882198804462767,
          0.17086498813756631
        ],
        [
          0.22256965572286774,
          0.1479949654002923,
          -0.655617511455198,
          -0.040024878513607635,
          -0.289278015081129,
          -0.5915140069880881,
          -0.01841508142100884,
          -0.06440215853384572,
          -0.49769228651597575,
          -0.23194994189979748,
          0.19415372611618806
        ],
        [
          0.12091888030105777,
          0.8182776451614568,
          -0.24907351648180331,
          0.34951596462883616,
          0.501472558119898,
          0.23482707781491205,
          -0.9723908312225471,
          0.3070366711205793,
          0.16379716376799686,
          0.22253339012240436,
          0.0993424451813124
        ],
        [
          0.06689935726170883,
          -0.21151601702587502,
          0.054745172248713996,
          -0.572028226999806,
          -0.06743190727308296,
          -0.14792349685974968,
          0.511433771049951,
          -0.13995048757023515,
          0.07905301869826223,
          -0.5165308047483957,
          0.11937650273828314
        ],
        [
          -0.04620346284309071,
          -0.3086598888422817,
          -0.0033251505407715203,
          0.02487529012913407,
          -0.5450725826197576,
          -1.0062012765082557,
          0.22236443615414586,
          -0.18298907940875006,
          -0.10255240558125467,
          0.05896455275378837,
          0.7214444686311706
        ],
        [
          0.08633413850841899,
          0.022101510504207746,
          -0.696474883142503,
          0.41398128324810796,
          0.365849833090852,
          0.29118899366409245,
          -0.2703726663655241,
          0.3700145369329024,
          -0.06044356848240034,
          0.4500342366517292,
          0.09359017650190342
        ],
        [
          -0.7712721966120948,
          0.044184894714401804,
          -0.9448179413992462,
          0.09534606686892014,
          -0.3878386349860537,
          0.17634081099920804,
          0.035206522005328984,
          0.10157146020157558,
          -0.1928581406635462,
          0.09015649794423915,
          -0.07319723907176198
        ],
        [
          0.7486051660441928,
          0.3293413287641158,
          -0.1627741342620081,
          -0.7817182346256705,
          -0.41041613843018093,
          0.4474899532553586,
          -0.19458843606485918,
          -0.12769367989581046,
          0.7656295989032003,
          -0.29693543892619234,
          -0.4813907640066652
        ],
        [
          -0.2729053842684631,
          0.3345834427522804,
          -0.3438479322963629,
          -0.10881812433324202,
          -0.7391785980507137,
          0.2964448224494987,
          0.28824308828281997,
          -0.09180926372164706,
          0.09770433456555215,
          -0.35986495865557533,
          -0.15662279220327108
        ],
        [
          0.5085484709962592,
          0.3393973511670812,
          1.1088274342605855,
          -0.2681898415125094,
          0.3642665404724842,
          0.18996059875141022,
          0.13220883060693614,
          -0.39850061705238116,
          -0.14010789063323176,
          -0.7891273561364559,
          0.9780421351776009
        ],
        [
          0.15894514478304048,
          -0.7925156588689487,
          -0.2927976533555171,
          0.31455899300470735,
          -0.14392911757698088,
          0.695455673199508,
          0.24128464530706867,
          -0.14570705946179976,
          -0.31260786322703604,
          -0.06180790354404188,
          -0.13421366144846186
        ],
        [
          -0.7665890903197482,
          0.47903082418168036,
          0.5500042372325576,
          -0.23241242146735722,
          -0.48563212419527396,
          -0.9041299404935823,
          0.1965358484088316,
          -1.244308879049544,
          -0.1753944105953912,
          0.48360297350435805,
          0.10395978160816657
        ],
        [
          0.37806219669951635,
          -0.022498559050182276,
          0.7208058066889005,
          -0.12750898203872563,
          -0.22849326546573887,
          0.8391349495130205,
          -0.296674791028775,
          -0.5842593435970923,
          0.0008541341601176634,
          -0.2377098239522801,
          0.29216568846348395
        ],
        [
          -0.39044652925080553,
          0.4841722647130091,
          -0.13733846937791386,
          -0.4932060932426244,
          0.01795739309548062,
          -0.3693798077046161,
          0.6794128153603446,
          -0.21099422383893146,
          -0.13447241409054095,
          -0.6375185958481936,
          0.0895959369050323
        ],
        [
          -0.08291188141082217,
          0.49307750887135327,
          -0.4756805670363458,
          0.023965113065938227,
          -0.7551410645078332,
          -0.49559869797971867,
          0.9617660763997752,
          0.46742392489809187,
          -0.3978495761227616,
          -0.22332289822113263,
          -0.3406870597290883
        ],
        [
          -0.32376064682708405,
          0.2922927449324232,
          -0.11764878184582808,
          -0.5584110602837796,
          0.9759419474950721,
          0.3653525518895653,
          0.3154431034751831,
          -0.47290195371280364,
          -0.14695265687492054,
          -1.1270165364108427,
          0.04631274094640716
        ],
        [
          -0.4119553612570291,
          -0.3013729029215919,
          -0.26040180659075923,
          0.5900566289486048,
          -0.4306299348178794,
          -0.47851227686766545,
          0.2166719148964438,
          0.551516847599353,
          -0.26415518991413495,
          0.35793376837667323,
          0.12601908022920477
        ],
        [
          -0.014729562937500697,
          -0.5298135311402965,
          0.249035439418668,
          0.6515236371610236,
          0.11601417829713005,
          0.15831013841556837,
          -1.4389890817059474,
          -0.034230021817513556,
          0.13340044163565443,
          0.06473790345361843,
          -0.25152233381274514
        ],
        [
          -0.14583133798418452,
          -0.010311460083996736,
          -0.1124297622134623,
          -0.16780840949964057,
          0.4305750163785151,
          -0.3651659388967975,
          0.47558558294125103,
          0.1958546432881219,
          -0.3356712379084602,
          -0.020128378862217477,
          -0.40603920146057837
        ],
        [
          0.5708820963811939,
          0.022776791287648483,
          0.04049824323652739,
          -0.3005710801552773,
          0.23564345106162146,
          0.24153666068291152,
          0.0033939184100448324,
          -0.003394271118483712,
          -0.17014144816570537,
          0.32666112559136157,
          0.02434165972480112
        ],
        [
          0.23155511315070681,
          -0.38766540161154156,
          0.36861642916623893,
          0.006579712754719296,
          0.27272190122281253,
          -0.0694088289456043,
          0.05112264051680581,
          -0.4524038362670482,
          0.5815155095898432,
          -0.3842100995824004,
          -0.48742767271656073
        ],
        [
          0.0639285175627955,
          0.87634623178063,
          0.14501631554194627,
          -0.06031968829817239,
          -0.4416293168983592,
          0.1322412682623863,
          -0.22426374572624233,
          0.6470689447997986,
          0.3861034525014229,
          -0.6661722937015553,
          0.8532400820917525
        ],
        [
          -0.04466870508070208,
          -0.5138057812409806,
          0.1841999823980201,
          0.2381343895186058,
          -0.3886991560320797,
          0.09327424458461693,
          0.05948834425602627,
          0.1204594849840994,
          -0.48546989908912574,
          1.2203002447424374,
          0.34440119781568695
        ],
        [
          -0.22250610890145295,
          0.03598652491264084,
          -0.6495258314265867,
          0.04679719064869488,
          -0.06490533286257172,
          -0.17278568930728988,
          0.2791558175572632,
          0.1110890493109508,
          -0.1642299889401523,
          0.2866345951363251,
          0.260988948302275
        ],
        [
          -0.8085589130940234,
          -0.20374097736274352,
          0.4789171765369657,
          0.5909307072920112,
          0.15544992542437996,
          0.42827268274073793,
          -0.39910522780092156,
          -0.7664348755180814,
          -0.3240231666528892,
          0.029745380226122806,
          -0.3199879885817866
        ],
        [
          -0.3003233076617861,
          -0.36648229714547165,
          -0.21791297026557577,
          -0.13885469270203996,
          0.17540630610851346,
          0.3184144251262924,
          -0.08756852512549124,
          -0.169978394080382,
          -0.13345702776038082,
          0.3413136489409794,
          0.10656580810225577
        ],
        [
          0.6526345570174422,
          -0.4389871782542442,
          0.06907628506349504,
          0.24256478478806376,
          -0.22764947341242278,
          0.1495328593416025,
          -0.6022339973649883,
          1.0064828989448174,
          -0.4302264186187305,
          0.7471821395882812,
          -0.31969145915375113
        ],
        [
          0.4974235773521302,
          -0.04247532420896146,
          0.44470187359444097,
          0.11706332535654831,
          0.738597148157948,
          -0.04766831520231062,
          -1.0762398833327564,
          -0.450208437726188,
          0.0909913202074867,
          -0.14625165755606323,
          0.19943930837377521
        ],
        [
          0.2965789713229262,
          0.08638610600645374,
          -0.7703534245602079,
          0.3648238992412107,
          0.4728861608051685,
          -0.18073255706292754,
          0.6937948574773964,
          0.041750127706671344,
          -0.7326138130031089,
          0.03982138823879316,
          0.788458938346148
        ],
        [
          -0.6795629117230098,
          0.9647824736549432,
          -0.4645473718673678,
          0.2607683518213051,
          0.44908679155498643,
          -0.006637020413141375,
          0.330162976789729,
          -0.5050598847840615,
          0.5853345585030647,
          0.12448202948932781,
          -0.08925071744116143
        ],
        [
          0.21339930106318006,
          0.14884583899964648,
          0.24118922632336198,
          0.6480533684171353,
          0.3153943714463161,
          0.3692631519170923,
          -0.4477392699958527,
          -0.23118512603101588,
          0.017218842956599065,
          -0.35073234742513154,
          0.07308016821346706
        ],
        [
          0.29925493171408385,
          0.4466769027990456,
          0.18934332544927407,
          -0.24263564867761575,
          -0.1500985042927695,
          -0.37977551990969305,
          0.36073896642460984,
          -0.007669402766891812,
          0.27734746459195414,
          -0.4320562148691219,
          -0.6669441735981939
        ],
        [
          -0.4900375971457032,
          0.29187802603039414,
          0.5111708320073977,
          0.3031556219258168,
          -0.43735582138341617,
          0.1336576906684279,
          0.3670044979071462,
          -0.13868791139115189,
          -0.9257243341127105,
          -0.30933586660378937,
          -0.36327806100480015
        ],
        [
          0.5464543422539888,
          0.009003789154988128,
          0.8568192002875381,
          -0.2179399975869261,
          0.0004106070627457567,
          -1.5442253005000952,
          0.27957413656863045,
          0.2855105870107836,
          0.7734573223526009,
          -0.24818841679115877,
          -0.03413738123600157
        ],
        [
          -0.3726251111963152,
          -0.005376499606711046,
          -0.131017130070247,
          0.10704811223022972,
          0.7673581280626366,
          -0.09059788983840701,
          -0.18145652958282996,
          -0.2225858278557348,
          0.3027165693408886,
          -1.0217223238787154,
          0.14418896014973356
        ],
        [
          -0.9840679733255934,
          -0.5787817730026751,
          0.3525013496268401,
          -0.1687637117414947,
          -0.2871710820663126,
          0.5432090866360282,
          0.14536894670313505,
          -0.5294238121985322,
          -0.3591832463582867,
          0.9625279664624747,
          0.08630418216998594
        ],
        [
          0.2193167697838783,
          0.22922258939525075,
          0.44597543341793255,
          -0.3749845139110878,
          0.08620442671591436,
          0.2675234699553942,
          -0.29671716627141215,
          -0.2146176614252089,
          0.3761464710688376,
          -0.5625166427339698,
          0.6156909968157674
        ],
        [
          0.9070143774516863,
          -0.8531868456118439,
          0.24444926049945526,
          0.4983525384466393,
          -0.19214609544342662,
          -0.1778067415398005,
          -0.08311058802327506,
          0.3627218317960253,
          -0.09885129158864539,
          0.9794816846791702,
          0.42811568607656203
        ],
        [
          0.09343611120673054,
          0.6002101242861787,
          0.2667253690243609,
          0.11713736249448042,
          -0.13050754596550995,
          0.7084016892183591,
          0.3059423711277695,
          -0.008872854295261025,
          -0.7447140890944361,
          -0.09403780658921913,
          -0.24673980989141084
        ],
        [
          -0.696386194045169,
          -0.15660530170075265,
          -0.022145330979825805,
          0.4938723894739287,
          0.10246797900383917,
          0.1320736072089129,
          -0.36900239612791896,
          -0.09908438273949728,
          0.06913796600144997,
          0.5064083387888446,
          0.052585409762324474
        ],
        [
          0.33374918005181065,
          -0.12790539464162345,
          0.35811879292017323,
          0.12407836725537068,
          -0.2916689532161162,
          0.28891865578855935,
          -0.32572676563007535,
          -0.6519224695454114,
          0.33646621518121317,
          -0.1091070558427856,
          -0.10133000049803806
        ],
        [
          -0.11488817247280765,
          0.13938326760253442,
          0.19063012563546589,
          -0.18328864219568725,
          -0.11410172063713321,
          0.2897997316216085,
          0.12446574654398822,
          -0.009010128949488725,
          -0.23509557894280372,
          0.3754030707982063,
          0.04788054518381844
        ],
        [
          0.1792256103574883,
          -0.35135739374051367,
          -0.24322511083804974,
          0.4927185988887163,
          0.026725882448558873,
          -0.05334121220366035,
          -0.04655822916894187,
          -0.2708230276053554,
          0.46330175254681577,
          -0.36651939948777773,
          -0.0630071947391211
        ],
        [
          -0.05379197068914383,
          0.03307868268955023,
          -0.32782135965807774,
          -0.33662190140869813,
          0.1957408934710673,
          -0.37492191774650735,
          0.26555084413281027,
          -0.5758589176673597,
          -0.19520848365423119,
          0.017441858800073175,
          -0.30582076390994956
        ],
        [
          0.3738984316928213,
          0.28560486804280294,
          -0.42637852521787345,
          -0.5973266102220376,
          -0.1172068777046329,
          -0.22412662359158753,
          -0.017599548887625677,
          -0.026143828021105677,
          -0.08599315779979608,
          1.2788561630725803,
          0.11701864599895043
        ],
        [
          0.39679060524602505,
          0.12022719524742712,
          0.5978577943967749,
          -0.2932414838027631,
          -0.13753557414463272,
          0.27198422406390665,
          -0.05305283759576233,
          -0.21496818148943497,
          -0.2773342553270034,
          -0.07561689217712023,
          -0.1055152568445104
        ],
        [
          -1.100715040215936,
          -0.692579531614721,
          0.04061647014255378,
          0.7641684157184047,
          0.4976880184936671,
          -0.11707311178541441,
          0.27979634829005456,
          0.10546974711270886,
          -0.3772165148952588,
          -0.7593775413096575,
          -0.0059889940794097115
        ],
        [
          -0.8117880406050222,
          -0.6846309409725817,
          0.12946965797271695,
          -0.4265926110054959,
          -0.4433199549280259,
          0.2063956342706083,
          0.046131827577997726,
          0.14613555071728015,
          0.1403735690867704,
          1.3297589637695746,
          0.034197690454185185
        ],
        [
          0.45635032145765325,
          0.2004365251543825,
          0.19766364797540717,
          0.18133558058430846,
          0.22004267662977334,
          0.16898100793841822,
          -0.35670170632163456,
          -0.8253278336040629,
          0.02208289138035072,
          -0.4920491264312109,
          -0.17339333762645157
        ],
        [
          0.4139884160066491,
          -0.1668499923723592,
          -0.10868179826119691,
          0.6177659753903,
          0.2518344599983798,
          0.5170315879985854,
          -0.32392470322381267,
          0.2478657135958758,
          -0.20861975442923802,
          -0.192048344774344,
          0.030840166963537488
        ],
        [
          -0.4195131120752133,
          -0.13719087580226771,
          0.9675607426412051,
          -0.46961695251645025,
          -0.7242005527869738,
          0.2087341245471955,
          0.057427432115947266,
          0.5087193888289463,
          -0.4238039442502742,
          0.28957178507027403,
          0.08442005012829534
        ],
        [
          -0.3289731599001822,
          0.38988451655099554,
          -0.6432123848473259,
          -0.5493093807438063,
          0.768276953779672,
          0.2065617963244602,
          0.0943368161535469,
          -0.22817577823002527,
          0.44944195470334064,
          -0.3071159856910307,
          -0.6670509609550147
        ],
        [
          0.6556375884084528,
          0.15042201945936814,
          0.7515442962398722,
          -0.39058562729315016,
          0.6406016285838585,
          0.014842712835027388,
          0.3764578642427567,
          -0.21411613173057326,
          -0.010502633695822215,
          -0.8270395113334202,
          -0.2621320568081676
        ],
        [
          0.19741372348484956,
          0.4013503754194022,
          -0.13527201463145416,
          -0.20138273204697424,
          0.41314231269317,
          -0.06317489142742753,
          -0.28244575383752063,
          0.3818748646789191,
          0.1434814417836573,
          -1.191230687634343,
          -0.14393250034408972
        ]
      ],
      "b": [
        -0.004600521021472679,
        -0.29144234615074904,
        -0.3184914488258077,
        -0.29713886640032683,
        -0.2655420492611351,
        -0.17790225671722193,
        0.03820199617799117,
        -0.1829961869145533,
        -0.6301819110773837,
        0.034411325122550324,
        -0.232829691936727,
        -0.3029216431209155,
        -0.30322512634242615,
        -0.20817652720285593,
        -0.3117033064604648,
        -0.20264005151033615,
        -0.29979367239975835,
        -0.11535670115740093,
        -0.22429837520727117,
        0.20063786021341035,
        0.04535856073285944,
        -0.4685316753260397,
        -0.02456656977588917,
        -0.4068312357795877,
        -0.1909949558006047,
        -0.17623911034516182,
        -0.11261836360442141,
        -0.27860151498939784,
        -0.08827904337338251,
        0.06802689245912608,
        -0.27974965355294273,
        -0.10629572026119329,
        -0.6136551606881632,
        -0.023425511750501123,
        -0.27875873368514686,
        -0.1553651751797376,
        -0.6075298107690317,
        0.007456451292568657,
        -0.08849491068349144,
        -0.4587386945260732,
        -0.1966494186959252,
        -0.12159166514786103,
        -0.27059286841616853,
        -0.11922382969224161,
        -0.2665264772971094,
        -0.1582109613472157,
        0.2874502285130517,
        0.007932683897685299,
        -0.09438641266315896,
        -0.4995172684311622,
        -0.15524649451487227,
        -0.2629842408471072,
        0.007445206351546326,
        -0.1635251067644187,
        -0.881831094679381,
        -0.197998780279254,
        -0.27040923096985875,
        -0.782000847617159,
        0.05200332338401455,
        0.053724179988454225,
        -0.5619901170580729,
        -0.5979064623847866,
        -0.011309991733753265,
        -0.04412429992926375
      ],
      "activation": "relu"
    },
    {
      "W": [
        [
          0.014170016565615598,
          0.03913535292649013,
          -0.11375310365776645,
          -0.1867942705661456,
          -0.052137944580485006,
          -0.06041424306872148,
          -0.040089867117504105,
          -0.06638859481712732,
          0.01702111109264701,
          -0.11844285079883846,
          -0.14508019959101845,
          -0.4700551616506249,
          0.003194792880365589,
          0.1463901900467676,
          0.022010685821158536,
          0.08256588316606295,
          -0.05737562243265085,
          0.07936023234774031,
          -0.0031740945185038355,
          -0.08559496255021357,
          0.14876327769285802,
          -0.192672049390503,
          -0.21527373479310652,
          0.12037865786316623,
          0.2119358227162485,
          -0.19789845902382852,
          -0.09433929549106845,
          -0.08898935107604167,
          -0.046159828549984655,
          -0.04895315956940692,
          -0.09314045352384182,
          -0.1110296953458291,
          -0.2922225505028616,
          -0.13081998489987146,
          -0.05725227309951215,
          -0.17727460819101634,
          -0.27093513908622097,
          0.12069686071060017,
          0.06513357661614849,
          -0.2936664849452669,
          -0.1575914705100412,
          -0.06589428450513887,
          -0.03384200403864588,
          -0.1821090908902745,
          -0.008623426189175842,
          0.026679919713150115,
          -0.05398819744134507,
          0.08836202427468737,
          0.11472930255854703,
          -0.2169742028439858,
          0.21457827575468041,
          0.14716095542911525,
          0.02692829030793552,
          0.2802934785494701,
          -0.06467831508096522,
          0.12174903772158974,
          -0.10578633053262809,
          0.37878622412324936,
          0.027414519060910164,
          -0.10304465408218783,
          0.32441840909642783,
          -0.10382942548324103,
          -0.045226974484760755,
          -0.03508582569715485
        ],
        [
          -0.19231888773177416,
          -0.012100687620841459,
          0.04612591929450583,
          0.022383586056102144,
          -0.3185173294001846,
          0.25178129042840347,
          -0.07086673143163746,
          -0.2263129168496876,
          0.0455801014432255,
          -0.03957692106897217,
          -0.1783683587526786,
          0.3030997351292905,
          -0.05872018148337524,
          -0.3638089577939108,
          -0.227109308576157,
          0.18912684846051384,
          -0.12975071274224548,
          -0.16047842236553334,
          -0.09145631734973748,
          -0.08857052130437772,
          -0.18697600611909448,
          -0.19237994717305276,
          0.13556959517182798,
          0.0515300437728207,
          -0.24926755822975555,
          -0.0304278370947634,
          0.07385262793121104,
          -0.11668870666049524,
          -0.0373013027322915,
          0.029141836038252,
          -0.2715753623416181,
          -0.10474088826127764,
          -0.09239543318147735,
          0.01855816458242834,
          -0.13820972459067504,
          0.006079736611833633,
          -0.03180156772524569,
          -0.08902913866400426,
          -0.0945599418595065,
          -0.04375672568458172,
          -0.10311590414220369,
          -0.009898425036800537,
          0.1382008699671437,
          -0.04765794218869911,
          0.23204820169517484,
          -0.14902064222111244,
          -0.04780386640399118,
          -0.12084933592029534,
          -0.0380542448760656,
          -0.1187705464291211,
          0.12357985530950598,
          0.03477844755192516,
          0.12563693682169966,
          -0.2876734690347223,
          -0.168893655287523,
          -0.15519919753405115,
          -0.048304768950068154,
          -0.050558126107782216,
          -0.11322097326963496,
          0.02769415274993919,
          -0.030413230855484474,
          -0.1026061500890385,
          0.04253130882537766,
          0.15393792979210633
        ],
        [
          -0.212862665921826,
          -0.03156640741353046,
          -0.1155928815006412,
          0.18030510635881192,
          -0.22363465732966664,
          -0.1545561531131014,
          -0.33060801903440057,
          -0.0828549912036463,
          -0.4170062712575334,
          0.03566947119141685,
          -0.2021908139214101,
          0.02910220603417309,
          -0.10834940791287878,
          0.09219595644228887,
          0.03105243087370064,
          0.17888911043149971,
          0.42981223814277253,
          -0.12313404235344307,
          0.12879239699771353,
          0.07458074644248837,
          0.10061918736247458,
          0.026193824279166743,
          0.11333797155483298,
          0.032338033313201384,
          -0.07079016891325592,
          0.07681358952809605,
          0.04660377200724154,
          0.1827292422596753,
          -0.16588543798846728,
          -0.24425948014930254,
          -0.17781564072670294,
          0.014265195927922367,
          -0.05662993911749575,
          -0.052601718963285714,
          0.07397044810545604,
          0.03776691558379866,
          -0.08882140895995631,
          -0.03700276775329773,
          -0.008805522003316406,
          0.01586050233781982,
          0.12044349456390065,
          -0.23577580690018843,
          -0.11235347990634374,
          -0.27364574501181527,
          0.07025951272600753,
          -0.013101532877237471,
          0.004841711257063066,
          -0.056123609399721316,
          -0.10174769666344113,
          -0.017666961833235306,
          -0.07966778833673419,
          -0.05765881571620528,
          -0.05175716952998459,
          0.21982248089886985,
          -0.0005827609272535274,
          -0.0807685745716283,
          0.05874281041271129,
          -0.16603590312116498,
          -0.0959892348451704,
          -0.040778614921930974,
          -0.3464014175619174,
          -0.4016290008843193,
          0.1621799252231692,
          0.0366256512432042
        ],
        [
          0.07818509811223323,
          -0.08824684149201474,
          -0.10594902472312177,
          0.06709220906041956,
          0.005259031707785945,
          0.059925556592859336,
          0.03790046019558356,
          -0.9587435589878922,
          0.13907809946303168,
          -0.13646166830086265,
          -0.14519384188318166,
          0.10179700913589501,
          0.060697362331345865,
          -0.019378408624304542,
          -0.05759692740973647,
          0.051485640623556275,
          -0.2099886398222765,
          -0.24632533071311333,
          -0.35566891178558163,
          -0.2868801022454603,
          0.2244714074409193,
          -0.033387495624498456,
          0.02840758389753189,
          -0.020449631178385563,
          0.0024268449073519887,
          -0.5690926878032914,
          -0.019258820902934914,
          -0.028727801597897715,
          -0.05209219649029932,
          0.1279586115608814,
          -0.008552026214031977,
          -0.5741200495715743,
          -0.37598267345646075,
          0.1299065633536875,
          -0.1136925219906684,
          -0.4033422663607434,
          0.06699531002403274,
          0.22221749408032573,
          -1.0206770190230312,
          0.054924952219361556,
          0.020018473136513677,
          -0.02394818741076023,
          0.034425268182018055,
          -0.16674243633889269,
          -0.11708815395087409,
          -0.013069769215352,
          -0.740220865169298,
          -0.0713876313205733,
          0.013342816304008602,
          -0.10150551222974745,
          -0.5109326158851517,
          -0.03752588563442871,
          -0.6513369286944882,
          0.13569678749703465,
          0.05517716249867473,
          0.029522906312366926,
          -0.0007992092667539446,
          0.5080878604844914,
          -0.5598785376137542,
          0.0367890657566062,
          -0.08826489991863007,
          -0.25734697613238944,
          0.14398495649033516,
          -0.178037677538138
        ],
        [
          -0.05485465818929206,
          0.053287091000561976,
          -0.035657652695463456,
          -0.05490340646722774,
          0.029654695234081294,
          -0.0010564185758778983,
          0.1512872422497559,
          -0.19621327238056277,
          -0.32965220881628804,
          -0.038772283917828367,
          0.09746093621673661,
          -0.0023113839158952374,
          -0.05930351628954729,
          -0.019970320350850043,
          0.005634013499032238,
          -0.05691588177454883,
          -0.43050039675428675,
          0.05098635413539302,
          0.1603186968719385,
          0.5459252235788511,
          0.044611192705585966,
          -0.19088969503158162,
          -0.515600612450303,
          -0.05267476898784382,
          0.06974103924150206,
          -0.1541790833955556,
          -0.01615839169963453,
          -0.17617756151870298,
          -0.0911943343879729,
          -0.006982687145284497,
          0.06892731865071215,
          -0.2117705860286474,
          -0.19231028978461726,
          -0.016638160923994123,
          -1.4100598449370458,
          -0.046937500574517156,
          -0.02231679800450413,
          0.051369560244814746,
          0.020808286278212643,
          0.06687329543439935,
          0.03245802544817694,
          0.13476468864291125,
          -0.07490465680320464,
          0.04616170586646775,
          -0.07943957598423004,
          -0.13073627277012959,
          -0.08022709351833734,
          -0.13202794676239357,
          -0.06416206873792361,
          -0.13242298065368605,
          0.10836203553478245,
          -0.02376669651397674,
          0.05428628702978517,
          -0.10887541579675265,
          -0.029309520563679792,
          -0.02105842235358755,
          0.06844418830112932,
          -0.09994583371770734,
          0.07553278678875208,
          0.1052306727241414,
          -0.07262126664182776,
          0.0002481310305021931,
          -0.07298368004191777,
          0.02776104510060959
        ],
        [
          0.0017875074788947182,
          -0.005515589874104872,
          -0.19228278258407008,
          -0.05868533384169401,
          0.15435947486284038,
          -0.3470105447936569,
          0.12938170565947035,
          -0.18739590693465039,
          -0.05999336654187157,
          0.022021082845044764,
          0.030827235376379186,
          -0.10608052179339854,
          0.02282774076654964,
          -0.06945575092596455,
          -0.4332828594356036,
          0.16592136118295817,
          0.28446478998264774,
          -0.07371156684524027,
          -0.34458561215117367,
          0.0331414161790217,
          -0.1915241311534796,
          -0.30857102700858785,
          0.12435032933335485,
          -0.12328363971288764,
          0.17104041855724872,
          0.05837548493652416,
          0.1886559698002987,
          0.3408158736054887,
          -0.3271894389660353,
          -0.08652091398615709,
          0.05798525189248472,
          0.09278332863564867,
          -0.24361121463287178,
          -0.2502207105922281,
          0.13352083427157388,
          -1.1791628849081286,
          -0.4291534309622177,
          -0.006589173459921321,
          -0.1170956669582238,
          -0.12990359581969324,
          0.3001484944394813,
          -0.1950697293613603,
          -0.21825875664252692,
          -0.2538329746856533,
          -0.027687989388650625,
          -0.3078629419119839,
          -0.010655561821236992,
          -1.0409165961969036,
          0.008580226958419418,
          -0.05535239704489917,
          -0.5397249702049262,
          0.01271602106555675,
          -0.13318522665875035,
          -0.4552734073257384,
          0.23191012770161518,
          -0.36703903721732956,
          -0.03686807652873325,
          -0.2338929060250751,
          -0.028543833522401356,
          0.09409923456492075,
          -0.2963036293872479,
          0.41986791098053455,
          0.03374359507506718,
          0.09953974841781436
        ],
        [
          0.06412603845710098,
          0.10743307491770414,
          0.27210196497884537,
          0.2739574743244543,
          0.18962844547827437,
          0.044181761901632505,
          0.5823055487190874,
          0.45755301601191806,
          -0.09663684968649815,
          0.007842843779074758,
          0.201209046091803,
          0.04445085800618428,
          0.12137912492402149,
          0.018191925338633418,
          0.1509981668953978,
          0.10113049445025582,
          0.1048104404795032,
          0.07807952633535287,
          0.1274923424425192,
          0.0834553474389301,
          0.08026906153804263,
          0.2542727528703361,
          0.2865737501097883,
          0.02541205752253613,
          -0.04616570805211467,
          -0.15634643314256053,
          0.07662919082560965,
          -0.1928350309687242,
          -0.1024709802120323,
          0.24718005644936805,
          -0.05397117583455966,
          0.06667475773703634,
          -0.08086226933967103,
          0.11486246707893671,
          -0.017110519660890416,
          0.14907134915036752,
          0.2046896030854287,
          0.08546065982505639,
          -0.05752517002277422,
          0.009506152312074835,
          0.23092343232424553,
          0.09713125816770951,
          -0.17392467443542306,
          0.20653925982448365,
          0.0507754768845436,
          0.10575700457960209,
          -0.11369772760375692,
          0.17728189348747586,
          -0.061260365371750995,
          0.09776683483287699,
          0.01530084253893146,
          0.028404891744022533,
          -0.15585836946611356,
          -0.021911128779533807,
          -0.2790141446103913,
          0.13768198338522383,
          0.12866086338228164,
          -0.08814625903399145,
          -0.25398208167423114,
          -0.0037737865917457296,
          0.159904091239146,
          0.06451682936495995,
          -0.03371928610693058,
          0.22965941669978804
        ],
        [
          -0.1778060774339909,
          0.01743308210607876,
          -0.01251670109867486,
          0.016096230649234204,
          -0.03451746711545683,
          -0.043117887832875,
          -0.06815555702482118,
          0.06735370192143958,
          -0.4290598936312806,
          0.08885230820333627,
          -0.08743074019615298,
          0.17939512210806688,
          0.06119522801517877,
          -0.05879075657866861,
          0.08483785925769312,
          0.0770540251385982,
          0.20904751508592387,
          0.24156553172949136,
          -0.04820416954641992,
          -0.03421388658664848,
          -0.002145376451926131,
          -0.08959956129715368,
          -0.006627075769225998,
          -0.3516809497932482,
          0.21965404570527747,
          0.08674708584063863,
          -0.06131804494369633,
          -0.12669151284494834,
          -0.04463992354206292,
          0.05162986830458257,
          0.03310549565523293,
          0.05072009228036195,
          -1.0869164810142162,
          0.21247963946367474,
          -0.1014828614882443,
          -0.519300293617978,
          0.27638594040870634,
          0.01378093897780719,
          0.012068443520693183,
          -0.0021796216441141276,
          -0.0556563783930748,
          0.01744902804937816,
          -0.2456626446183386,
          0.14519770352656916,
          -0.048579776540369726,
          0.9126280114280992,
          0.04731225588867215,
          0.08075855746863882,
          -0.028800569202043578,
          0.08325697246006958,
          0.17915402807905442,
          -0.006748507660219514,
          0.0017797122163379644,
          -0.13121020712831222,
          0.06190539781547238,
          0.024859429821953664,
          -0.08533351527996372,
          -0.058566423046927336,
          0.12884425003659297,
          -0.043556930874093756,
          -0.04108359463940083,
          -0.23470797490845716,
          0.0269512691144232,
          -0.0172100409160074
        ],
        [
          -0.033069533137093474,
          0.014647290864305848,
          -0.08149961217043529,
          -0.425471564404397,
          -0.5470706721916812,
          0.1222421100407244,
          0.18652396843473962,
          -0.3472054490736789,
          -0.5074075586322832,
          -0.22842972749460563,
          -0.08857950361508451,
          0.03359515319294238,
          0.16610225513331403,
          0.070752897663094,
          -0.048793960152525656,
          0.1255067945585044,
          -0.4376028594791181,
          -0.10045122175569399,
          -0.5392304592523283,
          0.12144405943064929,
          -0.07035296274713247,
          0.04822771576555509,
          0.2887435239661198,
          -0.1828430620909673,
          -0.3474387413778184,
          0.17693031962966602,
          -0.27799285037465593,
          0.45968789067186056,
          0.13109558226849882,
          -0.00031426378427535067,
          -0.05061615060543922,
          0.18606337070369214,
          0.07327607672761123,
          -0.0708147671709001,
          -0.09461310180529867,
          -0.11636674390276797,
          0.3615069439906526,
          -0.5284094157304148,
          -0.1655719161613347,
          -0.049339335256735624,
          -0.12662533173668697,
          -0.270224536389433,
          0.02837613026965359,
          -0.21673166622824722,
          -0.23392180805326807,
          -0.1100757542466794,
          -0.01900250340401949,
          -0.0847784562424777,
          -0.07601299715654829,
          -0.005489830107008183,
          -0.16083999025826756,
          0.21675954197716663,
          -0.03245051982800759,
          -0.09961241284142708,
          0.0750238371330756,
          0.1557907540050008,
          -0.1444651786106311,
          -0.06751283561737481,
          0.03438297355492035,
          0.012318508613776842,
          0.13759639155080378,
          -2.580911052434891,
          -0.045920898633184874,
          0.18902674208829187
        ],
        [
          0.050058461389158045,
          0.10841779155895034,
          -0.31100576422437826,
          -0.23047438702858808,
          -0.10982153953826335,
          -0.08872914109182797,
          0.03574925157978855,
          0.07027403964128687,
          0.18412637947203028,
          0.058859995021432895,
          0.34282833100351834,
          0.2174594806671311,
          -0.09208173941358742,
          0.04945836566313757,
          0.39679723259798844,
          -0.11060674543429447,
          0.05926308204024175,
          0.4397751155197677,
          0.25419164573072,
          -0.02099148329131362,
          0.06909661824351616,
          -0.06784087887381299,
          -0.2070213125228904,
          -0.00034550720184048193,
          0.06593724638099514,
          -0.03270493686348764,
          0.001759890115190083,
          0.3223823384658353,
          -0.09578726626125154,
          -0.04680301441982488,
          0.003029032745438189,
          -0.028223923106631677,
          0.18302075436836676,
          -0.0481882563039671,
          -0.07593701493202151,
          -0.2598806336511281,
          0.007115804480604294,
          -0.06002451907515029,
          0.20082183281781135,
          0.19665162305766254,
          0.02486242916739963,
          0.34434202090221155,
          0.12215131645195258,
          0.04588488311874033,
          0.07435550142285191,
          0.029509060594724305,
          0.0004109724505675206,
          -0.17954017794959667,
          -0.2848196612503184,
          -0.10355197930300676,
          0.1320953723731808,
          -0.26373319081192304,
          0.21735411209400896,
          0.1627596737384321,
          0.10714968053696101,
          0.01583263099893853,
          0.11294315921279251,
          -0.4498893039697307,
          0.3862411341578222,
          -0.22469853043246035,
          -0.19192865597093206,
          0.16083402330697252,
          0.07814859445147247,
          0.12893340082428137
        ],
        [
          0.40284341933728685,
          0.029055532061225103,
          -0.2802963208833597,
          -0.11933785279318393,
          0.16020979147110634,
          0.1451768631907376,
          -0.303112337401952,
          0.2249863979893936,
          0.3455911703328874,
          0.17777812579303698,
          -0.12685940405248003,
          0.07385590763007795,
          -0.4271072101814722,
          0.24818364782781982,
          -0.2060413526035976,
          0.10395876943985585,
          0.126115336542353,
          0.15873549027268444,
          0.10161589971690534,
          -0.2875902725900929,
          -0.1038739350691303,
          -0.152818618820953,
          0.08493975483037818,
          0.18041322964276169,
          0.034586893963367914,
          0.441317249806908,
          0.17377763533026938,
          0.1913077000311669,
          0.23869235292323918,
          -0.09101155745328136,
          0.025941678686475605,
          -0.06954706659702538,
          -0.6990949900229045,
          -0.05503681725919777,
          0.13513740020193896,
          -0.033020818632833245,
          0.06240320587415309,
          -0.0879097562973358,
          0.04016275246110246,
          0.2958994205473134,
          0.020563711433250823,
          -0.09081236309953619,
          0.086604361262676,
          0.43878323920665124,
          -0.17343452541984103,
          -0.0255292192738157,
          0.032493094874728,
          0.1865662987520415,
          0.32849226715960606,
          0.10063868848734445,
          -0.22128740736125396,
          0.21652635733646092,
          0.22649239556202816,
          -0.15120458110744076,
          -0.10416033104116344,
          -0.06255337492218821,
          0.1830478399338887,
          -0.11238972162617918,
          0.14935608186148358,
          0.1292080706365999,
          0.11391419695781003,
          0.2462146281080432,
          0.1324306707583596,
          0.25164312255474725
        ],
        [
          0.19548739476783655,
          -0.10504660265173928,
          0.06754086963474515,
          -0.1937448944004003,
          -0.18861143606395978,
          0.1641230287378304,
          0.16651498244375457,
          0.2911443712872196,
          -0.007189127519751165,
          0.10591308740834672,
          -0.07093423487639322,
          0.011663562068224494,
          0.042200447619578633,
          -0.034396314400231956,
          -0.17132409084924483,
          -0.007811996599598397,
          0.186718960526491,
          -0.04601033601494356,
          0.22057076445857163,
          -0.06830699502871114,
          -0.16797625386019488,
          0.1200206838560257,
          -0.09156727627254917,
          -0.2216811717726279,
          -0.0006988137974106186,
          0.21016251740221434,
          0.3962735650709501,
          -0.01005643896314762,
          0.17667234243311533,
          -0.011662764555137126,
          0.04220741667956617,
          0.18085083481968414,
          0.17148585072215508,
          0.06763843053667998,
          -0.09840700544696877,
          -0.11956187064307261,
          0.020232566341243735,
          0.011169957892218174,
          -0.0019736674156573325,
          0.2226772825558644,
          0.10069346925258682,
          -0.3417096182705967,
          0.19830930338546068,
          -0.2175952169970057,
          0.13837698415206948,
          0.11751848343233283,
          0.06801204671035849,
          -0.12199771095618728,
          0.0051129698381741475,
          -0.3022688872678013,
          0.09620513787111366,
          -0.07350313740489786,
          -0.2888913220852289,
          0.15131640497743043,
          0.34361056890615965,
          -0.048957286814647484,
          0.2028683397382013,
          -0.062385775026308564,
          -0.3702490180447432,
          -0.10170595622482974,
          0.09543750670133151,
          0.03188163876033615,
          0.011375499578443669,
          0.0013430208847367477
        ],
        [
          0.28441624561144213,
          -0.16400460555153656,
          -0.0041576322066369,
          -0.27272099881586986,
          -0.024377483938622553,
          -0.07829682738268418,
          -0.1790299388895739,
          0.1421838002369506,
          -0.41343415949254775,
          0.10335211418908358,
          -0.14511965904174037,
          -0.04332488506657405,
          -0.05244366414422227,
          -0.09658969932111751,
          -0.017000610404843613,
          -0.15047662270861115,
          -0.16779566703823717,
          -0.003980588982289135,
          -0.03667352432216674,
          -0.012536410735847785,
          0.10077993101870457,
          -0.08496336545012771,
          0.47099395683781003,
          -0.24276653559669298,
          -0.07175476776741693,
          0.13317461655073717,
          -0.11474046170720179,
          0.23965166283992834,
          0.2979750921543989,
          -0.2313462405391851,
          0.06400921321353958,
          0.022068591427311553,
          -0.3190247864521949,
          -0.05400268812098003,
          -0.04458905461309632,
          -0.006581609375546748,
          0.12201343634481818,
          0.13814472072863412,
          -0.004272217829512033,
          -0.16401247613545614,
          0.05658201990622541,
          0.05325265693135753,
          0.3960354026005417,
          -0.09144174687697812,
          0.43590801907878485,
          -0.09104344850253952,
          0.1013511648001215,
          -0.1144465473934814,
          -0.07320343559760857,
          -0.045638744259783655,
          0.07850785985821708,
          -0.2950828176956748,
          -0.02363710089755741,
          -0.053862661593097425,
          -0.021799158716102607,
          0.29552184709613055,
          0.1302839188421655,
          -0.0027630884505532153,
          0.16755476449590714,
          -0.06540211065455717,
          0.16650344403502026,
          -0.7364234068742919,
          -0.11852085971610736,
          -0.028479566783314737
        ],
        [
          0.1517297922276877,
          0.19023496135220555,
          5.3424867711072125e-05,
          -0.13437743913310737,
          0.13440707792914033,
          0.058875848347293105,
          0.1878611451240307,
          0.1042332734942593,
          0.2069792589962428,
          0.08684036904415017,
          -0.07875284436975255,
          -0.013005021693112307,
          0.24121187046771567,
          0.06955767106208398,
          0.04314406585406249,
          0.1676041307675345,
          0.1687515748429417,
          -0.1905943134261112,
          -0.09381888413725123,
          -0.22392874484925976,
          0.2569891885606631,
          -0.18490670343467822,
          0.03493598514463488,
          -0.0464981573439307,
          0.154839656359834,
          -0.23775082922054072,
          0.04207207694229145,
          0.27385262312672254,
          0.2879776205452544,
          0.15357170502372006,
          -0.05558413060495757,
          0.2960895863871642,
          -0.17705421837290336,
          0.0939018338037032,
          0.0741538235990393,
          0.03945200272537705,
          0.1444183667120111,
          0.05678057402649781,
          0.1952292181434756,
          -0.21447799084689967,
          -0.1252821490649353,
          0.08087514089448125,
          0.07646755974533956,
          0.08773070349525726,
          0.3767718295288436,
          -0.09014122031857574,
          0.14247586613815466,
          0.10462307426250955,
          0.5092096325922368,
          0.001650631639640909,
          -0.0018974559345859069,
          0.039667770660064335,
          0.21029859676393822,
          -0.07215563847053451,
          0.3435810520270324,
          0.28689117509808804,
          0.2334168410964365,
          0.10563106314726028,
          -0.23519570527792302,
          0.12063333704251063,
          -0.04372081270390438,
          -0.07591370779993037,
          0.0672161468989894,
          0.03744255046834179
        ],
        [
          0.13767939683595548,
          -0.14076108157954825,
          -0.18337695442612564,
          -0.14741364817605304,
          -0.20911256262077477,
          -0.028619510939053672,
          0.12799427212986042,
          -0.1540248731342083,
          0.09372458819844648,
          -0.4957269811082361,
          0.44974642746926813,
          -0.019338435971320175,
          0.4359803575611428,
          -0.1215738223943738,
          -0.05843013152478385,
          0.421335787010144,
          -0.5286171095920345,
          -0.15950550628624383,
          -0.21514033339903507,
          -0.22799641848333244,
          0.34664335259399737,
          -0.1727892980689453,
          0.11938298228624415,
          0.1321615843746721,
          -0.27736550519117337,
          -0.2289242835750345,
          0.15712986886649827,
          -0.10248504986958605,
          0.6086169964347086,
          0.2059352595791804,
          -0.07474325033171156,
          0.01703217033820389,
          0.2111660859971594,
          0.15355090106695327,
          -0.04047553535444262,
          -0.04491567345344736,
          0.23738672481939452,
          0.1042160724034659,
          -0.13003707402742215,
          -0.0667339912422886,
          0.18818192303000372,
          0.10941294254539181,
          -0.42820134394350856,
          -0.47534165369290393,
          -0.005568491164166694,
          0.011877989095302997,
          -0.03403288638862244,
          -0.24448761446539058,
          0.4049349909262913,
          0.14865976408859574,
          0.014396870129350774,
          -0.14841574282024123,
          -0.41789754908794463,
          0.0924621185826336,
          -0.6419327444369858,
          -0.5048049236888825,
          -0.1226739139322768,
          -0.25372592874876787,
          -0.5108058407284607,
          0.13006362000609967,
          0.06412677605923606,
          0.2211414749049081,
          -0.11589551087741284,
          -0.15479136677555475
        ],
        [
          -0.3181249924176393,
          -0.02266041734101625,
          0.05922935555864138,
          0.07692272840357348,
          -0.10195814749541052,
          0.022998250159385922,
          0.05337837940960103,
          0.28724885922898175,
          -0.03683218871944852,
          -0.4811447618115472,
          -0.09395434499560024,
          0.011223824506881348,
          0.14386536158452956,
          -0.07677970552467732,
          -0.08989545353903641,
          0.077710185914349,
          -0.03442515182651168,
          -0.0262901000579157,
          -0.06767613131732106,
          -0.026979731562218372,
          -0.044860273543863266,
          0.2519127310331564,
          0.21102849900824064,
          -0.2823621553458668,
          -0.02608287167846969,
          -0.2368857801132366,
          -0.15098446001321422,
          -0.37277086694149836,
          0.03188961126603254,
          0.23709876011831027,
          -0.046999047018017145,
          -0.049841463255060024,
          -0.05703698980782967,
          0.027134180344823934,
          0.07531172758620426,
          -0.04567251454225584,
          -0.006313697109913113,
          -0.09924008962458833,
          -0.015191976518589894,
          0.0837814399662391,
          0.07729653688087913,
          0.0024940062425513423,
          -0.0747319520377887,
          -0.11073003395630003,
          -1.3692894103204427,
          0.15216561134676343,
          -0.0775811246918349,
          0.1572453591798362,
          0.11294474032366977,
          0.039421346840335776,
          -0.0412492351268673,
          0.21263984102502656,
          -0.02508183470582293,
          0.106544331913714,
          0.17404959937399078,
          -0.010508209051678987,
          -0.5186988981260556,
          -0.045123011498562515,
          0.03700592759490941,
          0.0860611132693524,
          -0.07204215438578288,
          -0.33305109661086063,
          0.19703531004317476,
          -0.01877304732470366
        ],
        [
          0.037642690054959585,
          -0.04306530086721513,
          -1.118578924677041,
          0.16892958427623803,
          0.11597711816933204,
          0.021918351000673075,
          -0.001044079369508818,
          0.2936238187704771,
          0.08365093572907432,
          0.02544949588642285,
          0.20950978867695474,
          0.053598633881115305,
          -0.03062968477451912,
          -0.09638098496951107,
          -0.0353798724326522,
          0.176276071633172,
          -0.1720870076669473,
          0.2316621317957959,
          0.025749331101558217,
          -0.03177019843234181,
          0.0076878404854320665,
          -0.17620166333808637,
          0.1488431010114323,
          -0.3646102017490576,
          0.08762077030559243,
          -0.00888430375090297,
          -0.18236379375806053,
          -0.04950995618695061,
          -0.039109140974606424,
          0.16579510135724077,
          0.0684230127041858,
          -0.015349220501269375,
          -0.16636654126819192,
          0.0090440155887132,
          -0.16589652745158068,
          -0.28390543120891276,
          0.47118993428469363,
          -0.15988026928509905,
          0.17081375492818632,
          0.04861655026051319,
          0.08206041452326437,
          0.1632652163014605,
          -0.5136131083453254,
          -0.03600408698059457,
          -0.3421059281436281,
          -0.17773228448322634,
          0.06326911882647832,
          0.02388175732233235,
          -0.12495240069017918,
          0.06331448647497347,
          0.053269724263770135,
          -0.0948170770573872,
          0.07122111877948972,
          -0.004338144764692781,
          -0.20970951373077246,
          0.4841868280562055,
          -0.25579714616897414,
          0.029939496945228256,
          0.18043473994517614,
          0.136706734214551,
          -0.10070531165742098,
          0.2097216579752167,
          -0.29975405792316034,
          -0.14591809617744633
        ],
        [
          -0.23907163718955313,
          -0.1416206791132514,
          0.07093615329051234,
          -0.2734911230503543,
          0.18552413880705743,
          0.3850695435109097,
          0.024110108519705072,
          -0.16805097422762122,
          -0.011451849507659533,
          0.07724278558550704,
          0.11956643245007034,
          -0.4868000408956657,
          -0.1671424592443869,
          0.11534309401850372,
          0.49237554968436187,
          -0.15038197924144148,
          -0.08380041722362133,
          -0.18775424032682786,
          0.2346815584036678,
          0.033166749613445505,
          -0.2728967833029787,
          0.2062652665220714,
          -0.003592171819512698,
          -0.22318516495870452,
          -0.0888207247869474,
          0.008612680822615754,
          0.040958275744436404,
          0.12536436950343602,
          0.19111338821028367,
          0.007127619346412722,
          0.03608801618985694,
          0.05725714342181097,
          -0.19240695207132502,
          -0.18694317899884233,
          0.21230703889518027,
          0.19592476209228968,
          0.19074885051712856,
          0.0995205029378665,
          -0.16718490265266173,
          -0.017981184131156444,
          -0.21379482396063387,
          0.19695442507517102,
          0.17883726967890567,
          -0.2128284244852685,
          0.21401149374701417,
          0.32321572045506913,
          0.14346311675520837,
          -0.10290399139110462,
          -0.09445076135518501,
          -0.07634330682419012,
          0.01952597361268543,
          -0.05966638891256544,
          0.09675946083092501,
          -0.0042657725860212195,
          -0.013812206255644487,
          0.2791027141406258,
          0.27319408459419675,
          -0.024380653918750782,
          0.03230262059206073,
          -0.06279589455841142,
          0.10981127608165128,
          -0.07910703811282353,
          -0.1987696128403408,
          0.12829435099103675
        ],
        [
          0.17120181044281377,
          -0.11404570767316637,
          0.17268769342415216,
          0.04253948310766715,
          0.007832602295548212,
          0.05199436287522329,
          -1.1742460369958831,
          -0.1855790862923951,
          0.22992752732711433,
          -0.2781017420851432,
          0.14731569008030276,
          -0.007822726546360166,
          0.06168122010553555,
          -0.17249412555772325,
          -0.05439507929583177,
          0.11377851218658559,
          0.13320461731936353,
          -0.2967927311949326,
          -0.08173922738981845,
          -0.05734125758250393,
          -0.12603627172565562,
          0.0667857723713509,
          -0.26685613853726536,
          -0.10571734275806262,
          0.07162818901942701,
          -0.6145404197389122,
          0.10299932985644492,
          0.17246588217608444,
          0.07299005691346197,
          -0.16155627970465822,
          -0.03248771770830763,
          0.10157678336495819,
          0.11693162878596723,
          0.0318253163547211,
          0.013175008229380988,
          0.11555117976447038,
          0.04156458257978821,
          -0.08420457690205516,
          -0.017894802139384717,
          0.01600768448203792,
          -0.1117009040122381,
          -0.21729841115286044,
          0.21468618746204324,
          -0.10401799762735005,
          -0.4864275256769757,
          -0.020555362539903876,
          -0.12753180360754185,
          -0.20402420323801598,
          -0.048552605008941714,
          0.0946714123965744,
          -0.3110880315524253,
          0.14715497731444394,
          -0.011038433802401005,
          0.0650848514094609,
          0.12502969970774783,
          -0.14050325611234835,
          0.036868480845876885,
          -1.0416596268984784,
          -0.335467089446295,
          -0.10605991604613166,
          0.10039032085734435,
          -0.39418775382225324,
          -0.4528727682558656,
          -0.2464542894912675
        ],
        [
          0.2723587580184289,
          -0.24350149079705397,
          -8.156087175444632e-05,
          0.20097338216921598,
          0.24391261592435967,
          0.13278695433301407,
          -0.366514224661989,
          -0.45007105568519734,
          -0.009470545842751745,
          0.03422114730405665,
          -0.35562601938305877,
          -0.9020223607033058,
          -0.06290004060116931,
          -0.8051675463625393,
          0.07490256849555606,
          0.20619793134420247,
          -0.17196222620584495,
          -1.1813391222689775,
          -1.0187965187400654,
          -0.08487551946304092,
          -0.43700480255521734,
          -0.03196706967605569,
          0.008638072871224256,
          -0.3559881176813843,
          -0.2257546221358786,
          0.019628538352613713,
          -0.3572929424872801,
          0.03619660707059799,
          -0.014837110471351557,
          -0.1255714750689227,
          -0.02416071768458119,
          -0.0030006425052729073,
          0.090002072895753,
          -0.41752958920424627,
          0.16058546953008498,
          0.3367491624430794,
          -0.0805116434420735,
          -0.04540405459160312,
          -0.691530253125245,
          0.4790655303739403,
          -0.03592415612062034,
          -0.27955102097711915,
          0.21415668250158998,
          0.42474102873726866,
          -0.015119896772667504,
          0.3585263228338869,
          -0.03271607721264863,
          0.6300385789998381,
          0.06723687828640132,
          0.1918981677519653,
          -1.1892262639576674,
          0.31185546233618977,
          -0.15050738785480294,
          -0.3798717973580938,
          -1.5226716681912433,
          -0.20570440523966196,
          0.24287240582807298,
          0.05821676745309215,
          -1.1595181008846822,
          0.14123361774063367,
          0.26092859866100143,
          0.6317268051687855,
          0.039784057923734455,
          0.028599393993499644
        ],
        [
          0.1278834349083386,
          -0.02305467658293023,
          -0.10992692155216142,
          0.11729706922956827,
          0.3275033188865433,
          0.012031497585760475,
          0.005334417756099311,
          -0.003944265288431623,
          0.2845650464244859,
          -0.09031688318626017,
          0.22112443670592893,
          0.19530352991246772,
          -0.1286784222505692,
          -0.17594836153752844,
          -0.04367899188719708,
          0.11782805898446894,
          0.09053391908923103,
          0.015979507631169124,
          -0.2156404900003989,
          -0.17474690851927477,
          -0.09621331788576405,
          0.12949732631591618,
          -0.2422424590751401,
          0.08492768762918082,
          -0.10940308962797018,
          -0.36900121463797664,
          0.42401194386350816,
          -0.03895652800443874,
          0.01789955213277812,
          -0.10916122515833174,
          -0.048103224095947104,
          0.009938722281014042,
          0.18629401586373256,
          -0.10988011893438866,
          0.08611324894698041,
          -0.18814040038689847,
          0.09072642404830553,
          -0.8784871835958407,
          0.00678670940124387,
          0.32082134834494547,
          0.05727657611390235,
          -0.0036603184003261816,
          0.26246323279739564,
          0.4743285462128221,
          -0.20750416317247478,
          0.11700107377337612,
          -0.27249105231674886,
          -0.043726782250848896,
          0.31033250608355606,
          -0.30129353160321976,
          0.07059401496093878,
          0.011502972228425543,
          0.28646308064380605,
          0.06420389974073759,
          -0.35004466499490966,
          0.24846717657785572,
          -0.16529910185828892,
          0.229565138519073,
          0.05178746812351174,
          -0.04482274940565833,
          0.1013198346605384,
          -0.23885496542619805,
          0.003625067514166489,
          0.14211416487998707
        ],
        [
          0.027886821129114215,
          0.10926147572640772,
          0.0692374866028313,
          0.22057785597175725,
          -0.16516364944467926,
          -0.04358277861195092,
          0.02066168858848473,
          0.07896823704410522,
          -0.07087104424226696,
          0.09629362208286145,
          -0.12605492569194643,
          0.22534311535518725,
          -0.12459586466254746,
          0.017986336547084383,
          -0.1791297398744058,
          -0.022392413734272816,
          -0.19087766182659166,
          0.12187771112422724,
          -0.07809649804501025,
          0.028402400800935756,
          0.10386364254094024,
          -0.016341951491370844,
          -0.16738706823003616,
          -0.28031013142769606,
          0.3844802459149775,
          -0.1330320620261127,
          -0.15352725002472223,
          -0.12912330097833918,
          0.1890106681758591,
          0.014143172144476523,
          0.19019361424403014,
          -0.06288390219657201,
          -0.027936090192596488,
          0.005024656365515115,
          -0.07229221398741167,
          0.17820962853149497,
          0.1885550105423256,
          -0.04997213705154272,
          0.21690151693138277,
          0.11315526779350607,
          0.03445308898341841,
          0.17282964630575717,
          -0.27274665702331535,
          -0.05055166181180291,
          -0.21032435944978425,
          0.36451131446927143,
          -0.02018340147910496,
          0.41767734072486057,
          0.0859891608289553,
          -0.03798985916126126,
          -0.2815655749789466,
          -0.15324408335011291,
          0.1479170303931796,
          -0.04107672307505559,
          -0.11148706009097951,
          -0.08298354216435232,
          0.36345655493774504,
          0.3722934766535686,
          0.004766541932781803,
          -0.009586177418377051,
          0.10566602136810271,
          -0.07472067850395187,
          -0.05650316912430633,
          -0.11772636404560355
        ],
        [
          -0.03366220450244644,
          0.1940350873418546,
          -0.18352814978897125,
          -0.06833548082165376,
          -0.06126343927376897,
          -0.9717847680424369,
          -0.19794361040345088,
          0.25273588824599197,
          0.009363883601405417,
          -0.05971985334488163,
          0.018287076354727386,
          -0.7632130891929251,
          -0.05016182700869522,
          -0.07274595947162243,
          -0.03277453727481504,
          0.13078774350289124,
          -0.002973854224884048,
          0.1832540535446049,
          0.03586387555117992,
          -0.028264684767702532,
          0.039742907098991205,
          0.02504675135914841,
          0.28406885244281216,
          0.07964922153080314,
          -0.055610227475104586,
          -0.012344274241200876,
          0.22168807559028827,
          -0.23931547555479393,
          -0.15839547678443291,
          0.07003867188540062,
          -0.3878112392182599,
          0.078864896785527,
          -0.26552800786137126,
          0.8255555321566963,
          0.42623546151793523,
          0.05232612290911501,
          -0.5643688808988205,
          -0.5661231215963554,
          -0.018410059747462636,
          -0.2257299272122065,
          0.14806582062858623,
          -0.2036215636149797,
          -0.006294278625158727,
          0.09481105981361204,
          -0.17903055162713324,
          0.047642538798312206,
          0.09836556759749976,
          0.10366237436952028,
          0.12057427176215665,
          0.048107154152101,
          -0.19555341413630667,
          0.29093193837228515,
          0.005375639804695973,
          0.24458745328720646,
          0.34960830969273826,
          -0.3376061518652597,
          -0.10304697375260538,
          0.27782441835517724,
          0.2242507989235465,
          0.13580829390621718,
          -0.08433353236463133,
          -0.04140728824210578,
          -0.24110290127283363,
          0.3234301775367587
        ],
        [
          -0.05283116713721107,
          -0.11325398243916629,
          -0.09902110636891316,
          -0.18743956883646307,
          -0.1107431078539693,
          0.07215507776057889,
          -0.31953807153890873,
          -0.0960487912578222,
          -0.2906228788454863,
          -0.16952269344271895,
          0.08750523562505781,
          -0.08293891728170381,
          0.009818658112394824,
          -0.314869840670828,
          0.12480950229715893,
          0.013277363518445981,
          0.2428036050512453,
          -0.028065580089577408,
          0.06470723197720103,
          0.007338232716017544,
          -0.16980949692391828,
          0.13155946487448658,
          0.1912673107153424,
          0.089591906115546,
          -0.08484807419827624,
          -0.7895672527555588,
          -0.046709610877973165,
          0.3883955285345754,
          -0.1152346619097145,
          0.13106173560763373,
          -0.16653457676715733,
          -0.01698342131161087,
          0.6019040356548562,
          -0.3621550461640725,
          -0.21024343984857183,
          0.1318435687701917,
          0.26575896058726906,
          0.14490143356764734,
          -0.0996812787704999,
          -0.11930204065090966,
          -0.015023689116131646,
          0.07633505855735605,
          0.052104371591671986,
          -3.356679491548956e-05,
          -1.3686671044590797,
          0.04839964630725505,
          -0.012121307749900572,
          0.19232472343002863,
          -0.021555527694414486,
          -0.03280206100649313,
          -0.4787015113477144,
          0.0789471806709927,
          -1.0331504792402335,
          0.031750665523944864,
          -0.07271775467786375,
          0.39613795471387747,
          -0.18482415495251892,
          0.49927116074200323,
          -0.11724238939826274,
          0.13209048133170245,
          -0.05570735221912918,
          -0.1525900056849005,
          -0.1150836639944174,
          -0.2739895700005427
        ],
        [
          -0.050513269673943324,
          0.029272918494337143,
          0.08634066645452296,
          0.39494559361196313,
          0.2788699267414822,
          -0.07273063235759392,
          -0.046952582047568116,
          -0.044332917055617184,
          0.07750451670816051,
          -0.2510984682993772,
          0.28151180810842186,
          0.041724664150317614,
          -0.07533118958952097,
          0.21340012743861358,
          0.29317483125153376,
          -0.25526369595302545,
          -0.210794122251991,
          0.22615751892011404,
          0.11950735719856959,
          0.4033461990537302,
          -0.2786498183335325,
          0.04097354401143853,
          0.02088869834385639,
          0.04604074847394268,
          -0.09972587559203014,
          -0.1931534552511152,
          0.024558606011047746,
          -0.20677328621624866,
          -0.2412960136810692,
          -0.20178530021842273,
          -0.26134884823425963,
          0.29468118080885586,
          -0.2602344729811899,
          -0.2633602073381772,
          0.14172171176411244,
          -0.26800632107539646,
          -0.14086754216642725,
          0.06279715596996158,
          -0.03947430121468961,
          -0.11545134728252787,
          0.2698438006501692,
          0.1770267185855784,
          -0.21922354413292625,
          -0.16598107163831655,
          -0.12264973889164558,
          -0.32690578901996536,
          -0.4808445129447756,
          0.2708140971430815,
          0.05788521318637409,
          -0.002331098053747046,
          -0.07151449536446501,
          -0.0882942904694426,
          0.006140068075509941,
          0.0754579666907659,
          -0.04932895862552806,
          -0.26310937964561437,
          0.05090313026379792,
          -0.018418146150257386,
          0.15227603885319968,
          0.20038954458396038,
          0.00014464437992442764,
          0.1589736416403454,
          0.1872778195014091,
          0.0782971511638804
        ],
        [
          0.005665909727787328,
          0.09333153790638653,
          -0.12232047729209149,
          -0.31202553500277747,
          0.03623041081565081,
          0.09700057124505072,
          0.030956589371658873,
          0.015728690976950472,
          -0.22870836252653798,
          0.12921997802881816,
          -0.05028363867663885,
          0.04205995551881309,
          0.035768438129118445,
          0.11819281165023217,
          0.10295889872036412,
          -0.11600340376414782,
          -0.3485922149596782,
          -0.01303523089743006,
          -0.1448043020945759,
          0.06868291962562705,
          -0.024659296323075456,
          0.05787032229071696,
          -0.2614963085612473,
          -0.13482938399475775,
          -0.14038446366579432,
          0.03734560985123127,
          -0.19689412276168056,
          -0.10269420779533657,
          -0.1830418497678869,
          0.06101890609307255,
          0.05147566835471615,
          -0.050816554982612394,
          -0.08544661841061063,
          -0.3865237925198856,
          -0.16139483485527537,
          0.19597973794127252,
          -0.2766866684508256,
          0.23603784928518157,
          -0.08227036397459453,
          -0.7665272381291306,
          0.2381833824535437,
          0.05346939159121586,
          -0.03848183358726265,
          0.22776399652704996,
          -0.026537905371856463,
          -0.03230966363220112,
          0.07124875675946538,
          0.09803549139988295,
          0.052005607689803876,
          0.08331364071205931,
          -0.03524076851613595,
          0.09143441826536286,
          -0.13900599512153478,
          0.0457175650695286,
          -0.05966753926561554,
          0.016178002297974992,
          0.16279307627123638,
          -0.037810869405057485,
          -0.18725034086338913,
          0.2420437161333875,
          0.06599858903231462,
          -0.3928190436762482,
          -0.10659889273813566,
          -0.08490174521490537
        ],
        [
          0.26020590082598566,
          0.13863658770171605,
          0.2501851706573146,
          0.012484136594681087,
          -0.2335413602336536,
          -0.010489928911559523,
          -0.07206923114740069,
          -0.15828549476548162,
          -0.19909871839195808,
          -0.0467256039835777,
          0.06499055830445556,
          -0.02151076176585636,
          0.14790064592807234,
          -0.05528771925853575,
          0.07938290367312223,
          -0.09846393428147603,
          0.1501329627523927,
          0.3337113669624072,
          -0.20218843521372196,
          -0.23860901047475672,
          0.2775455822099417,
          0.1891330768105334,
          -0.023770614040336185,
          0.05100953481452003,
          0.027121961735520363,
          -0.10737517126343556,
          -0.08680589081824254,
          0.10904500626972068,
          0.01188138105549234,
          0.04665894026184673,
          0.13153751988675755,
          0.019274173018338257,
          0.2925213992708113,
          -0.019647222540635608,
          -0.3740230301612098,
          -0.19734632460147228,
          -0.21005656396809932,
          0.23698242117368834,
          -0.036978937571686084,
          -0.02639767757107143,
          0.11237623010408615,
          0.16910553008279602,
          -0.08754602542639518,
          -0.18145439409722106,
          0.05433808816711025,
          -0.3054799191121057,
          0.00620416311418664,
          -0.017772202550303418,
          -0.23687233358245563,
          -0.23450796985584385,
          0.03322238928519557,
          0.11435628087336981,
          0.17065754702454153,
          0.2408098017171995,
          0.07194913260773005,
          -0.016172087080008918,
          -0.2477763362141685,
          -0.37467090206310943,
          0.01468350639454148,
          -0.08633275213657017,
          -0.023342412340115047,
          0.06133438429485818,
          0.20371326950730936,
          0.20868565102679093
        ],
        [
          -0.2138177116195916,
          -0.009439987857973176,
          0.06499043933138104,
          0.18132064042339235,
          -0.0916514406001238,
          -0.03442714690039036,
          -0.1860842696410031,
          -0.12781978716231954,
          -0.125844581828704,
          0.04011250712793775,
          -0.11391447180267168,
          0.15954482884146645,
          -0.046184680113704364,
          -0.018706833400040136,
          0.2834907118622193,
          0.009731280480276085,
          0.10176400225050918,
          0.19521408439339982,
          -0.020478905721691518,
          -0.029408593292540565,
          -0.11589952087408834,
          0.08669174062700606,
          -0.06853091952900874,
          -0.14427656066501496,
          0.16484733398850474,
          -0.044894737455776774,
          -0.013722663426063287,
          -0.14094363567183973,
          -0.21748472416627715,
          0.08068715066969666,
          -0.01921642617926115,
          -0.015123299957801147,
          -0.14541786370761722,
          0.15571380260939482,
          -1.121570743689024,
          -0.1724864607578274,
          0.054150381415907944,
          -0.026392230699591374,
          -0.0182800968946586,
          -0.03729945494549962,
          -0.1077639638719439,
          -0.26609608381919325,
          0.03783941045284879,
          0.029263455890668873,
          -0.1806902247808258,
          -0.08253594141400374,
          -0.03069560174858375,
          -0.0018165628424547857,
          0.04993799809040918,
          -0.13277415920978944,
          0.1627807300830333,
          -0.08132458187252456,
          -0.05602599390927668,
          -0.06244744845258182,
          0.03582005325776834,
          -0.46959654224914543,
          0.10991924041560992,
          -0.17392486589233191,
          0.06791400227009045,
          -0.28701056906843875,
          0.0587525675852169,
          -0.18799672791352842,
          0.9326697429388716,
          -0.2990830419695848
        ],
        [
          -0.012738226526626388,
          0.22512439571064213,
          -0.9890620274265295,
          0.18282101122844005,
          0.049176271100344095,
          -0.005801696951380715,
          -0.04023506532380672,
          -0.12427568751779479,
          0.06396234675925279,
          -0.2189628498332884,
          0.02569942635539779,
          -0.2961676732532272,
          0.09524671045924123,
          0.24771904600672887,
          -0.12106099192123235,
          0.25308603682506564,
          -0.20662584175612236,
          0.004079751596517193,
          -0.600550800274645,
          -0.1263211502700477,
          -0.16317280046579302,
          0.1537171281533603,
          -0.15008703290463243,
          -0.7696950269187395,
          -0.8357336343464606,
          -0.2856910761938532,
          -0.8171225428321466,
          -0.1623007292612342,
          -0.18865345542826928,
          -0.05447980744598298,
          -0.49697046261988165,
          -0.07079908013789868,
          -0.03428393286355134,
          -0.29618539851365006,
          0.13051232923188422,
          -0.16969231589204464,
          0.03941670875766945,
          0.6823967495325513,
          -0.7067527364340395,
          0.1344676570614868,
          0.010814875349821642,
          0.2696575246835251,
          -1.0473676915624663,
          0.35049423493849063,
          0.3178802378635706,
          0.012939902128369903,
          -0.047568854383753696,
          0.17007757484510627,
          0.10780715283077628,
          0.14659331880376672,
          -0.4236784668411945,
          0.07400278371657387,
          -0.3398186074273244,
          -0.24532295228206008,
          -0.1732904418693697,
          -0.2786391267097084,
          0.19573997781519045,
          -0.03412135473033461,
          -0.04969137686663043,
          0.08861897922904738,
          -0.028315342791130797,
          0.2718481447849931,
          -0.20506622539084632,
          -0.22015197092698874
        ],
        [
          0.1739434400147173,
          0.3507758171523348,
          0.10360037062138537,
          0.34667957493039203,
          0.2083045617405031,
          -0.462814774225216,
          -0.16750933287345274,
          -0.10886522957805801,
          0.08771478737631244,
          0.07881900086714333,
          -0.1331665446978532,
          0.3914003296448296,
          -0.09579611787013631,
          0.3385431558684474,
          0.23244510309727195,
          -0.07311511202685614,
          0.08353989502942459,
          0.3192363015700474,
          0.21382185001654314,
          0.017970033911502193,
          0.21319144276824734,
          0.1304061070538004,
          0.1830510998580722,
          0.24352886585599928,
          0.13115227970383522,
          -0.0796290015338584,
          -0.24663605801845787,
          -0.15095800514824673,
          0.20151994941788862,
          -0.010865973265108516,
          -0.02836302731432054,
          -0.015869474286164385,
          -0.007958684564449732,
          0.05717171164766792,
          0.24349947974149644,
          0.05426573830221239,
          -0.1151466336173857,
          -0.06258655587332183,
          0.023924322834736604,
          -0.3940337131065083,
          0.016579155313568267,
          -0.04953449335817655,
          0.09808517135130214,
          -0.026379546005961853,
          -0.14251761520974404,
          0.09198903126748155,
          -0.05222594401732485,
          -0.13452358363462788,
          0.09888396318861102,
          0.3221688829901319,
          0.07333595159216343,
          0.10629795411654397,
          0.13238560171397412,
          -0.051051373399416095,
          0.34871824595634154,
          -0.22240550872272585,
          -0.0007660366596932696,
          0.025201120366777467,
          -0.280892466056465,
          0.21465938906353,
          -0.5144171107656751,
          0.22637438481640362,
          0.15733621397576117,
          -0.10804935201974995
        ],
        [
          0.14553554489774864,
          -0.05196615213619285,
          0.07702632961802443,
          -0.14382773037857002,
          0.04962735880607479,
          -0.02902014788874953,
          -0.11696672657009656,
          0.13865266244863747,
          0.08043425034777,
          0.0604174959970679,
          0.17189632809775865,
          -0.2959048773147455,
          -0.03361553143202447,
          0.3140022666640945,
          -0.27151139763733145,
          0.0297914614552084,
          0.08024814611896601,
          0.06585324431254785,
          -0.311957428175283,
          -1.010212163867975,
          0.014265926625347754,
          -0.09442846079144573,
          0.05715813465477265,
          -0.10513786391499017,
          -0.09269964655907523,
          -0.8120110592844265,
          0.12920587365948852,
          0.09320881420445577,
          0.2860479787054546,
          -0.19691514009740796,
          0.03548948104098194,
          -0.931146691838025,
          0.13604013757436914,
          -0.21323493595998153,
          0.10827996080886308,
          0.2724796106951219,
          -0.048973891150337116,
          -0.645556590871475,
          -0.29181670597699744,
          -0.08795080912199274,
          -0.30802880258105986,
          0.12525420910737692,
          0.07876428443244056,
          0.10973214441436614,
          -0.14127561834345173,
          0.0157606957396423,
          -1.1454168373087008,
          -0.42589415791637625,
          0.031130295793353333,
          0.0703661856905282,
          0.1315689192461373,
          -0.0954587743545584,
          -0.2278182480945314,
          -0.03177067183759693,
          -0.10925498291138504,
          -0.32714706479282446,
          0.16605610474325166,
          0.05535898545436308,
          -0.1583523966536616,
          -0.2234117942713105,
          0.08128995717503018,
          0.026077989020094717,
          -0.3487000802932661,
          -0.32727791122575817
        ],
        [
          0.06594527055512252,
          -0.12831722243104998,
          0.34279741556081117,
          -0.0008369750628300874,
          -0.015620953689106765,
          0.02097487284516433,
          -0.2279563769396635,
          0.038311546298370386,
          0.06620345993556476,
          -0.17391072642144523,
          0.02277582249772502,
          0.21295489515125998,
          0.11481935324328493,
          0.04329095674601116,
          0.012640279864582746,
          -0.0034495310291853317,
          0.07145415503802229,
          -0.1362991957607001,
          0.14914742648543586,
          -0.0299521550057747,
          0.14207261056764894,
          0.08493823705071897,
          -0.1854493599137527,
          -0.05701848996373331,
          -0.10782737155894179,
          0.007039457681154057,
          0.13492743777448094,
          0.33093644535151573,
          0.09431395733249603,
          -0.049288945303051744,
          0.006173937080788105,
          -0.0179973082284069,
          -0.1076034147278613,
          0.14027224012095058,
          0.20229455184665276,
          0.33228822015518455,
          0.0715439852866408,
          0.04993724037679408,
          -0.0021258537496527704,
          -0.01405109873932445,
          -0.10691936135038303,
          -0.2408051033922689,
          0.011908306549569175,
          -0.3113443166659559,
          -0.3053576447343104,
          -1.2974452813716009,
          -0.0640253209135418,
          -0.05257142460916286,
          -0.0012560725811115653,
          0.7004476667967839,
          -0.059030230948935634,
          0.19720881925065809,
          -0.04368060910202559,
          0.07529393937517452,
          -0.12644236479693097,
          -0.36228774682513587,
          0.056954934619651586,
          0.3166509768111197,
          -0.10721594686467077,
          0.002369553059692702,
          0.06992265349235595,
          -0.013079061581838506,
          -0.27162252868314246,
          -0.016319163169049803
        ]
      ],
      "b": [
        -0.06840658869987547,
        -0.056957596761204904,
        -0.00040056354183015805,
        0.015530181529326895,
        0.3757793532724514,
        -0.11702883097297086,
        0.2429432412943885,
        -0.48394789153971784,
        0.553759428888321,
        -0.20523761931892018,
        0.2651027619089266,
        -0.05063562109151463,
        0.5525613381889838,
        0.20532220481892843,
        -0.08091575886711463,
        0.4136169811723419,
        0.2701680975663896,
        0.013006008175797374,
        0.31609734752287655,
        -0.10089785673630314,
        -0.11384050907749041,
        -0.028763010109211264,
        -0.08768208213736858,
        0.32424571228316573,
        0.032700050737062655,
        0.0978340707860444,
        0.33204644662532945,
        0.14980479846272426,
        0.03601081924598607,
        -0.05906360600703817,
        -0.03808266667839917,
        0.42423962984110175
      ],
      "activation": "relu"
    },
    {
      "W": [
        [
          -0.20741834803687337,
          0.48136027963834016,
          0.17560398522940654,
          -0.445030204435954,
          0.2437631239887359,
          -0.18589562001062804,
          0.06339821192338241,
          -0.2443304847232745,
          0.2228201645629355,
          -0.13977360881581585,
          0.14104091461522672,
          -0.04427550534245407,
          0.20250644999916212,
          0.1459094712341639,
          -0.15894300513423373,
          0.20619575545978558,
          0.19216341598552886,
          -0.07686235984678606,
          -0.48397303982056294,
          -0.2111663284702962,
          -0.12543279588052417,
          -0.12085635066376935,
          -0.13149258182374146,
          -0.3202559455054826,
          0.0453656367401529,
          0.23689571781351806,
          0.17147111740256554,
          0.24169822914106828,
          0.29652922221003475,
          -0.12800054796810664,
          -0.49672015533566033,
          -0.2056842374868467
        ]
      ],
      "b": [
        0.15428437409170762
      ],
      "activation": "linear"
    }
  ],
  "r2": 0.9823894166978849,
  "rmse": 0.13971678600637047,
  "loo_r2": 0.9701530199472612,
  "n_obs": 2228
}