{
  "name": "MLP (2 hidden (64, 32), log_si+prev_lr)",
  "features": [
    "delta_fs",
    "fs",
    "n_back",
    "e_bag",
    "fs_nb",
    "nb_eb",
    "eb_sq",
    "nb_sq",
    "fs_eb",
    "log_si",
    "prev_log_ratio"
  ],
  "input_mean": [
    -0.11840796019900497,
    12.6636815920398,
    2.555223880597015,
    3.354228855721393,
    32.12139303482587,
    8.639800995024876,
    14.140298507462687,
    7.635820895522388,
    44.635820895522386,
    15.38659896715777,
    0.18625719977624558
  ],
  "input_std": [
    0.8504663354873794,
    1.890622150912721,
    1.0519751972119495,
    1.6998374307293747,
    13.872310013985796,
    5.885948184451573,
    12.281572893840357,
    5.621273597988624,
    24.867263750072762,
    5.1906263091839255,
    0.99823581615202
  ],
  "layers": [
    {
      "W": [
        [
          -0.00012511144447537712,
          -0.11278691603230967,
          0.23306411813029904,
          -0.025961450609138306,
          -0.28243102902093964,
          0.08755294885500794,
          0.4587355604760649,
          0.4381496201977036,
          -0.37095853074724877,
          -0.49974506342138986,
          -0.28170885813094154
        ],
        [
          0.16100617911712026,
          -0.9247008329973964,
          -0.06926618022888542,
          -0.3662557952807214,
          -0.2457350089493637,
          -0.050571394483760905,
          0.016854815867129284,
          0.18368409367377264,
          0.560833905868385,
          0.21731188305467627,
          0.7021872516942673
        ],
        [
          -0.2737240733793293,
          -0.08849969408874149,
          0.3642610812051567,
          0.057252236213674465,
          -0.3441621247471907,
          -0.41979473811762597,
          0.007707679963733191,
          0.2199274842139789,
          -0.4668651541564361,
          0.2634709432504176,
          0.3626796453333659
        ],
        [
          0.0667458385789387,
          -0.044883124205954764,
          0.29308861820118004,
          -0.3563878414973911,
          0.08468866008049789,
          0.34543844412241204,
          0.4739490895761327,
          -0.51041699251168,
          0.5145828221632582,
          0.5531217756130198,
          0.45420934228534793
        ],
        [
          -0.2176080816219159,
          -0.18758507895753246,
          0.45354422567893105,
          0.671894770625505,
          0.5921940461904256,
          0.3148019557185762,
          -0.06358810365026546,
          -0.6750371992356926,
          -0.19006838384406935,
          0.040433772940922305,
          -0.6418038957004379
        ],
        [
          0.37801731865579413,
          0.23299992092523883,
          0.20404944376292286,
          -0.4469226432867622,
          -0.23032850635856322,
          0.011165005214832322,
          -0.2026367074484372,
          0.6297940239982334,
          -0.094584274067805,
          0.17148208943982918,
          0.02226342776958721
        ],
        [
          1.0156761734127162,
          0.14394404615430895,
          0.6103366127485919,
          -1.0931930382227302,
          0.1759599883153698,
          -0.05745165772902379,
          0.3134629373655344,
          -0.3190718115148826,
          0.5991847054286064,
          -0.06476230432964009,
          -0.2500858625027018
        ],
        [
          0.3526162446857516,
          -0.09654842596519903,
          0.8826513718635932,
          0.23090817402033062,
          -0.2396574192508788,
          0.10531284478678893,
          -0.537123342331455,
          -0.5722344682727701,
          0.28708555394617,
          0.3407104327898066,
          0.5218700696593562
        ],
        [
          -0.28695350161099215,
          0.8464690947604937,
          -0.09138607555495153,
          0.6278624650924594,
          -0.11025102932157003,
          -0.25617917858917133,
          -0.11109469150451551,
          0.45041743393217704,
          0.15466741470411477,
          -0.38452376825496326,
          -0.6600772167301805
        ],
        [
          -0.2826267126042365,
          0.7074503241561072,
          0.49900774544310256,
          -0.15923143945620097,
          -0.30292594140543183,
          0.1714773628522421,
          -0.5242063322434967,
          -0.25579892780043645,
          0.3421295613325353,
          -1.0591464982881726,
          -0.016753154730180388
        ],
        [
          -0.3269835111677535,
          -0.29712367894314623,
          -0.17510041588091613,
          0.031272459431607676,
          0.16625391401330306,
          -0.35751318056353876,
          0.533692476550855,
          0.11906112007062683,
          0.19956980140020653,
          0.7941707373693728,
          0.17296769509675258
        ],
        [
          0.14711056010176835,
          0.13325888448803863,
          -0.2707592086817599,
          0.046705259158847455,
          -0.044233943838937625,
          -0.4306669005548492,
          0.19135512040388664,
          0.11370708546178972,
          -0.32029894613987764,
          -0.34705103287919076,
          -0.09129659415358535
        ],
        [
          -0.011501107850010432,
          0.6106632702116905,
          -0.13439796994625466,
          0.4279634962500754,
          0.541590030310364,
          0.4745697191916098,
          -1.03927416777727,
          0.4010264317878214,
          0.07085173797429509,
          0.22699342426491836,
          0.025192438029606627
        ],
        [
          -0.01827136935313054,
          0.27432260414511916,
          -0.23436957918912718,
          -0.6525145490663162,
          -0.031630104837869946,
          -0.16548266229372652,
          0.594967021768415,
          0.13320391277662527,
          0.22966322210041157,
          -0.20153873050577603,
          0.09404764507159295
        ],
        [
          -0.11586764748101111,
          -0.4161264927534615,
          0.2585633833183001,
          0.11816188517597173,
          -0.33932195798147796,
          -0.7664762084439881,
          0.3753569067677646,
          0.006316683127861904,
          -0.04319452320766439,
          0.08535058309414353,
          0.9917949656852466
        ],
        [
          -0.11808093440749338,
          -0.08540006143737798,
          -0.7195510598634242,
          0.48240100886076154,
          0.30664744506201175,
          0.31186159090525023,
          -0.17121217113618992,
          0.34515943163391954,
          -0.02875084554909258,
          0.47586900012572025,
          -0.07832310253579514
        ],
        [
          -0.8704891238306689,
          0.16730216859476488,
          -0.86618279898053,
          0.012596909336074644,
          -0.1278537803091453,
          0.19310303010357416,
          0.07722828454433361,
          0.07342468213557983,
          -0.3165818670072848,
          0.2636647076963127,
          -0.026200031048942727
        ],
        [
          0.7572455267545961,
          0.3053249158194549,
          -0.08966497630472764,
          -0.8821897429569185,
          -0.4193530515812161,
          0.3456768152482397,
          -0.05347194975182317,
          -0.22074585303973035,
          0.7119043847351193,
          -0.3258309140751762,
          -0.16919938278872185
        ],
        [
          -0.3524121538138493,
          0.27186364446325967,
          -0.1618872923590587,
          -0.3522123674570366,
          -0.5878554991123206,
          0.2771286920523425,
          0.1784738836740613,
          0.008504765332891915,
          0.025161339742845484,
          -0.41361663939464777,
          -0.038432650757722495
        ],
        [
          0.5579390278346579,
          0.3137621185506541,
          0.9079362790799834,
          -0.26599841939400737,
          0.33562732444226356,
          0.11428832874764476,
          0.18873926742291225,
          -0.2965913187618873,
          -0.1346848281210698,
          -0.7478600735417592,
          1.2704667019293476
        ],
        [
          -0.03593133308983712,
          -0.8559855747059032,
          -0.3869517165098802,
          0.25970561341182563,
          -0.25741989837797047,
          0.5528416488421208,
          0.27123106469933733,
          -0.10386950481387124,
          -0.29333250769364594,
          0.010293884797865903,
          -0.07349469453727357
        ],
        [
          -0.7280160583582527,
          0.5650584160469442,
          0.7505693934379989,
          -0.3253033695774983,
          -0.11248360618926843,
          -0.3686759778125567,
          -0.138211971938884,
          -1.1871465312019516,
          -0.293753459000008,
          0.5390490071145096,
          0.09576653449752383
        ],
        [
          0.5004813184551586,
          -0.36961793787779534,
          0.7240153606970657,
          0.09121572976323031,
          -0.23589647615223058,
          0.7541679745573382,
          -0.1748580674654229,
          -0.4989599892573552,
          0.13744507866501596,
          -0.17614157483824264,
          0.15929481471529958
        ],
        [
          -0.22171045090222935,
          0.30698100399793077,
          0.55583590868295,
          -0.26041461073176886,
          0.2150242318539285,
          -0.1964006320932752,
          0.9134516975241117,
          -0.2938285782842097,
          -0.1971930739890732,
          -1.0542911219001028,
          0.06628789610076828
        ],
        [
          -0.101248833990689,
          0.3786007347084204,
          -0.30936881553610995,
          -0.15567742410708907,
          -0.6369089234810572,
          -0.2372411299251875,
          1.1138944999277787,
          0.5837633714180562,
          -0.2912385438657081,
          -0.5334411587341037,
          -0.08713881975213654
        ],
        [
          -0.18311768956981112,
          0.29547969561754406,
          -0.12668508622577002,
          -0.3223341509105287,
          0.7491362290163313,
          0.35763578444590466,
          -0.08613602113630071,
          -0.21631834343922077,
          -0.04321600338108132,
          -1.3592775716444163,
          -0.03507560362370873
        ],
        [
          -0.4928229945518286,
          -0.48947301841332247,
          -0.2542341491116477,
          0.39586401599763005,
          -0.5241300434915278,
          -0.45705683810811815,
          0.18903884614800928,
          0.3569607516858013,
          -0.39469645556785476,
          0.39529078292099645,
          -0.20939589933575636
        ],
        [
          -0.1947855014284832,
          -0.49622102181264094,
          0.15652920219824532,
          0.8170365791061082,
          0.09647332327205216,
          0.2050987510602796,
          -1.4332861112519744,
          -0.11463705536925128,
          0.23585976254470736,
          0.11267145290754615,
          -0.13815430695268963
        ],
        [
          -0.12531529361524085,
          0.17220897695423287,
          -0.07117182928633323,
          -0.1940521723991545,
          0.5395157044692808,
          -0.42007474830457125,
          0.44524243770030386,
          0.14801457993054995,
          -0.34870340771609526,
          0.07383917732881075,
          -0.35788374684409147
        ],
        [
          0.32536503070850376,
          0.41416629782075887,
          -0.06434131615820687,
          -0.5168395614190405,
          0.36859718520677853,
          0.341959885836547,
          -0.09654709922277875,
          -0.20123765649489891,
          -0.19265489644980036,
          0.1134647162835755,
          0.0634978546748398
        ],
        [
          0.2733641831503627,
          -0.5413620885166717,
          0.1914193850584946,
          0.1113454196201452,
          0.029527748456377758,
          -0.050796480115357444,
          0.22915017690906844,
          -0.586712887785278,
          0.6533828984264652,
          -0.5578877728842951,
          -0.3426837801845774
        ],
        [
          -0.1670063432936681,
          0.7481381216602276,
          0.09446449952946596,
          0.031273028773909674,
          -0.5264529054977766,
          0.24486089214687978,
          -0.19802505272211723,
          0.48741543381770536,
          0.34635030731927036,
          -0.6075783216852841,
          0.576150929902884
        ],
        [
          -0.27307761785876705,
          -0.4261777990580758,
          0.31472481587253054,
          0.09327488452472453,
          -0.34278738645964324,
          -0.027898378448573465,
          0.35644262908691954,
          0.08004109124339855,
          -0.5790153102341997,
          1.2552447385398513,
          0.13021467718245663
        ],
        [
          -0.5117824338103731,
          -0.3408620196821642,
          -0.6639923110731045,
          0.1419852789111302,
          -0.4468549853423146,
          -0.012612251345778267,
          0.27291994841946,
          0.013656164822390763,
          -0.21198782727396906,
          0.2890454352826628,
          0.43084497976365194
        ],
        [
          -0.5247714979575149,
          -0.4020480908223494,
          0.35287771559080033,
          0.5496165096615873,
          -0.09000368047568064,
          0.39689716772884315,
          -0.3257895006948238,
          -0.8360896478264466,
          -0.19494851619435324,
          0.511327519431908,
          -0.07279381531228495
        ],
        [
          -0.247823865439026,
          -0.5138585958988249,
          -0.17566812659598116,
          -0.10431927116362039,
          0.16377511623178967,
          0.4807396081425196,
          0.09128193362135091,
          -0.03471497433526894,
          -0.12780812606704964,
          0.23179663613501136,
          -0.02129825622707887
        ],
        [
          0.545185189270113,
          -0.5492855848068161,
          0.18802532374040812,
          0.3168586691989094,
          -0.2427449241763725,
          0.3203520590938212,
          -0.36751150908569463,
          0.9645605149475874,
          -0.44244060684547204,
          0.7827353429076848,
          -0.4332635958509681
        ],
        [
          0.45099725696388177,
          -0.3445266945367763,
          0.35085734591902096,
          0.2437866945441086,
          0.6278930151504346,
          0.014752347205828298,
          -0.9590672175607992,
          -0.5738628622758699,
          0.3881475972666505,
          -0.03696700773035465,
          0.005575438245388999
        ],
        [
          0.4230058468812352,
          0.30079835405016386,
          -0.7910697499456817,
          0.3892165944391891,
          0.4144243437261704,
          -0.26576100246772466,
          0.4963097128491625,
          -0.006120762758595828,
          -0.6307445275338185,
          0.16802934568320513,
          0.7832412222055497
        ],
        [
          -0.5342194801408305,
          0.6445953461913847,
          -0.2706711116054676,
          0.17086818361539616,
          0.2972927988920235,
          -0.13871011379402476,
          0.1822957083929615,
          -0.34539750403920066,
          0.3993282053597342,
          0.04833192490868456,
          -0.11146916237638972
        ],
        [
          0.5331636829708882,
          0.35887790008252235,
          0.2530558685628341,
          0.6589871312881381,
          0.4529254460915901,
          0.27051832911562357,
          -0.5087338818283914,
          -0.23216204619687147,
          0.08853679658688325,
          -0.27366159908664495,
          0.0012013933602699756
        ],
        [
          0.1570433376721738,
          0.33880578421456736,
          0.0897821592660295,
          -0.0772096448414833,
          -0.3336391286261892,
          -0.39099467142300137,
          0.43582015935919527,
          0.014290907410256935,
          0.4156176447980178,
          -0.2193877499184786,
          -0.8022387584191878
        ],
        [
          -0.5497908998633513,
          0.5625958575905559,
          0.5028005699639069,
          0.24440842436846422,
          -0.21689807741239517,
          0.05071590523468183,
          -0.04319967085438127,
          -0.20631404479418147,
          -0.9376817246247799,
          -0.056362159161038275,
          -0.05851091484247942
        ],
        [
          0.8529655483978312,
          0.02132462351253186,
          0.804580089782604,
          0.07521052535058848,
          0.07870509560530255,
          -1.3539979168368714,
          0.1466005864318244,
          0.057653676215373824,
          0.9014835960482062,
          -0.23722050433286423,
          -0.01594180561571961
        ],
        [
          -0.5073864158352777,
          -0.9226127388394353,
          -0.12220688861988878,
          0.03757614315605522,
          0.551740192616653,
          0.05458810539469983,
          -0.1906707325312264,
          -0.014269618039283132,
          0.018054634112627966,
          -0.16896124981474828,
          0.6494034531368775
        ],
        [
          -1.1678108300838168,
          -0.2524257719866971,
          0.47078972691332754,
          -0.22579476173827104,
          0.03775631225772418,
          0.4992624074442649,
          -0.10257930869132911,
          -0.5810020843285395,
          -0.33393973936452714,
          0.8037707104857553,
          -0.010256972087360297
        ],
        [
          0.1706769416168949,
          0.396684862168751,
          0.4828207366773705,
          -0.4579378508308723,
          0.11060021552055656,
          0.1485452300768212,
          -0.1969982778685935,
          -0.14508772281900645,
          0.44843081519643846,
          -0.5996690998194221,
          0.9204300492291242
        ],
        [
          0.9531465938381294,
          -0.9853386098299276,
          0.23591263510364177,
          0.4040122515171826,
          -0.23101219465101788,
          -0.18855952276769622,
          -0.007446226894480971,
          0.4808594371582287,
          -0.1921142455094707,
          0.7993631408398915,
          0.15180220830246569
        ],
        [
          0.3221871833465891,
          0.5991938209408023,
          0.43396008800637026,
          0.07610734878352228,
          -0.08082417603727426,
          0.5989396939523313,
          0.22379691536424953,
          0.06526287899343822,
          -0.7997738973858964,
          0.08714883268105238,
          -0.3963216615460299
        ],
        [
          -0.8028063598803882,
          -0.30978787814728664,
          0.1320419218516121,
          0.49590057677846366,
          0.08279196369400396,
          0.2846683447220145,
          -0.5247217249767749,
          -0.33973315312617564,
          -0.03391756612351194,
          0.34073925118120185,
          -0.12808408927821963
        ],
        [
          0.1968529844912968,
          -0.2346290272426218,
          0.27924272192582966,
          0.14300709244451573,
          -0.39652676521050206,
          0.15049563867088997,
          -0.2136496033509392,
          -0.7370062216445181,
          0.3407863848739294,
          -0.06635140376187168,
          -0.09316463313376215
        ],
        [
          -0.1234810745663726,
          0.1320275866809294,
          0.2982979899306332,
          -0.05822727372746365,
          0.02582598508999921,
          0.40351551895766247,
          0.28523402603697784,
          0.15709116017428157,
          -0.19565289180974788,
          0.14593189425949096,
          0.27622611631222677
        ],
        [
          0.680330545353357,
          -0.38184323164796513,
          -0.09152510602606712,
          0.49497062101857225,
          0.12030923134644211,
          -0.11282388999569008,
          -0.0949816102808933,
          -0.2589859137882053,
          0.5106969606994953,
          -0.4962542756181759,
          -0.04080739856720992
        ],
        [
          -0.0867171737056951,
          -0.17965551473892236,
          -0.3183143358171969,
          -0.22247033432310848,
          0.17125011233689183,
          -0.2497943692225847,
          0.378814993088202,
          -0.555348668966323,
          -0.25243087918785423,
          0.1367802004114986,
          -0.2574522897055925
        ],
        [
          0.3737227614898987,
          -0.010445643872894188,
          -0.36333853733197746,
          -0.5973356389341774,
          -0.5656011753482836,
          0.18960283325697982,
          -0.2677638620707943,
          -0.28560283354124666,
          0.03804296198227515,
          1.0383666482319989,
          0.12938984682307775
        ],
        [
          0.5255015878041255,
          0.009660205401637647,
          0.479114168562737,
          -0.45605763985389863,
          -0.16225600817217728,
          0.09830412065031564,
          0.024965581175087452,
          -0.16829780372076764,
          -0.3240004268130333,
          -0.01616952900019455,
          -0.03566916288649698
        ],
        [
          -0.9888680763515707,
          -0.4860331652371781,
          -0.066098470438826,
          0.574476126709413,
          0.47886790776971566,
          -0.1399370411303777,
          0.28007527536064974,
          0.12301618674527073,
          -0.3880380344087404,
          -0.5120207987180556,
          -0.18333701179800996
        ],
        [
          -1.347289574880951,
          -0.5557180874844231,
          -0.022242821868709153,
          -0.4689607548484595,
          -0.37675572478293873,
          0.28701231102140046,
          0.13802895853284053,
          0.07598126897160644,
          0.28430478739169274,
          1.2952326365438613,
          -0.041779676195541064
        ],
        [
          0.3394012025990733,
          0.20753576755510034,
          0.0661140491802713,
          0.009041521974621493,
          0.10327012936590689,
          -0.22033279229747083,
          -0.38206396530108216,
          -0.8024188382475427,
          -0.016862974366330396,
          -0.3912390614622252,
          0.04343356614717761
        ],
        [
          0.7576325199654083,
          -0.3911579281391593,
          -0.11951638501907157,
          0.5380382650427252,
          0.31832146485537466,
          0.3450472752047053,
          -0.31510299047272883,
          0.23406784586845814,
          -0.34753664416011043,
          -0.09417138419305343,
          0.32001098552495727
        ],
        [
          -0.4752866399708095,
          0.09143668273360223,
          0.8794752555996106,
          -0.4583172705650997,
          -0.549274477772113,
          0.4324069521583673,
          0.048606723714462535,
          0.39358752976414635,
          -0.3834628680696325,
          0.7788304446018692,
          -0.2574841345467702
        ],
        [
          0.0937848379103145,
          0.22508810016271727,
          -0.6888760095930898,
          -0.4976629974866809,
          0.4927299855896462,
          0.05722474836180737,
          0.09079660540018804,
          -0.1561272604451962,
          0.12511244832065574,
          -0.3637535972000423,
          -0.3816509279548356
        ],
        [
          0.36364050036825496,
          0.06191112738381662,
          0.5285846210108267,
          -0.1312925758728616,
          0.6956183695971228,
          0.04730908256484045,
          0.22667130604871377,
          -0.17651454929612412,
          -0.3149519559919376,
          -1.1023592453261328,
          -0.048829307493403834
        ],
        [
          0.3671010252781479,
          0.3290988755448662,
          -0.10465836830314763,
          0.009149675553305746,
          0.40548575366692147,
          -0.07902315797088913,
          -0.5856960664558927,
          0.21332014884888328,
          0.1478952238515046,
          -1.1239345799214753,
          -0.11055634462898452
        ]
      ],
      "b": [
        -0.13002800999413858,
        -0.23317918859414116,
        -0.31719347790649166,
        -0.22049729011721422,
        -0.1889136446632366,
        -0.017649970079386904,
        -0.2019413574196126,
        -0.1318719862170721,
        -0.5716334204790894,
        0.349216314547947,
        -0.26818388847016544,
        -0.13897359655947208,
        -0.36564776680545535,
        -0.3589379362550604,
        -0.26075595040484423,
        -0.2701093288977658,
        0.002817638659324979,
        0.14444345540363768,
        -0.4157528778330022,
        0.07097838046028436,
        -0.14169792053317834,
        -0.40735566555298425,
        -0.24355200107697875,
        -0.5192777019571615,
        -0.40815496009290747,
        -0.38023056916928766,
        -0.3160931498060979,
        -0.20673983340728266,
        -0.07643056465595247,
        -0.02390115283800571,
        -0.34389911870322776,
        -0.0005652188364766327,
        -0.4736486326242634,
        -0.1278441272378919,
        -0.09683133423880538,
        -0.21698125971803617,
        -0.2899522213301139,
        0.014624031421879648,
        -0.15085056511458092,
        -0.3834931567763688,
        -0.2339174675415658,
        -0.08901073914425055,
        -0.14415631894968395,
        0.034787757601699,
        -0.4536773704991675,
        -0.21956659235111653,
        0.0690480462107378,
        -0.2626719899516058,
        -0.011287896001019123,
        0.09433107454501938,
        -0.07549745830550654,
        -0.3433147909921584,
        -0.1676807308966204,
        -0.22922130719865255,
        -0.44617131918183595,
        -0.19581876377785118,
        -0.2169089733015869,
        0.02748059939187852,
        -0.2491462668976623,
        0.06204380640380442,
        -0.21221680941922946,
        -0.09361969011317967,
        -0.5187215615812311,
        0.12706543418063146
      ],
      "activation": "relu"
    },
    {
      "W": [
        [
          0.02023626556790784,
          0.039313156703982034,
          -0.07402921000176191,
          -0.16709588005045334,
          -0.07956592125957951,
          -0.05374523913947862,
          -0.02429944488302766,
          0.11846865738405522,
          0.11492931594398685,
          -0.5972466130489976,
          -0.23739058115377162,
          -0.2925905995228756,
          0.07772583661689715,
          0.11138034479480263,
          0.004942561953316736,
          -0.005794375550332946,
          -0.09288123867817227,
          0.025384210342181624,
          -0.061221161489941674,
          -0.06665788130122276,
          0.026731308816225336,
          -0.040633723369617715,
          -0.12480500336058795,
          -0.5162982704272507,
          0.21491683200232295,
          -0.2364145827654767,
          -0.07724620703891547,
          -0.09802337399746182,
          -0.28891372526029163,
          0.13306715978263212,
          -0.07381162520096532,
          -0.16771303989137507,
          -0.5291422029596808,
          -0.10200300866393028,
          -0.17346547311854515,
          -0.3385936142950103,
          -0.2091447070819929,
          0.11401080669133488,
          0.02252562392639561,
          -0.21675978598717,
          -0.061861410846312075,
          -0.0669915836143705,
          -0.1463650741653752,
          -0.16857837010439813,
          -0.02481701066949124,
          -0.03900264363520939,
          -0.03791450045372016,
          0.07980306161920844,
          0.059947102215984364,
          -0.08359486371195315,
          0.18370164166597394,
          0.09018412948340421,
          -0.0025158686000902584,
          0.2632012504329788,
          -0.02661368232152833,
          0.10256367934618446,
          -0.07812936627409618,
          0.5052275510246241,
          -0.027120038581110846,
          -0.044729555107736275,
          0.43879687396419237,
          0.00683143110556551,
          0.023201565114803046,
          -0.09591736542217266
        ],
        [
          -0.23494183971921562,
          0.1340642519783211,
          0.11478664050808066,
          0.0587554800673289,
          -0.1151279107712711,
          0.1525185685457664,
          0.01759075782359505,
          -0.1546875835312094,
          -0.021393247891625167,
          0.029333628407716358,
          -0.3393570405212351,
          0.26944800360292553,
          -0.06537528060163834,
          -0.32769048904159304,
          -0.02280291664081509,
          0.0698627787090761,
          -0.2118199115690201,
          -0.04768143016339382,
          0.015267562858417284,
          -0.09522041301650438,
          -0.11928234818068496,
          -0.12226902276662586,
          0.07856484441405207,
          0.13126996065647797,
          -0.18915230048387197,
          0.03158383157028579,
          -0.07688358587219507,
          -0.10030114520919561,
          0.0743842566622305,
          0.036294001950080985,
          -0.08703812155661121,
          -0.0075465706999301016,
          -0.030392561394098034,
          -0.036904080887749054,
          -0.4042968663030066,
          -0.0921830150325736,
          -0.05008240837997697,
          -0.08369427471278088,
          -0.02741374892843562,
          -0.027088765439804943,
          0.017208779476844065,
          0.0016244833831906976,
          0.14130727860772038,
          -0.013457258862384589,
          0.3559568248865947,
          -0.04569104203883149,
          0.030722812754218513,
          -0.2919164760104115,
          -0.2055348544106677,
          -0.1935817319605433,
          0.14388686335600967,
          0.1040594990003326,
          0.2202854407048875,
          -0.14209319960741001,
          -0.05642307821081702,
          -0.010096869146674901,
          0.018878747666241855,
          -0.0032322383989066214,
          0.0014332987736074443,
          -0.02166128305976599,
          -0.06663638937068016,
          -0.02242912185965729,
          -0.001376323486659036,
          0.09716449721775704
        ],
        [
          -0.17187555923087525,
          -0.06867778421405006,
          -0.06634624056070827,
          0.10082436118551884,
          -0.09577607665021728,
          -0.0712661827083437,
          -0.13717878727816676,
          0.4571371955376013,
          -0.2288498311775469,
          -0.022965109588160393,
          -0.048398355312331366,
          -0.005649864783863133,
          -0.6791921725271978,
          0.09750617338740326,
          0.05390697591200433,
          0.02565883380161603,
          0.22307353697855262,
          -0.02599266754852963,
          0.21223932962438133,
          0.08006806253508891,
          0.11402613758040875,
          0.018919868690346543,
          0.11326723122597494,
          0.22768436123396033,
          -0.15838408581818547,
          -0.04898528856935799,
          0.08453378364417696,
          0.2078069243040411,
          -0.22850866652609014,
          0.05815164221162434,
          -0.027071841828366642,
          0.07149972856507732,
          -0.014684335917885304,
          0.15458013079901742,
          0.13107989214073884,
          0.0730295540907227,
          -0.03549709401989546,
          -0.18946931337688142,
          0.14729087447633693,
          0.03198644841946796,
          -0.0036083172012316054,
          -0.5633983904423107,
          -0.17809243097641264,
          -0.3354148883860717,
          -0.2595642091348598,
          -0.14389992491941328,
          0.09290991631143412,
          -0.14197450550640384,
          -0.18403350576837912,
          -0.029380953173964188,
          -0.027405070926877845,
          -0.07719597894468826,
          0.09565005600337394,
          -0.015368616844890715,
          0.04387466239137357,
          -0.10600157722799144,
          -0.012899632330363479,
          -0.15249741185073182,
          -0.025599365371965947,
          0.024843709334029844,
          -0.2873559766696334,
          -0.12959986464081258,
          -0.6381350644143254,
          -0.08854298146242284
        ],
        [
          0.05182281984406108,
          -0.09096196929335036,
          0.07733267679732816,
          0.05085814478919476,
          0.003973510179893947,
          0.07748983880369996,
          0.23652143729487138,
          -0.4824461679557393,
          -0.023794664687837426,
          -0.10073652739637072,
          0.2593938712342759,
          -0.004454074043780266,
          -0.20513453366054288,
          0.13059851922869758,
          0.0650342223994507,
          -0.21791794439353027,
          0.045860050765144246,
          -0.3406501612860855,
          0.06906872417794153,
          -0.20483044427433492,
          0.4769186850558463,
          -0.16704704505489057,
          -0.19886103488464993,
          -0.07842373271033347,
          -0.11041160292977577,
          -0.24274288689883777,
          -0.0547803608727165,
          0.007740418305853026,
          -0.05021536037109732,
          -0.14469027845278606,
          -0.32885476829747373,
          -0.14840605663909978,
          -0.30817571898616514,
          -0.018117616991400513,
          -0.20749806958599426,
          -0.2483527722896718,
          0.1531717975727044,
          0.21629867471085312,
          -0.1766164559305999,
          0.01440372667227959,
          -0.4556812044529296,
          -0.058807171905376376,
          -0.07447520059294704,
          0.07463254323940254,
          -0.030195641014166948,
          0.5721380754201825,
          -0.431617058092424,
          -0.12573501634294057,
          0.09092804425288488,
          -0.26812317862917434,
          -0.4372920568059448,
          -0.06726869845301175,
          -0.7556594035841955,
          -0.031882996748474494,
          -0.26011149554936347,
          0.17748927021248495,
          -0.2277589462816764,
          -0.7431754405135499,
          -0.33125017693758996,
          -0.05777136280771472,
          -0.10253508393910316,
          -0.22810359166049285,
          -0.04489891893827236,
          0.11382791510439408
        ],
        [
          -0.060186946640177506,
          -0.2576762646159775,
          -0.1958569325519353,
          -0.14777529334875422,
          0.007381879581886735,
          -0.16603412749381224,
          0.07493131566661812,
          0.20783080203300758,
          0.004412122403633076,
          -0.04292240495897694,
          -0.09888776829483308,
          0.008268538979935824,
          -0.05770603856010746,
          -0.22899881670010647,
          -0.03379203264014018,
          -0.12824524864478795,
          -0.367796400075731,
          0.09366610340501286,
          -0.0932531275015737,
          0.03349068746437762,
          -0.1572598713371733,
          -0.1913906705828711,
          -0.12466880819278965,
          -0.2463211878274011,
          -0.02905966257756391,
          -0.15238324263200975,
          -0.27067220163642997,
          -0.11240024510582808,
          -0.27599319861113464,
          -0.08778996445068836,
          -0.0597977092088595,
          -0.07963238214872048,
          -0.2876009323997665,
          -0.07070277625672629,
          -0.774848744347495,
          0.16349341775637236,
          0.08408937304592336,
          0.1648079288848508,
          0.12772411997350108,
          0.01424563643424944,
          0.1245728882179781,
          0.12963975514389037,
          -0.500279863963303,
          0.07690183512796249,
          -1.0163389805106404,
          -0.4304804966158985,
          -0.08292380642627113,
          0.2423174627016233,
          -0.0017505465485979283,
          -0.16112810570157002,
          0.0680769668876725,
          -0.10686570027041649,
          0.08985303101304545,
          -0.009000390164120296,
          0.023628608577576204,
          0.024861278708554792,
          0.040928520328880634,
          -0.6491117370243138,
          0.10306645408832728,
          0.11687123003361413,
          -0.251259191127272,
          0.028860236320440324,
          -0.3256752151316196,
          -0.02640497262289568
        ],
        [
          0.02094851152530336,
          0.33478037197146715,
          -0.00617597752430414,
          -0.016557308861154845,
          0.12382899019736376,
          -0.2461084190875186,
          0.08476741922391173,
          -0.24143391134285977,
          -0.08456354769362504,
          -0.020443844826490296,
          0.05451719319402893,
          -0.3486489329768295,
          0.017839799473418426,
          -0.04075209124295322,
          -0.1779390757380504,
          0.21310170841880216,
          0.9914927709991896,
          -0.2786385866929566,
          -0.3927922912045186,
          0.09605060114756966,
          -0.0867538959811153,
          0.046920698041986494,
          0.13987261517134553,
          -0.10270452772295055,
          0.12436464788308146,
          -0.05196250285348104,
          0.6142167941255136,
          0.46353949306732245,
          -0.13638103333745002,
          -0.2063303384591116,
          -0.1254613150992222,
          0.10699365045939839,
          -0.19588119042809984,
          -0.5490734638526162,
          -0.10515428046808642,
          -0.588581079709275,
          -0.439320114393368,
          0.0006481313652501673,
          -0.20028008134343195,
          -0.277305352394278,
          0.2578572628487922,
          -0.3448881907420677,
          -0.1510954935308564,
          -0.11897754259745441,
          -0.024867605326152,
          0.10843070272952482,
          -0.0169460120820868,
          0.06812724073547645,
          -0.00942406664416148,
          -0.12986501312051174,
          -0.6731124379256603,
          0.04010939643191641,
          -0.15848322455039898,
          -0.4284747574903206,
          0.013226840476759469,
          -0.26870945769869775,
          -0.05225153463959965,
          -0.28761921417621444,
          -0.4526675954806546,
          0.05886479522090978,
          -0.27932422514271554,
          -0.013657430215065073,
          -0.006325727895927493,
          0.10459792576570473
        ],
        [
          0.05946020316267587,
          0.12341896594192524,
          0.2970146891607009,
          0.3175608663329919,
          0.23445697253978667,
          -0.0022800720373297536,
          0.5199092645236543,
          0.41457120635950984,
          -0.14090670194934163,
          0.013950607370833623,
          0.239081131630384,
          0.045530500905503146,
          0.0688503209696115,
          0.03351980392637912,
          0.15702738446670975,
          0.18470630361984203,
          0.02274066208450069,
          0.09580568990558716,
          0.17713237831339723,
          0.068256902776252,
          0.20604176612271247,
          0.27138652873807884,
          0.27061689877727946,
          0.24981754593639371,
          0.109719731011157,
          -0.2934157579122067,
          0.13222366161987897,
          -0.07710394391547289,
          -0.06345657015994284,
          0.14029751086242506,
          -0.09903801738129898,
          0.003534637008119788,
          -0.032577161253725895,
          0.14081312511566216,
          0.037375838391199415,
          0.20720679090402197,
          0.24946888255895647,
          0.14266481771727269,
          0.03555422623193282,
          0.0617378683542457,
          0.26026362429840466,
          0.06972790042959869,
          -0.17956951967522836,
          0.17453449933756737,
          -0.17345668820526694,
          0.06284459808718128,
          -0.21510986575522903,
          0.10261294865795426,
          0.012092305282732408,
          0.0037130511680430064,
          -0.023337035950300757,
          -0.06214124941741807,
          -0.10410437596723758,
          -0.10122108155216918,
          -0.27001863599276077,
          0.07030971019693746,
          0.19943093054918004,
          -0.16830198085626713,
          -0.24778005370546247,
          -0.04572885032590235,
          0.14689327974190547,
          0.032289537951227895,
          -0.10586334663816935,
          0.15503752982238603
        ],
        [
          -0.2445733117568283,
          0.07730346195256528,
          0.05881804048409789,
          0.4061156599353222,
          -0.21009103596179263,
          -0.21287857011760902,
          -0.13716269930909375,
          0.11610301307429419,
          -0.6314210943491412,
          0.07107887616988431,
          0.3209604553495134,
          0.207590994504628,
          -0.5768236426823458,
          0.0461898943448051,
          0.19207064336973695,
          0.28729237053426365,
          0.17686527267201602,
          0.26583645641459364,
          0.0356912858474303,
          -0.07740542348230503,
          0.3293664538178984,
          -0.11929639781018715,
          -0.3237313695589015,
          -0.12103228824659144,
          0.2968792972707208,
          0.09156535035436529,
          0.08680425742032905,
          0.07342855718487594,
          -0.14613153948725205,
          -0.4493919024393189,
          -0.12025898289971214,
          0.026355779857328267,
          -0.1654097809654623,
          0.23584517539960037,
          0.06162350056260232,
          0.0216948007074892,
          0.42204059190358384,
          -0.1900867810925551,
          0.321523960556961,
          0.021804481091932313,
          -0.2059605154113767,
          -0.007561991389380842,
          -0.06441525481375236,
          0.021620979700504906,
          0.246571979987894,
          0.1445523940444131,
          0.03719485283208685,
          -0.15291534493969605,
          -0.7119359653402211,
          0.12931563316258618,
          0.28473357107566283,
          -0.22837399381343967,
          -0.07773257067456033,
          -0.24940526418782896,
          -0.08553331725681043,
          0.26586147802349547,
          -0.10273235785600635,
          0.02922100407900673,
          0.012386106277797668,
          -0.2856116001189796,
          0.11081817331899652,
          0.0711462836339935,
          0.01302638368629214,
          -0.03787702704304834
        ],
        [
          0.34756058004928253,
          -0.35237549873249013,
          -0.08445238713826947,
          -0.020949112937120675,
          -0.1609037295849458,
          -0.1251146860788576,
          0.5963116444585714,
          -0.0977124388480151,
          -0.3084181479469105,
          -0.03180046560340235,
          -0.15833770643490258,
          -0.008381178999702376,
          -0.06535139207830407,
          0.2267612626994107,
          -0.1388151751245533,
          -0.280785235011611,
          0.2582023648705943,
          -0.5753954188434884,
          -0.06492841515061105,
          0.47642846608346856,
          -0.9510904963177367,
          0.17510276645929018,
          -0.0467379510147903,
          -0.2261111463404011,
          -0.31576453727232767,
          -0.1575895670440882,
          -0.2301792115464726,
          -0.004125225544985605,
          0.14905995225456975,
          -0.022452936871666822,
          -0.15682500448960704,
          0.09882465202650612,
          -0.011118639829965239,
          -1.7678346352689776,
          0.14795856852293432,
          -0.9931498681080289,
          -0.07181897566213201,
          -0.19223603019449595,
          -0.2634839911142287,
          -0.10817467724673517,
          0.10185164980097978,
          -0.5925299930330917,
          0.05430856903834459,
          -0.3365516533826384,
          -0.1637738590537439,
          0.00829012251981215,
          0.009465039419076778,
          -0.8887290918340368,
          -0.19168193629042685,
          0.037138219203101654,
          -0.5677305827314415,
          -0.14927459916775287,
          -0.15988843999080993,
          -1.0198595308666583,
          0.23356989449104631,
          -0.06615889835901154,
          -0.09413049989242973,
          0.04401053672765315,
          -0.2846561707879819,
          -0.036498255181976344,
          0.05402504573948268,
          0.11460892339429116,
          -0.1491089651484541,
          -0.018557348468277
        ],
        [
          -0.03295653684010602,
          -0.0015352318702080987,
          -0.09920031461560518,
          -0.26697009853322656,
          -0.09218244886017216,
          0.025622951578734537,
          -0.0911320627766846,
          0.23434468441670017,
          -0.001735999815320915,
          0.3992697139710411,
          0.3928040789493269,
          0.17219471978527165,
          -0.2133546375414329,
          -0.11590951945579192,
          0.3809759252056577,
          -0.11466918242506087,
          0.0012511645470261376,
          0.35511475182592894,
          0.2197226970100659,
          0.01739999590764887,
          0.01330821291079185,
          -0.1469730896892937,
          -0.2205413755240546,
          -0.07524315412588231,
          -0.03230159100796382,
          0.06394145492267153,
          -0.07770448745855224,
          0.4014063755613444,
          -0.10217089364063862,
          0.04747620550250755,
          -0.03423533109397583,
          0.030375138145906273,
          0.2159143958041231,
          -0.17903365158211088,
          0.06169036368378737,
          -0.1511319338400531,
          -0.18483510439952702,
          0.028045946448047053,
          0.1048636470907652,
          0.13273133188939504,
          0.017708551927876917,
          0.1935058923665378,
          0.36400584516278006,
          0.019995706210960935,
          0.22071258139190958,
          -0.29771251165612156,
          0.1329265965165929,
          -0.01601375425933849,
          -0.4763357995871266,
          0.02011715758435098,
          0.09206555360943418,
          -0.28579155423576635,
          0.13378732724266115,
          0.037667928541640666,
          -0.02418336396289702,
          0.029615766955390147,
          0.026242819708920118,
          -0.18711154352495254,
          0.3838016084031059,
          -0.1542174461257369,
          -0.09081452536332799,
          0.15976432601768412,
          0.13761486896683525,
          0.2374036140098499
        ],
        [
          0.08874715975202402,
          -0.09920345237592433,
          -0.32570326462172594,
          -0.012800799006813801,
          0.0712751327345274,
          0.1465678006355944,
          -0.37270705969309165,
          0.2988307034173997,
          0.27583645524227596,
          0.3204473314795687,
          -0.13432862745674454,
          0.017069978746763463,
          -0.18497887157471327,
          0.2589534010551636,
          -0.40864048340124054,
          0.09645394623488547,
          -0.024567681302851474,
          0.14888280337782236,
          0.10979567860769708,
          -0.15632679791133597,
          0.033205379033213064,
          -0.058870165682447635,
          0.13855742847041527,
          0.16879933627751162,
          0.09629719962144079,
          0.35286661471118813,
          -0.01430971009234202,
          0.10065918418957423,
          0.49058990168430827,
          0.05828209689471115,
          0.014906653071146289,
          0.11167452828477636,
          -0.31081351268643853,
          -0.19075789563946075,
          -0.07126225335490104,
          -0.1513578374569891,
          0.2178733453335107,
          -0.09519619064220303,
          0.030220453467677835,
          0.30827109778134953,
          0.0634234602903771,
          -0.06117700775711363,
          0.01798981972476313,
          0.3126975056250954,
          -0.281081656800917,
          -0.1870874270206521,
          0.08454441242029247,
          0.43735857784066934,
          0.3490355946748144,
          -0.08901681316091199,
          -0.13556977025116634,
          0.3201467347747453,
          0.2711192955145199,
          -0.14122393802380842,
          0.03251486655421793,
          -0.2904215058519745,
          -0.06633570884176672,
          -0.1446645823843662,
          0.09112259982378447,
          0.11228521148891056,
          -0.007558731758506553,
          0.2928617351882896,
          0.06450610375173278,
          0.13635967212093547
        ],
        [
          0.12565535722274285,
          -0.14366088786410436,
          0.05363850538638289,
          -0.252740335782401,
          -0.3055050930785039,
          0.1646385367874002,
          0.03310196634758857,
          0.2672105719991645,
          -0.2918956187090343,
          0.07986237632465353,
          -0.027416578690461074,
          -0.030751980746539388,
          0.03714386436673848,
          -0.04128609316085206,
          -0.17577310228996937,
          -0.03038517394153821,
          0.16222887623921303,
          -0.19295372059667287,
          0.2997127877190831,
          -0.015549693332695631,
          -0.07540952915858676,
          0.10617725093069927,
          -0.12448592356669883,
          -0.31287898727531277,
          -0.008686434500239036,
          0.13036641060013526,
          0.3596870265908034,
          -0.10822519788380973,
          0.13748659420039022,
          -0.03655219006381216,
          0.07691695299309999,
          0.17928203856138003,
          0.1873015490138756,
          -0.019433063394171054,
          -0.13034545172948458,
          -0.15553556118821055,
          -0.054750850888990024,
          -0.03497637060165846,
          -0.02583727254532682,
          0.1405414841202222,
          0.04140972179779776,
          -0.3615039767688238,
          0.20600494991827079,
          -0.18942704046189257,
          0.29035627802967773,
          0.1258428979808009,
          0.07899991959969083,
          -0.0822742873845488,
          -0.1467013085550196,
          -0.2933608505885004,
          0.10968892755300505,
          -0.02968076824951335,
          -0.5458482588784681,
          0.1883452988950191,
          0.24133863677865278,
          -0.14258001844404813,
          0.1876985307380337,
          -0.05268621632723492,
          -0.3892615974913724,
          -0.1504503030778156,
          0.09346465655670753,
          -0.09979270677585377,
          0.009939369331804898,
          0.019375716886661946
        ],
        [
          0.11665032491398386,
          -0.036506111521346626,
          -0.07282673741901968,
          -0.18820635687293316,
          0.08683422807415035,
          -0.3116725576390291,
          -0.17186723829049994,
          -0.0504939569442663,
          -0.2879446698637367,
          0.17453318529340006,
          -0.5045279811381932,
          0.0656058891369665,
          0.17116804205052713,
          -0.04787566623292503,
          0.1695011371455509,
          -0.03280243776838884,
          -0.16168521207514736,
          -0.010706858248864474,
          0.30663827953311723,
          0.1377950390377793,
          -0.045377312063676886,
          -0.27203813079640443,
          0.10845841261562318,
          -0.24553665558370144,
          -0.03519727867258103,
          0.12101285910929889,
          -0.07822313123498693,
          0.3428709262786078,
          0.259064858652764,
          -0.2422369312308282,
          -0.19680427945076526,
          0.04382613807282221,
          -0.01894652124745794,
          -0.11488553491115878,
          0.09408794471562341,
          0.3739520403653917,
          0.09681375633231011,
          0.28349640212335414,
          0.03876019675875144,
          -0.9326117192899314,
          0.13532348627661847,
          -0.12376693997401465,
          0.19922738813929725,
          -0.14883784719220897,
          0.24913025083346382,
          -0.07361040757919926,
          0.08997573859909608,
          -0.3051309177287165,
          0.018475703394281884,
          0.015553654467847762,
          -0.1292117654045923,
          -0.19119844075103903,
          -0.5029993039025041,
          -0.09378174193210628,
          -0.11398475102501042,
          0.39230347169902674,
          0.24275346873868722,
          -0.00028484088355163584,
          0.1989362739005667,
          0.03615298440770958,
          0.09788878201859004,
          0.07507464084173691,
          0.21676179039975463,
          0.021989065400310565
        ],
        [
          0.051278584156699586,
          0.2349366709598842,
          -0.02147488289034879,
          -0.06310392305128741,
          0.05394004644691539,
          0.047013855087354936,
          0.13136561639419572,
          0.09247080004110089,
          0.03329019481506452,
          0.0004422714973891128,
          -0.14547827425189264,
          -0.02463161122881177,
          0.15881752198252794,
          0.06980894646647359,
          0.11549588390255072,
          0.1707728323204262,
          -0.022910214334866615,
          -0.14392356034608858,
          -0.13746157030096526,
          -0.1746007462263908,
          0.2463820223990623,
          -0.16606224673505973,
          -0.016925005455168295,
          -0.014444352542655966,
          0.1517009987591788,
          -0.355984078222497,
          -0.036432904401038115,
          0.16240932351546267,
          0.054251717325403404,
          0.13630286191136054,
          -0.10098830676235611,
          0.2938891036227103,
          -0.30955796500496735,
          0.19267545081451168,
          0.01695239686187019,
          0.031208170526084676,
          0.040043192494410414,
          0.10364076111426053,
          0.2374961483926247,
          -0.15917908793552094,
          -0.1905702541612524,
          -0.015602710495597121,
          -0.02665975831884963,
          0.05171752494675896,
          0.26638018528604235,
          -0.2093521789295191,
          0.13328616396487636,
          0.12141165119205766,
          0.4053318636176329,
          -0.3470673236709755,
          -0.1037724063238458,
          -0.14875764520194673,
          0.2711041539274775,
          -0.19021696985993494,
          0.28969213697028356,
          0.45715622206521195,
          -0.039773601637206626,
          -0.05407792589720751,
          -0.23917958645597398,
          0.04271874385651986,
          -0.2621818656387194,
          -0.15513218622055894,
          0.0734053821672799,
          -0.018000437960483645
        ],
        [
          0.07610375431188879,
          0.024224791463242544,
          -0.013198561228461123,
          -0.2285636805056631,
          -0.1198737297217126,
          -0.006118562013753731,
          0.11974866027813653,
          -0.14452002621476046,
          0.23809586664255877,
          -0.32391937902062107,
          0.32015281960632685,
          -0.0018835910788953553,
          0.5356812548838711,
          0.20421153997003616,
          -0.4372115338772752,
          0.3937462358694176,
          0.17848429260971152,
          -0.6469591089304148,
          0.02205827866335174,
          -0.08889967297637177,
          0.3492691376716881,
          0.15201671791211493,
          0.13262344059685946,
          0.3473902182916918,
          -0.05535829982220404,
          -0.4056825977074186,
          -0.5919877064847329,
          0.0265327447382958,
          0.31392341699733867,
          0.19589036386190317,
          0.1877080861232421,
          -0.011789787120424536,
          0.1539091931066177,
          0.03472591863406607,
          0.137897022701935,
          0.1002382726548567,
          0.11814626413491729,
          -0.16333354200730574,
          -0.19499225346772703,
          -0.0327283946457998,
          0.15167279207683018,
          0.16835745235743949,
          0.14028820640943443,
          -0.7873956780240403,
          -0.1466472076111554,
          -0.0004528897884198965,
          -0.008865438208673911,
          -0.3483653591158846,
          0.41668005761362087,
          0.024452997024393314,
          -0.1148982026001633,
          -0.07161779359737305,
          -0.27270301166229555,
          0.15917680090507497,
          -1.9089826688845222,
          -0.6511157535570653,
          -0.12135812885124403,
          -0.198046328401886,
          -0.4670332852819915,
          0.029278928232419604,
          0.003186148465716426,
          -0.05633403889089193,
          -0.10530329216386194,
          -0.24057060914611184
        ],
        [
          -0.4022565247926217,
          0.05338688176109131,
          0.17537519260419732,
          -0.011241329406973678,
          -0.14618204117317535,
          0.29797748907764104,
          0.28756455994245333,
          0.5600047603429681,
          -0.28007395676805175,
          -0.05437817765653105,
          -0.2029758501464701,
          0.18071305529620196,
          0.22124922232691027,
          0.1131333515054117,
          0.31786997502331205,
          -0.0229027200401421,
          -0.014034925507158394,
          -0.28958291077893394,
          -0.1743866932795045,
          -0.3229277923825053,
          -0.05004239032791754,
          0.17074980838907888,
          0.29888799819143674,
          -0.19840191519730904,
          0.010058112060729953,
          -0.0905625090636412,
          -0.078972852912151,
          -0.1912004749600998,
          0.010181708219295276,
          0.19479970351831813,
          0.182803928426407,
          -0.07076267118781825,
          0.07072282837189073,
          0.18354381357512042,
          0.012885773830116526,
          -0.3189941572281146,
          -0.15369096261561593,
          0.054658334007921326,
          0.05377992375537934,
          -0.012025147007865748,
          0.10196879511264145,
          0.04661196216789562,
          0.2663843659470267,
          0.4294054236937723,
          -0.03617229719691057,
          0.0371244131405333,
          -0.031045023958960857,
          0.10602176394837746,
          0.21697270159956455,
          -0.005527518527420929,
          -0.15352891639596108,
          0.25528239783673173,
          -0.22383840101192753,
          -0.06655596116067057,
          -0.09303560578086545,
          -0.017636683635027794,
          -0.17660047104596854,
          -0.03516683591634151,
          -0.03595434782172759,
          0.06174218860339097,
          0.02515348915570766,
          -0.0011400032324746915,
          0.04194023868399301,
          0.037710673640310936
        ],
        [
          -0.09321610014237021,
          -0.0713456577006038,
          -1.576836977947792,
          0.30219983353116886,
          0.008370221766671437,
          0.08598546442728446,
          -0.26646793677177083,
          0.1802628622996735,
          -0.02941899383312467,
          -0.1269945061214813,
          0.3760162786783531,
          0.07832677903572706,
          0.05073561907657357,
          -0.04547627178179318,
          -0.14493773326198406,
          0.27975310090598754,
          -0.08562721264818939,
          0.05968570792103089,
          -0.07863977911976602,
          -0.054064514598970666,
          0.059015057132428966,
          -0.23201876230481056,
          0.056832178749304005,
          -0.4561712584150601,
          0.10877099165427394,
          -0.16857396609996078,
          -0.07556631064979294,
          -0.012472211562426467,
          -0.2748787068186972,
          0.10292825514571942,
          -0.009096066608470085,
          0.08933294164988428,
          0.01655579392952732,
          0.038493183749791306,
          0.2490901634261553,
          0.13955700702701676,
          0.11913211801391276,
          -0.16184140911787825,
          0.14697668577526501,
          -0.0028305768529743977,
          0.0752860740513689,
          0.03895810496188302,
          -0.4715649516412304,
          -0.14741363046694617,
          -0.5542670556933368,
          -0.05361232635628007,
          0.09789247624605746,
          0.12000197786453601,
          -0.09584251268478601,
          0.15008591869643573,
          0.0999001293522954,
          0.04052488669989635,
          -0.04360763174229553,
          -0.035661283235348874,
          -0.06758487539452059,
          0.2795211503155411,
          -0.16689459549973307,
          0.07946355140988659,
          0.04049740531218164,
          0.09181785218097006,
          -0.022163956341595015,
          -0.04545554057476651,
          -0.4775196718901557,
          -0.04365386811225095
        ],
        [
          -0.1958991255631624,
          -0.0926657146939533,
          0.047999384705644396,
          -0.2349106019740678,
          0.28336188962400655,
          0.33858281259535505,
          -0.026188387971046997,
          0.06350858893383476,
          -0.1658852131582311,
          -0.08184070051869809,
          0.24705267054798444,
          -0.2869412398131438,
          -0.10088345674706471,
          0.16384421475309918,
          0.367486870487718,
          -0.058748461277300205,
          -0.04001982563171168,
          -0.45203873647675796,
          0.309196040386059,
          0.04300811811091395,
          -0.143816301539615,
          0.1713597146752026,
          0.10790220000579828,
          -0.19487486814665214,
          -0.12986877458482182,
          -0.002747854583596847,
          0.05108881643856588,
          0.08443656804576102,
          0.22581943291540735,
          0.15836462242422253,
          0.14248553381032125,
          0.08047065204791265,
          -0.19398755429452463,
          -0.3089858418362796,
          0.2415822782978377,
          0.1612936698271282,
          0.09092521643286063,
          0.07656162972292993,
          -0.07845766413276735,
          0.05345376710727149,
          -0.29115424661816075,
          -0.006816813040222341,
          0.1903493488099286,
          -0.23821157641578775,
          0.4842151569480693,
          0.32279208342436677,
          0.09875191181053287,
          -0.00030908980042656587,
          -0.16809017149664815,
          0.04068871058784108,
          0.03476815836593368,
          0.1129428096312929,
          0.036505136245935724,
          0.03420222252345194,
          -0.11856950589640089,
          0.17252623534310169,
          0.2602211310766124,
          0.06708630734397958,
          0.04982447067821298,
          -0.020329649766581297,
          0.11300542154827722,
          -0.026133150945671185,
          -0.24673720888432263,
          0.17331533515392725
        ],
        [
          -0.00873861420380491,
          0.07037668162015434,
          0.08192988420223275,
          0.051201802670932085,
          0.022258138278888798,
          -0.030039688565904738,
          -0.40610310771932256,
          0.07119407320696519,
          -0.31568179037669597,
          -0.4857719525585043,
          0.26396238935040417,
          -0.09924721406506945,
          0.06731957112275971,
          -0.10366897853794085,
          0.03581429681425667,
          -0.0006435349485868844,
          -0.004162181025136803,
          -0.04845043787590391,
          0.2111961961964237,
          -0.026762741903942858,
          -0.045546997220818224,
          0.11961442841712672,
          -0.05870903391673346,
          -0.15146835468687037,
          0.1276229778107296,
          -0.7742977964153577,
          0.15793460456264985,
          0.10064278861116337,
          0.008322683594844359,
          0.05492100507360581,
          -0.09572023564855268,
          -0.11521889433832727,
          0.34328075645751227,
          0.08094756003943605,
          0.037286213960576485,
          0.14358680990750033,
          -0.04712440719386522,
          -0.1269454214671798,
          0.05397976226437365,
          0.008214348346076634,
          -0.052820832690759385,
          -0.02869870975346536,
          0.1830483811815201,
          -0.12934059417200697,
          0.08360798203246055,
          0.03578131768344188,
          -0.029208396154922458,
          -0.1904928843538242,
          -0.001986058212223024,
          0.1766946132822377,
          -0.08708452425651353,
          0.06101399554752463,
          -0.10853962519259483,
          0.08649577533847064,
          -0.012773339164866972,
          -0.25301026317260134,
          0.11148445520055315,
          -0.9053184034854002,
          -0.06443235662804818,
          -0.09503272412103748,
          0.25726091249780986,
          0.026978315201110777,
          -0.21470785896941766,
          -0.4012752292278205
        ],
        [
          -0.23741356126311447,
          -0.03906070276822594,
          -0.07000792767366122,
          0.5024655455043175,
          0.20809063013721577,
          -0.24544643763884594,
          0.09967486965158051,
          -0.04023797826409735,
          0.3880196038010575,
          0.2925772953109563,
          -0.15314542363457706,
          -0.4610764604907553,
          -0.1191451672845566,
          -0.2272873546035354,
          0.0832638293979692,
          -0.029364503841074648,
          -0.2048129078202873,
          -0.2771702342774248,
          -0.30064573650462323,
          0.1143366540233368,
          -0.024673809497097087,
          0.1766855877344799,
          0.19648456004787448,
          -0.2102162142081205,
          -0.42940616970084217,
          -0.20652185125252495,
          -0.12632774619357057,
          -0.2250959771986564,
          -0.18940629886175814,
          0.09735568433409668,
          -0.2899863268843224,
          0.12914617728051636,
          0.18882440646706375,
          0.13885285882725446,
          0.12839615189443104,
          0.09624290646548515,
          -0.15164435328462242,
          -0.2459841711808874,
          -0.3755528940659409,
          0.38682189853957916,
          0.027736051631631498,
          -0.3762698515376229,
          0.07465008664108279,
          -0.5140237216154648,
          -0.013746935419616338,
          0.23185987872944852,
          0.027473560986432825,
          -0.606589724591012,
          -0.06575044334019055,
          0.20267362930609784,
          -0.6240110540026975,
          0.01546511007001967,
          0.25478466857645876,
          0.024793624484985,
          -0.39742024147323307,
          -0.686318180162842,
          0.1061772898776092,
          0.18485380770224352,
          -0.4548105202443083,
          -0.06326818493030895,
          -0.181000001076758,
          -0.7782248739778037,
          -0.6312723158320326,
          -0.40933903069205985
        ],
        [
          -0.00758818104174797,
          -0.05999679265450537,
          -0.1522012462823543,
          0.12286384643034474,
          0.35793542397436034,
          0.036428862809221155,
          0.0451225968771308,
          0.3340580601187599,
          0.4154134965366982,
          -0.31913753996844896,
          0.07318884121808006,
          -0.06480308482935354,
          -0.1661064886904986,
          -0.6741375657698315,
          0.11486901395694835,
          0.01229892201590094,
          -0.05755985811041425,
          -0.005252502402200594,
          -0.12328771844670444,
          -0.09772858097598551,
          -0.25552648530789623,
          -0.11609463866171628,
          -0.1736210803766166,
          -0.05069282765185278,
          -0.2412734224164887,
          -0.2024490620642594,
          0.4601811470369651,
          -0.010265487157389546,
          0.15087224345203093,
          -0.24029982526366772,
          -0.1178838617230829,
          0.09773836398498954,
          0.024591481388249424,
          0.05781270503819151,
          0.06587956722361324,
          -0.15765364342201965,
          0.09384226357409846,
          -0.3758495215560877,
          0.06836044040361589,
          0.2556248155463522,
          0.07604302039011919,
          -0.05155466874623209,
          0.23105725669009383,
          0.3554725340009457,
          0.3319655732364605,
          0.04328123369589487,
          -0.05623974290336752,
          0.05470219699550098,
          0.2704080200927765,
          -0.5692826873174156,
          0.18071148867095377,
          0.06951602863516367,
          0.2441793766810539,
          -0.15529806751084643,
          -0.14963797074074975,
          0.00681094834584813,
          -0.19299151685266908,
          0.13924265128717742,
          -0.020367038506552033,
          0.017724319940979744,
          0.036272288354164565,
          -0.13623514839473158,
          0.01786752376973976,
          -0.1268434516445651
        ],
        [
          0.1367162176994902,
          0.09580279705262147,
          0.04824242128977501,
          0.19208567834338786,
          -0.17628171449229726,
          0.09487409476599895,
          -0.01259915294734075,
          0.37098590137090215,
          -0.1913799162140921,
          -0.252919411280706,
          -0.09719004865044369,
          0.17519309042415665,
          -0.07529803937691834,
          0.14507113794889562,
          0.03503454678683088,
          -0.07245077044020087,
          -0.1459967355314209,
          0.01346010921488481,
          -0.05211485430120568,
          -0.11804416800508087,
          -0.04987453129807196,
          0.006279926627443276,
          -0.18141160631438275,
          -0.4525742680919635,
          0.39527990930452656,
          -0.4955235529408392,
          -0.18401229926817386,
          -0.26345337180897904,
          0.30500085743362104,
          0.16491393543058938,
          0.2156547334930401,
          -0.022106463816258855,
          -0.11837089061315156,
          0.15506564507614895,
          -0.08754822738369018,
          0.10840478532428044,
          0.22491599193486972,
          -0.21145131659547076,
          0.36164340576571297,
          0.048052008272220684,
          0.026468873531860178,
          0.15315958333543098,
          -0.250677216052218,
          0.0883518622227755,
          -0.2461245591056442,
          0.3398102863427331,
          -0.0839736148599591,
          0.4291752094808632,
          0.053869654283104196,
          -0.12364728708811357,
          -0.11401537096764314,
          -0.05670887805059769,
          0.14451496015129445,
          -0.03213550467700965,
          -0.12885350698984735,
          0.039789784680183245,
          0.2514204303735746,
          0.41846401332884503,
          0.03857687055107196,
          -0.01600848373767952,
          0.08104442705601635,
          -0.12289930582595804,
          -0.16155036981972687,
          -0.23367797501681467
        ],
        [
          0.07717198502545847,
          -0.5939251743254119,
          -0.31115783993133006,
          0.08626895260295316,
          0.020510968544913754,
          -0.9342103593994351,
          -0.4366495026958104,
          -0.23749609868679183,
          -0.2022840424877419,
          -0.3164321050762291,
          0.2979672700064669,
          -0.12671371703210754,
          -0.184749649969525,
          -0.16190582928511307,
          -0.6649562132936815,
          0.11612811117926686,
          -0.058458812918195435,
          -0.5046462542684967,
          0.126650971263015,
          -0.1005523429649235,
          0.22678219670129238,
          0.18644335052796532,
          0.18242497450716108,
          -0.12876240742196488,
          0.12898783950918907,
          0.009927232997568307,
          0.5192748609199125,
          -0.15104186224144792,
          -0.1309006074507131,
          -0.7896613838498333,
          -0.031324358305835104,
          0.06464495251551318,
          -0.040551169169267265,
          0.1443442883867732,
          0.3443232951119301,
          -0.09446284019351264,
          -0.13124903102628874,
          -0.3906379097419798,
          0.10106382748483832,
          -0.3058009363603461,
          0.05077285321230367,
          -0.030698992459221183,
          -0.08286927944533663,
          -0.36026844334352887,
          -0.3287965314904919,
          0.02380978115016382,
          0.09859734988571581,
          0.40392361267723337,
          0.020665292777403404,
          0.04536818358397178,
          -0.1455564902959311,
          0.2831983715216505,
          -0.09021952850095387,
          0.04759859802682422,
          -0.03910103701758444,
          -0.23078235933357225,
          -0.1715391359541947,
          0.19247501856041405,
          -0.19823829500627407,
          0.12127393624856851,
          0.08088874280840698,
          -0.13295215940914112,
          -0.16942990496044527,
          0.2118028498759152
        ],
        [
          -0.1381255789627476,
          0.3364169081137528,
          0.12911351818540773,
          0.010290635695209528,
          -0.0033663107540253118,
          0.028160652139465885,
          -0.30082154474562023,
          0.3271253726979878,
          -0.8446404897146221,
          -0.3193167556254428,
          -0.014506783944056164,
          -0.04442680996746053,
          -0.0031470995584059777,
          -0.441855541735834,
          -0.03107578880805907,
          -0.05010881306323181,
          0.03389597834520032,
          -0.85011245231788,
          0.09579938586389915,
          0.10512323401610708,
          -0.028417184165771495,
          -0.013074987996656138,
          0.1084527076880122,
          -1.3363192403935786,
          -0.5189280517273879,
          -0.6506707816852728,
          0.02013206978830982,
          0.33805929176964916,
          -0.061606166018898366,
          -0.11499698849344053,
          -0.07392892773740399,
          0.04724934075165611,
          0.5241524113100428,
          -0.12234207417989057,
          -0.14209483588801017,
          0.062232039482213536,
          -0.007823240530087882,
          0.1979521450603617,
          -0.00809655760314884,
          -0.0934700677858948,
          -0.022611209314754452,
          0.017490259298832758,
          0.12735723057710854,
          0.04820940360332312,
          -0.008923280962063875,
          -0.4316003729377482,
          0.04046196944116254,
          -0.1491255195629034,
          -0.03816493186700293,
          0.01730305348032487,
          -0.5693440413893572,
          0.02857981753445989,
          0.031238659658835845,
          0.02384161330039441,
          -0.2674904228780395,
          0.40995637575709615,
          -0.06434724080905942,
          0.5707510367161993,
          -0.3607989658063581,
          0.15093905006656141,
          -0.0196082980688479,
          0.319768690576804,
          -0.2544357274690913,
          -0.1702051135954977
        ],
        [
          0.2959582151051782,
          0.2858806087283483,
          0.2645972161833287,
          0.2674729146819353,
          0.26914229399772194,
          0.06938011941731893,
          -0.09232482522955146,
          -0.15444615969277173,
          0.07014566840313771,
          -0.19055106173130948,
          0.199868289648901,
          0.012381834472555144,
          -0.10941081817969198,
          -0.03506576104192722,
          0.3539284243096175,
          -0.1835044201183439,
          -0.40323254791592517,
          -0.03187331946719581,
          -0.5100400335195439,
          0.41349497985005423,
          -0.3143996132597922,
          0.0360022152540405,
          -0.07846315991478643,
          0.077559406010863,
          -0.03226328068050931,
          -0.13025874448525362,
          0.007554287129780015,
          -0.07693594878205452,
          -0.6552884646917264,
          -0.32139013889073204,
          -0.19247246045093852,
          -0.027518342300261903,
          -0.3794596999904884,
          0.04216333251382198,
          0.13802935681191703,
          -0.16829942683737345,
          -0.08975130590641599,
          -0.07888015809984018,
          -0.026671345909051743,
          -0.011704440607058521,
          0.2905659468339362,
          0.18477846076564672,
          -0.11504340702700348,
          -0.4025396279420772,
          0.011091903874027137,
          -0.3439672679717252,
          -0.5503967080972294,
          0.3773878445830938,
          0.019722778678922036,
          -0.125683389580678,
          -0.16460023165055643,
          -0.10374237316302509,
          0.18492188840947338,
          -0.26960047449495694,
          -0.10526577454400016,
          0.20220517491072115,
          0.061441921181865734,
          -0.1384618296156477,
          -0.010186742585002741,
          0.12823022471150564,
          -0.13053740318931606,
          -0.03519094234326597,
          0.20630885656509615,
          0.09912391084879552
        ],
        [
          0.08059705052318852,
          0.038265732019868846,
          -0.11563576830078157,
          -0.06715202182256048,
          0.14560887172937337,
          0.012157444031629718,
          0.05278739761354803,
          -0.028543030227254493,
          -0.13313194160874187,
          0.11714819216515679,
          -0.0888331389532972,
          -0.05208167250081791,
          0.008736526775895976,
          0.10328075736119005,
          0.08304844568808632,
          -0.10371834262959126,
          -0.4383433229148171,
          0.017078327407676917,
          -0.022694261911179445,
          0.07853227713399613,
          0.011828517503902907,
          0.06647252629015217,
          -0.22566778590003234,
          -0.08676745710302423,
          -0.020080673962344975,
          0.13078018016030177,
          -0.24820896566616907,
          -0.05909306887654206,
          -0.15220605825226116,
          -0.07415847221356944,
          0.09078626802262221,
          -0.01710619257267423,
          -0.08969677736655743,
          -0.42368638844528894,
          -0.22959138614057226,
          0.26458251519961407,
          -0.17022194537580543,
          0.1905527298339115,
          -0.06193861853014523,
          -0.2492950130811892,
          0.29832859839562376,
          0.03190268710372257,
          -0.010507574748018292,
          0.05750327413899775,
          0.06374331512982766,
          -0.033767684856606715,
          0.025404723276638674,
          -0.6549562855183846,
          0.11189343377935979,
          -0.022264329017729734,
          0.012099492234375956,
          0.18782181560665503,
          -0.05963655517377447,
          -0.13929846452402694,
          -0.13424290707324735,
          0.08809321572199788,
          0.18234669288135386,
          -0.009177423590846263,
          -0.07987395645807134,
          0.27573743617979507,
          0.00685494583112315,
          0.022783055995477496,
          0.008108270579644968,
          -0.07981998664071967
        ],
        [
          -0.018086525807670496,
          0.21299543915034844,
          0.14933480061547783,
          -0.03798441424613994,
          -0.14273446762114111,
          0.05273291238280489,
          0.03267544299372397,
          -0.24718088213004263,
          -0.15555634049110542,
          -0.10190232514434065,
          0.1503481553769678,
          -0.04418805487342567,
          -0.000997264786691105,
          -0.01428837824414721,
          0.14436593671370798,
          -0.18531938606338608,
          -0.010748402227077118,
          0.27391608282434193,
          -0.2622279974536652,
          -0.016519466435256935,
          0.07979627157749597,
          0.08418924074858139,
          -0.13879255601174986,
          0.3291299737800928,
          0.05707862243131462,
          -0.12857139257600406,
          -0.05931801554347578,
          -0.053024192886871525,
          0.10231846895602799,
          0.004783945236738488,
          0.14963557463976218,
          -0.0016920480835245306,
          -0.05529497961846295,
          -0.0010226109228780535,
          -0.23335387588651169,
          -0.44128928692280717,
          -0.022234178205808867,
          0.2881972516593297,
          0.08402156839229186,
          -0.07281648777516167,
          0.159652257818728,
          0.1588540079083504,
          0.009258371039240086,
          -0.07990244538465409,
          0.18881784188625564,
          -0.6439305046578431,
          0.12416071646832989,
          -0.07843146961121776,
          -0.17396953306095678,
          -0.9229633324199255,
          0.035803415478689954,
          0.01623767786176665,
          0.23200594759849685,
          0.17350757288665813,
          0.11307769087317032,
          0.03806229453877462,
          -0.004526552572629391,
          -0.8831793735090214,
          -0.061358077331929155,
          -0.0567499760594225,
          -0.24995031934540088,
          -0.07602234627228885,
          0.3428862825366441,
          0.16688539522806753
        ],
        [
          0.1376164225617,
          -0.04154582857023594,
          -0.12051787819111222,
          0.28665292881853305,
          -0.22265548268363897,
          0.18501372365258448,
          -0.009653199411190874,
          0.19222363988734975,
          -0.059833849742518666,
          0.0810153088468577,
          -0.14479716878610677,
          0.14332847970358223,
          -0.048286331816293236,
          -0.02163034995251881,
          0.23719481760537273,
          -0.19279211174174882,
          -0.13099841555499667,
          0.16956184829353385,
          -0.0047808963271185785,
          0.11730407177521993,
          0.13660763717415603,
          -0.05093154608000384,
          0.06311840603057706,
          -0.35666626610032054,
          0.2065184959233043,
          0.016638202310592987,
          -0.013771048299499208,
          -0.16927847293135984,
          0.0744143466404177,
          0.14366806748641867,
          0.16056069326739125,
          -0.07168312155607541,
          -0.32653298865112357,
          0.10850253110427265,
          -0.41679107216476885,
          -0.33062829679213307,
          0.13917426069857758,
          0.10766802803506109,
          0.0067492741176968934,
          -0.018125451203207767,
          -0.13077291369506916,
          -0.3046508285343016,
          0.037254546017598006,
          0.12576215083970135,
          -0.19486613702501465,
          -0.09157923264502119,
          0.06969675716350149,
          -0.035871616507069416,
          0.07180273318402837,
          -0.3073641480658874,
          0.14603977044304264,
          0.004554093470873521,
          -0.0295658602588344,
          -0.08720126031256928,
          -0.07359773802610078,
          -0.4068612567904963,
          0.014897439983122191,
          -0.3536112103293249,
          0.10429092301489386,
          -0.3184643530538504,
          -0.05433860014126847,
          0.023990781430074545,
          0.3477509087999167,
          -0.37223223510996045
        ],
        [
          0.24426626661625683,
          0.041597196311578995,
          -0.1725286566902026,
          -0.029952183029351785,
          0.1515589101481698,
          0.04650932866052779,
          -0.0345520814326835,
          -0.2525725729474063,
          0.07464927516544866,
          0.04998176715531895,
          -0.054976988611062066,
          -0.2195570183084241,
          0.0005327365088226659,
          -0.4350788071677474,
          -0.08103287821369853,
          -0.05304023746685614,
          -0.026802400325010748,
          -0.045400092365390846,
          -0.1964282770255458,
          0.03782372757416168,
          -0.5915686076690136,
          0.0232324297615961,
          0.3210980210926239,
          -0.04835194610106489,
          -0.12360226756646456,
          0.24108262563142824,
          -0.9035890601867254,
          -0.0496130862630273,
          -0.11801214053355179,
          -0.05405844535675244,
          -0.07779794684180787,
          0.012568605488183065,
          -0.22738332346837428,
          -0.2570264587706076,
          0.059903930915887284,
          -0.47824911812084614,
          0.11365516593463393,
          -0.38421491526339774,
          -0.05152482033065932,
          -0.024131709175024933,
          -0.564017734023665,
          -0.020958535893782146,
          -0.08541068042525386,
          0.35330271470361146,
          -0.09170125132705434,
          -0.3824724928531577,
          0.03896450119404079,
          0.019006648683316748,
          0.0899584855802728,
          -0.05390054981799705,
          -0.06507166453333665,
          -0.00240416524728429,
          -0.04271511674967532,
          -0.37249474267557653,
          -0.1322047769495021,
          0.13647609390050114,
          -0.1399079002833114,
          -0.06308001323777068,
          -0.03333723934891387,
          0.016714683712205067,
          -0.022480767960577887,
          -0.12115626364873344,
          -0.3192059475623597,
          0.060211182466026456
        ],
        [
          0.3394730976745656,
          0.30795368643072285,
          0.10267217654415824,
          0.3858330499539978,
          0.19342894950223813,
          -0.10557102110541107,
          -0.21101465748117315,
          0.0678306518551282,
          0.03350712046485804,
          0.18427069044021785,
          -0.1683183020401445,
          0.34048008469693636,
          -0.0662653116221981,
          0.2508679153061355,
          0.2660033056317679,
          -0.14604158053483862,
          0.15281003018786982,
          0.3312891358407335,
          0.21210365948287654,
          0.15633976498434002,
          0.09779415600202059,
          0.06949728302968207,
          0.20372455261505062,
          0.09518192639395473,
          0.07991574906614984,
          -0.02171920201861999,
          -0.26196751236400156,
          -0.06541107754610137,
          0.2933717255704991,
          -0.01462819035765351,
          -0.030020804300221988,
          0.007345271130692743,
          -0.06514837300748062,
          -0.012003830798767164,
          0.16351960910906913,
          0.08976036092774066,
          0.14000549043560595,
          0.0740881393305841,
          0.017667318860512645,
          -0.3607945334919786,
          0.001277839407799662,
          -0.026861887778479615,
          0.2082031886496474,
          0.0375375657845585,
          -0.029435673029837003,
          -0.02381665610689124,
          -0.14189056292188007,
          -0.08464463671669577,
          0.03211264273291968,
          0.2795461617484977,
          0.07257706145331744,
          0.1610355343809779,
          0.17266549361321568,
          -0.026657428297812417,
          0.2400148727702288,
          -0.17607832442748786,
          -0.00024894456292936514,
          0.050313468524725694,
          -0.3054200379215277,
          0.2713401158920887,
          -0.33963842456062393,
          0.1499914561480133,
          0.32007422811133046,
          -0.03736857153433902
        ],
        [
          0.13127349738900537,
          -0.15228733381704665,
          0.004730011792136839,
          -0.051591337182049286,
          0.009508783963470175,
          0.011561723393576275,
          -0.7319810514867178,
          0.029053550609952936,
          -0.4660244808873589,
          -0.4151014130744683,
          -0.005075669381154066,
          -0.07081921134402429,
          0.06683810724112595,
          0.321032396375152,
          -0.011536410911187622,
          0.08010187823245013,
          -0.00036468767133804314,
          -0.04135980407738035,
          -0.006180808391506276,
          -1.431992996931196,
          -0.03228534580292937,
          -0.057580715410674756,
          0.19022494103624993,
          -0.3660048850357818,
          -0.2836206836903586,
          -0.14842457779269677,
          -0.02223372049101225,
          0.10132670717487438,
          0.1610749076623187,
          -0.4687150122746205,
          -0.1910371309258754,
          -0.7833758416644325,
          -0.003759549527682121,
          0.009180997126301348,
          0.09098289268633025,
          0.34258264913295816,
          0.015713174634248615,
          -0.4429845936117981,
          -0.01927155524672828,
          -0.04564658194959326,
          -0.1818696208384738,
          -0.059778163968232385,
          0.062265464004077446,
          0.16585138051047932,
          0.11288611755876436,
          0.05240009522335606,
          -1.2386682535070357,
          -0.22772624585548207,
          -0.09158899458154035,
          0.11027112866536826,
          0.10573959801681372,
          0.08882132314363596,
          -0.2051485258282537,
          -0.06498822818690769,
          0.005134271622293733,
          -0.101713301066711,
          0.15075868434183348,
          0.07932003468310243,
          -0.22152570416660566,
          -0.5316953524431683,
          0.016742134031674197,
          -0.0854395792577043,
          -0.09714354521953164,
          -0.34515640837256617
        ],
        [
          -0.0003862184055407658,
          -0.06710355412344697,
          0.36633375540761204,
          -0.07164993217406568,
          0.5506664204376384,
          -0.05960901991246082,
          -0.23033990981547053,
          -0.5611095592401406,
          0.33795439197511273,
          0.2690311784309853,
          -0.012796047797975245,
          0.06251604070625545,
          0.08446652295085458,
          0.06987150804830251,
          0.38987476805099797,
          0.08843207617136292,
          -0.09671478557971143,
          -0.11247658022964745,
          -0.08609645912794656,
          -0.6914890076134108,
          -0.16546904619865288,
          0.07762753078656097,
          0.236024980619866,
          -0.41036815212593214,
          -0.13657063991425053,
          -0.17996223909497722,
          0.11781436653801926,
          0.2874740019216705,
          -0.09339440754489425,
          -0.19698731295614016,
          -0.060552282608957966,
          -0.5395914714618321,
          -0.2732585489590432,
          0.48305560349858345,
          -0.1632502181493657,
          0.004799683945228339,
          0.1452006356971614,
          0.2244926303140611,
          -0.22465400382276351,
          -0.16990572613665864,
          -0.17752906738679425,
          -0.011671275217535174,
          -0.041026546236048456,
          -0.43918671153785377,
          -0.55698109905579,
          -0.22366539910281652,
          -1.3500005097149272,
          -0.1827416248901179,
          0.15537774705001509,
          0.12518995291188006,
          -0.1634388473502149,
          0.16877197972704652,
          -0.2413383100919347,
          -0.05440466756942064,
          -0.04436290783688766,
          0.001121694685387808,
          0.09581857631801868,
          -0.06924554379367305,
          0.07146573630416801,
          0.3032973086601995,
          0.013026619615174786,
          -0.025939967789115007,
          -0.2794308210971074,
          0.266894351975089
        ]
      ],
      "b": [
        -0.11354972588510044,
        0.05543749907504386,
        -0.0673300312131893,
        0.11552564946176686,
        0.331509336757926,
        -0.03266085246902559,
        0.18693202357032143,
        -0.07750986268436964,
        0.0962212302956685,
        0.058949654700744814,
        0.23881995040691614,
        -0.07878448060967894,
        0.14455773440623396,
        0.06997916599478599,
        0.0026546970449798247,
        0.27702373222188503,
        0.24490979618303726,
        0.18280430250166765,
        0.15422725490527564,
        0.49779947224683296,
        0.05532526701539264,
        0.09601253828507353,
        -0.10408213998679886,
        0.1243883915129222,
        0.15426521271947463,
        0.2524581413386354,
        0.21023098362234874,
        0.1905143162947119,
        0.565472058902415,
        -0.040220240172518636,
        0.20239505725614582,
        0.11471373062206068
      ],
      "activation": "relu"
    },
    {
      "W": [
        [
          -0.2921154105239118,
          0.30121866063121977,
          0.14676491974531664,
          -0.3472338861275583,
          0.3732132962152078,
          -0.17833059995116662,
          0.09691043733478717,
          -0.13826144607640056,
          0.3303516471975581,
          -0.12740655474912235,
          0.10475426157832737,
          -0.07738076475674044,
          0.20862634527564086,
          0.05564511030709434,
          -0.17436121117643216,
          0.14805076289116587,
          0.265703028298332,
          -0.07001167917091662,
          -0.439329317338779,
          -0.14459086114997993,
          -0.10683656425030388,
          -0.18449319328702682,
          -0.13694546844780855,
          -0.3297249779750954,
          0.12204302702809464,
          0.20045148707362334,
          0.23080759182291252,
          0.19246848305297556,
          0.28565686673885515,
          -0.09954385343896482,
          -0.45254247123615055,
          -0.14816833335563098
        ]
      ],
      "b": [
        0.10468919463125236
      ],
      "activation": "linear"
    }
  ],
  "r2": 0.9846631568432894,
  "rmse": 0.1533749236470456,
  "loo_r2": 0.9721501752296351,
  "n_obs": 1005
}