{
  "name": "MLP (2 hidden layers (32, 16))",
  "features": [
    "delta_fs",
    "fs",
    "n_back",
    "e_bag",
    "fs_nb",
    "nb_eb",
    "eb_sq",
    "nb_sq",
    "fs_eb"
  ],
  "input_mean": [
    -0.11842105263157894,
    12.620445344129555,
    2.5526315789473686,
    3.326923076923077,
    31.97672064777328,
    8.576923076923077,
    13.841093117408906,
    7.625506072874494,
    44.10323886639676
  ],
  "input_std": [
    0.8519712417703724,
    1.8839474783718755,
    1.0533651290199229,
    1.6651354172095414,
    13.84670500329512,
    5.8742864021916334,
    11.650009627084744,
    5.634932728006023,
    24.19851832457694
  ],
  "layers": [
    {
      "W": [
        [
          -0.4489646769700002,
          0.02578708350239609,
          0.10799770237869158,
          0.05518731984578909,
          -0.4058437178894379,
          -0.030922329450359602,
          0.4932670540079308,
          0.28274841199041734,
          -0.44488629017044945
        ],
        [
          -0.976805649529595,
          -0.34137191425955477,
          0.10145018174256405,
          -0.8510472300221122,
          -0.5064399211202264,
          -0.593357566457505,
          0.31768058291288936,
          -0.24782897701354487,
          0.07094903548732731
        ],
        [
          0.2966086058917263,
          0.37895140769331404,
          -0.2481519432079114,
          0.4118551069123648,
          -0.4444912586700039,
          0.08340084265150238,
          0.13959631055046984,
          -0.18910206919338687,
          -0.6289047191473381
        ],
        [
          -0.40901401641504226,
          -0.12405272136396232,
          -0.03384181629185064,
          -0.2776081431245417,
          -0.18783601877736986,
          0.15040834482707197,
          -0.010009741492503646,
          -0.04958096344621243,
          0.2868269158501808
        ],
        [
          0.27622489042481807,
          0.05797076647333313,
          0.4417453954620137,
          0.5725643112542047,
          -0.4894943249266318,
          1.1501384876946052,
          0.3149457650439488,
          0.1478105322840988,
          0.06131201394035237
        ],
        [
          0.047660200980303706,
          -0.09385582964824962,
          0.8861986180281681,
          0.7042347451025097,
          0.4149873248296343,
          0.36109534750029576,
          -1.0863207733642122,
          -0.10087503865011727,
          -0.020063755752813592
        ],
        [
          -0.8233469084670799,
          0.24926181843043724,
          0.09104473298928216,
          0.07995843565625241,
          -0.23057468984919302,
          -0.023516549730288515,
          -0.4559747507092209,
          -0.8654069546659193,
          0.4202380306766993
        ],
        [
          -0.5897883274353424,
          -0.06684225894890843,
          -0.34608943190488983,
          0.9546323091548645,
          0.42292952751446383,
          0.06981306349847054,
          -1.1498736699741816,
          -0.08445321925080645,
          0.1797622451145901
        ],
        [
          0.410960142183118,
          -0.35834057260238017,
          0.7934100019543235,
          -0.7583154065285592,
          -0.39333948611995,
          0.39764263424285595,
          -0.08112108992849577,
          0.6939143287492983,
          -0.0808513193610832
        ],
        [
          -0.6224434428020036,
          -0.5034074586052331,
          -0.4912482350114339,
          -0.8933382088722256,
          -0.15461822879760848,
          0.12656159698814626,
          0.4756393749362338,
          -0.4590064134834512,
          0.5162138519534936
        ],
        [
          0.2097975272843738,
          0.6542290364165948,
          -0.07584395356836135,
          -0.4841454478556575,
          0.22747420707534385,
          0.3812920113033613,
          0.21277987046584743,
          0.10218586763988466,
          -0.7212055366445246
        ],
        [
          -1.182914526929164,
          0.22060062454539114,
          0.41831297770800757,
          -0.07027982150066277,
          -0.7305937509210227,
          0.5366842348723025,
          -0.6135230350030844,
          -0.4359569583229594,
          0.13962263220772808
        ],
        [
          -1.1118118774200705,
          0.12746365971964466,
          -0.27357939769861905,
          0.01796311795874574,
          0.06843753062827225,
          0.4100935995343134,
          -0.37281073917660235,
          -0.23946498921807832,
          0.34563741173944956
        ],
        [
          0.78634215689956,
          -0.0643375631514508,
          0.5812754289105078,
          0.2441193042171648,
          0.2552124990458355,
          -0.20546009821458025,
          -0.29618756820401443,
          -0.27744654834314847,
          -0.44651757662316693
        ],
        [
          -0.5979777284951414,
          0.2650699161938115,
          -0.42561041422351337,
          -0.3659971944859283,
          -0.5068529847565872,
          0.26647243464437587,
          0.10142822651387538,
          0.4714441110851217,
          -0.010394551636654243
        ],
        [
          1.0020847856178614,
          0.16495486564678796,
          0.4249052540907365,
          -1.0152125236152902,
          0.35825256596620336,
          -0.33230369286401323,
          0.5583859630548292,
          0.07897618578954231,
          0.1570378695285718
        ],
        [
          0.9604260220639564,
          -0.2404545461564891,
          -0.7258332072153153,
          -0.02123844940941134,
          -0.09450894239581197,
          0.7249534223414652,
          -0.2702820139315152,
          -0.007690413199118356,
          -0.29310428970471286
        ],
        [
          -0.3358226788777532,
          0.1594736348072315,
          -0.7671647693508359,
          0.45741755259838934,
          0.005820798641864739,
          -0.03690567320132323,
          -1.1794274473481352,
          0.5035819978201719,
          0.1751330976982321
        ],
        [
          0.26208261595816307,
          0.16248059115131452,
          0.8195047011738467,
          0.18376501636442946,
          0.06222130030868755,
          -0.7087797112463117,
          0.7653638827877636,
          0.6123441738113822,
          0.6880375072384107
        ],
        [
          0.04117868936023629,
          0.31975127934255865,
          0.3881746978128373,
          0.18892107340343672,
          0.27324149977862927,
          -0.5481382098392127,
          0.22766095355296673,
          -0.9111250340075109,
          -0.3757436159777092
        ],
        [
          -0.4761726829440682,
          -0.449546871674189,
          -0.023915681035881514,
          -0.0005746304637108011,
          -0.437775917126579,
          0.2937917458265647,
          -0.22616549700847524,
          0.09603339446714292,
          0.22600360786900034
        ],
        [
          0.021239629821522228,
          -0.8615898862767366,
          -0.5386977549746402,
          0.5609655213461011,
          0.26977269751969885,
          0.0005573107605436294,
          0.7203202581328928,
          -0.6936062027045474,
          -0.23253765017164255
        ],
        [
          -0.19797069812169218,
          0.11938920984027333,
          -0.21173001063104344,
          -0.2458466483275993,
          -0.8852148350733068,
          0.4522348609345437,
          0.10095441255313438,
          -0.041324338272258475,
          0.14727712701474116
        ],
        [
          -0.5462728297280097,
          0.013715958832665649,
          0.269960790026327,
          -0.06405165824957523,
          1.2283046904287953,
          -0.6293503039056074,
          0.378048318335479,
          -0.3996662648043129,
          0.07624781564216838
        ],
        [
          -0.30226452571640944,
          -0.16380147942615672,
          -0.41120687582260307,
          1.3776275606425399,
          0.1937028479404315,
          -0.8954006647236229,
          -0.5818725642554529,
          0.47866488792067163,
          -0.3092316373999216
        ],
        [
          1.2914045231077875,
          0.3104418031626239,
          0.0578863951844289,
          -0.44059815910352046,
          -0.325126093686361,
          -0.18075798403945678,
          -0.5175091631716281,
          0.7209281725223183,
          0.6023376657451307
        ],
        [
          -0.8085254152925349,
          -0.7116831540824259,
          -0.4896971288785376,
          -0.5545757871900598,
          -1.1863638380613801,
          -0.3827040894911951,
          0.6981998342063023,
          0.26996175173012016,
          0.2663026211046288
        ],
        [
          -0.009845013051461961,
          0.8243164600101311,
          -0.1471077885410926,
          -0.28885023275315563,
          0.982911348205147,
          -0.7146150376414309,
          -0.36826688468136365,
          -0.18739653950089494,
          -0.10836706725338076
        ],
        [
          0.7186942673583606,
          -0.25873962649705917,
          0.19739675490939732,
          0.46393550740085077,
          -0.27744532893350576,
          -0.04728243036214956,
          -0.1630764954201665,
          0.8607557497532067,
          -0.21639437607195855
        ],
        [
          0.06589082599989941,
          -0.8707102634726627,
          -0.1528799092316002,
          -0.0820609030805073,
          -0.2701369073062948,
          -0.2609667454948881,
          -0.10944955255881117,
          -0.626589804736322,
          -0.5153502118780586
        ],
        [
          1.4462584637065687,
          0.3495575034911209,
          0.25933966922967544,
          -0.4568297014699823,
          0.08503948445529814,
          0.2751583718769886,
          -0.3346664300366555,
          -0.3721918483412663,
          -0.6526419737625234
        ],
        [
          0.5232851601421444,
          0.561553387489887,
          0.11030928419304177,
          0.024685967243599064,
          0.17312271565093096,
          -1.4887200535073597,
          0.11088290842101034,
          -0.21822956774236038,
          -0.43420548534700015
        ]
      ],
      "b": [
        0.0053095712369625545,
        -0.31777691648325906,
        0.05724542939071446,
        0.11592962706459328,
        -0.09567870982770667,
        -0.3705497481835664,
        -0.27575871640501065,
        -0.10725797320767302,
        0.033373178698750894,
        0.03460253068229777,
        -0.07510110207880398,
        -0.06846356201082225,
        -0.25671022181412473,
        0.050306050442672647,
        0.11880782631559086,
        -0.46619481718737454,
        0.1590807172844812,
        -0.4071984795077565,
        -0.20636299367908015,
        -0.07690151947101354,
        0.005826409538654809,
        0.03663753873300962,
        -0.2887557656969879,
        -0.40457764041444494,
        -0.39679577375324515,
        0.0832282088968587,
        0.1567065421844657,
        -0.3827683360148825,
        -0.041475376798770384,
        -0.2379638627086459,
        0.5789299928911321,
        -0.3455893833045386
      ],
      "activation": "relu"
    },
    {
      "W": [
        [
          -0.03536488314982956,
          0.19922114079594863,
          -0.21831241263236562,
          -0.197835096451064,
          0.10268727091294859,
          0.19415182750877183,
          -0.07997179835033771,
          0.3412662125330764,
          -0.005439701089035844,
          0.020340687815233252,
          -0.1943281073400542,
          0.18117922878904663,
          0.38156549114561394,
          -0.7589203940735954,
          0.1306830953089899,
          -1.6979631991084472,
          -0.43305997919895717,
          0.13799334137574626,
          0.1452360579487892,
          -0.15655964844403275,
          0.018348602553647043,
          -0.00781700553934594,
          -0.14771716242096644,
          0.05982842814980544,
          0.24346770809608373,
          -0.9541203293855073,
          0.012596186468586876,
          -0.014403071275105518,
          -0.11217687440129817,
          -0.017919918883788178,
          -0.43647585220070334,
          -0.20830239020517582
        ],
        [
          0.06075027075905894,
          -0.06821543876252206,
          -0.16398311384406933,
          -0.22560387719777553,
          0.06661233375530683,
          0.0627380897561943,
          -0.20769215596829796,
          -0.24829138191645286,
          0.021852178941463494,
          -0.15941574790625673,
          0.09415323828586117,
          -0.9006400927049699,
          -0.24327893701492417,
          -0.0164475654417914,
          -0.17384123624966652,
          -0.21354438800922657,
          -0.0652913188509623,
          -0.32142855915868085,
          0.27400760794258977,
          -0.2117297069636973,
          -0.6369272896513443,
          -0.07570779115571286,
          -0.13221805848987497,
          0.011478160714874614,
          0.5297105485300021,
          -0.040382340211865694,
          -0.13765497511096986,
          0.0048537956556891785,
          0.3832303147907754,
          0.08291718058301402,
          -0.29091882593619056,
          0.5158460880905273
        ],
        [
          0.07496361466060521,
          -0.8693604229711928,
          0.39481235613656496,
          -0.4585739673911433,
          0.020575639731996647,
          0.1513706428871045,
          0.42883050363729885,
          0.15517765270163722,
          -0.8305319050844413,
          0.04980572407168814,
          -0.041007938449815276,
          -0.5956202557442019,
          -0.682464075652438,
          -0.2853455725854944,
          -0.421402749795937,
          0.11748570159334625,
          0.29445378019175233,
          0.25875852151646767,
          0.08391509700692555,
          -0.0792944442651268,
          -0.6725300901595351,
          0.22968704767838233,
          -0.009104065295417095,
          -0.04674462709910026,
          -0.6892796841004334,
          -0.005347271326425158,
          0.16341900500598666,
          0.0334197514723394,
          0.02363748127199697,
          0.03975565404313304,
          -0.2241464956401766,
          0.020027131415223963
        ],
        [
          0.15965179531686471,
          0.01230940995866464,
          -0.238043549035023,
          -0.038080864010049315,
          0.07309945864411282,
          0.31207380918921795,
          0.013295138427500939,
          0.030812474416975703,
          0.13623990847464373,
          -0.8779056864638012,
          0.09809901703091627,
          -0.07128172969222196,
          0.15325825139158128,
          -0.11346239546448662,
          0.36407279989461555,
          0.1292068598008704,
          -0.3111531898439026,
          -0.6034273625377707,
          -0.1649819165578416,
          0.5033674883063849,
          -0.2844349165355708,
          -0.24407698341099138,
          -0.33636493046483984,
          0.40990337850494185,
          -0.26224959298431855,
          -0.0869627669721333,
          -0.8018954585177172,
          0.20451490088968852,
          -0.2596018654376293,
          -2.2536174363835593,
          -0.10624117338152357,
          0.12922850473827233
        ],
        [
          -0.001613670107375145,
          0.2501887925968653,
          0.18718456752748092,
          0.12729631888821455,
          -0.3525859327853343,
          0.41991591200132283,
          0.36079495395919653,
          0.013379154395540608,
          0.3079267884350814,
          0.09426237341599121,
          -0.13982313665957055,
          -0.1462692777063016,
          0.43092645527977663,
          -0.16856303953838123,
          0.41127045688297675,
          -0.14551832737411832,
          0.44461022085821267,
          0.34702455325046216,
          -0.0018698635338154181,
          0.16231042744553198,
          -0.35055873956613925,
          0.5063210388391167,
          0.04606149725688563,
          0.11574833746147817,
          0.2628034259259737,
          0.4121320083018689,
          0.19529684199714475,
          0.5311033994894895,
          0.4725738481191909,
          0.43298678693287607,
          0.001994413053642752,
          0.08718502506223258
        ],
        [
          -0.009147682834477451,
          -0.00644236373258686,
          -0.07448244787412237,
          0.01481817147713174,
          0.21588881844428529,
          -0.2233361910317108,
          -0.11972469789604802,
          -0.34512511443441624,
          -0.3214968644244237,
          0.08577406757029137,
          -0.31887021255277065,
          0.7361653293804046,
          -0.23361951791821423,
          -0.6253572934526183,
          0.2865864071269688,
          0.13568246547751683,
          -0.18006399234328574,
          -0.14475971345512148,
          -0.20912728746026865,
          -0.15313684609083586,
          0.0973250206142807,
          -0.21161108424924535,
          -0.65399415217796,
          -0.20343109483502753,
          -0.1315027034400556,
          0.05998674775678778,
          -0.0799855243272458,
          0.08599685277383147,
          -0.15890441749759124,
          -0.09243745691514274,
          -1.190778721207229,
          -0.10262222114070878
        ],
        [
          0.5743157847965787,
          0.5186045823876044,
          -1.6247490990707096,
          0.26079682080565647,
          0.21500381539671118,
          -0.13064599657361556,
          0.23667981353910042,
          0.31547251163977935,
          0.28236054591509174,
          0.3825843933013341,
          -0.2984813814387195,
          -0.32580418573472786,
          0.011079927547076526,
          -0.20632236297931109,
          0.09959174442868862,
          -0.8650569607913782,
          -0.5961231411616944,
          0.06034166221975842,
          -0.387733732696828,
          -0.8240292758500254,
          0.31721529354007755,
          -0.21877414879019388,
          -1.0380760295653169,
          -0.08341451498150282,
          0.06364625395617209,
          -1.3775705991124807,
          -0.013699998988814077,
          -0.01693639591725558,
          0.15237240954823159,
          0.07350347276353582,
          -0.17866141841231806,
          -0.023771647680646456
        ],
        [
          -0.4152430770699722,
          -0.2188516849028639,
          0.13481579905660546,
          -0.4602061980922798,
          0.39569263053468307,
          0.4238450925240437,
          -0.43720641754695994,
          0.4667177690991762,
          0.4824579795626094,
          -0.40469108337004944,
          -0.00927326439146814,
          -0.30849106950164956,
          0.09042001776604103,
          0.17611035585258086,
          -0.45655585322851644,
          0.16428918264735376,
          -0.03891099823690657,
          -1.329513673396123,
          0.09556580369855025,
          0.09194456719425788,
          0.030288320731641085,
          0.14132466042512573,
          0.17603609515845375,
          -0.062175537577240064,
          -1.8998603046311038,
          -0.03299211685039022,
          -0.14111829589790645,
          -0.8924268514781026,
          0.2200805036462028,
          -0.15854586529440926,
          0.3931988750483793,
          0.13188857623132522
        ],
        [
          0.17225019097194186,
          -0.6632604172047284,
          -0.06994470982268997,
          0.1682706513157459,
          0.366067571286888,
          0.08939877551130784,
          0.11036638089148954,
          -0.16539277294237248,
          0.050130494749930095,
          0.12333538284153106,
          -0.03329140508156673,
          0.07186455817474802,
          0.02383783386014161,
          -0.33318238519614785,
          0.18314089176626436,
          -0.11949734732409902,
          -0.12758772710624322,
          0.3532139697244513,
          0.33127089570207796,
          0.18441513818972738,
          0.12405061591896115,
          0.1901817132159643,
          0.21873073581194794,
          0.16092486542230047,
          0.2901587059045585,
          0.0633884525431424,
          0.07870099323404071,
          0.07951891710058834,
          0.3423993512591031,
          0.08417994804865013,
          -0.19668544311557923,
          -0.16846589063364018
        ],
        [
          -0.16319094588556873,
          0.3084319239356057,
          0.06998395263020678,
          -0.43581880687578983,
          0.22911385545829804,
          -0.2169506182816792,
          -0.6295271206028337,
          -0.20621850553808627,
          0.09520964217466896,
          -0.21478955772856953,
          -0.2720724628047814,
          -0.32423664212074554,
          -0.5609516784283566,
          0.18617767023555357,
          -0.3753012485321383,
          -0.0976665473247244,
          0.15478730387352607,
          -0.30397760662635875,
          0.24740418419815885,
          -0.09299724029673033,
          -0.31095756669436747,
          -0.5064290702134072,
          -0.5166868382628215,
          0.012458682775885925,
          -0.1919097667537051,
          -0.02436351387989846,
          -0.05104632789602909,
          0.5153580014882173,
          0.05648092863071268,
          0.13238501268313443,
          0.16207650686288055,
          0.0893485074206909
        ],
        [
          -0.5263546650534908,
          -0.0605920601513831,
          -0.053729904517654234,
          -0.14017706974581473,
          -0.1348222695448832,
          -0.2755119838844806,
          -0.2838399647620785,
          -0.49874732763873353,
          -0.5573687885460636,
          -1.0402794922345144,
          0.034066784777718594,
          0.16579299476040724,
          0.22014550733491847,
          -0.028621231685112995,
          0.02208673235141955,
          0.41786185362976985,
          -0.0816345054626438,
          -0.7309777355516478,
          0.03522736194082955,
          -0.3348724629298587,
          -0.17703744754804973,
          0.2545270366576865,
          -0.528322410378093,
          -0.07845134478383306,
          0.22545840091721192,
          0.0009149025509790732,
          -0.3105764625120007,
          0.1532858885771079,
          0.1824395668080449,
          -0.18013710386551654,
          0.37117638170611766,
          -0.1307838425729557
        ],
        [
          0.12311755943854456,
          0.29577462965669993,
          -0.14369015146290243,
          -0.19363448629167374,
          0.440404552931235,
          -0.8319625338032602,
          0.1624891593684062,
          -0.5995322745750998,
          0.35312258315471634,
          0.28774539101348007,
          0.2560463644731139,
          0.0769463274045799,
          0.2903485388467377,
          -0.06970588259882644,
          0.43787866516396806,
          0.21167076729609607,
          -0.014528994431122957,
          0.1602756528769834,
          0.0073517914506990205,
          0.26343446571554807,
          0.06590056501552287,
          0.2340466887869775,
          0.3678987043402056,
          -0.16659049578450752,
          0.3678359700791585,
          0.4106519305198991,
          0.12542065218279333,
          0.31957019268636544,
          -0.35016953975627585,
          0.2630590449182639,
          0.029669063895069202,
          -0.13013218193135306
        ],
        [
          -0.10136706691132395,
          -0.32967756456114455,
          -0.03902678230737738,
          0.25068391154823366,
          0.024835331948506206,
          -0.1845847021317855,
          -0.23448044488614003,
          -0.14861449531946766,
          -0.24107066360649468,
          -0.3736313599584692,
          0.18277270230856182,
          -0.06878272238286552,
          0.010316338905220143,
          0.020604187187551228,
          0.2323648648074281,
          0.5086650476710818,
          -0.00799920209882521,
          0.045241697186943486,
          -0.3716397490289281,
          -0.11944308239077817,
          -0.347596485492834,
          0.1978127707093704,
          -0.14326405443145307,
          -0.21155837439307426,
          -0.2826980982525295,
          0.4794936346135422,
          -0.1551052481936639,
          -0.22457802299104743,
          0.24291979606019912,
          0.015474875375293318,
          -0.49531346860328684,
          -0.4237409687021815
        ],
        [
          0.06095337815346954,
          0.10920146313578698,
          -0.15262102646699052,
          -0.037224513686591035,
          0.060988759092281,
          0.13491051169887594,
          0.5825640468726274,
          -0.04252781180227872,
          0.2380511080360487,
          -0.0775931967629063,
          0.07442104259806544,
          -0.6558641206197521,
          0.1451127350419763,
          0.007738725727955444,
          0.12731517962449204,
          0.22429267050530008,
          -0.8258549858294097,
          0.27977537958600285,
          0.13019375899584743,
          -1.3353934039015058,
          0.17960531363732873,
          -0.11902517189359292,
          -0.7840323425003677,
          0.4078665918057049,
          0.5207599912509537,
          -0.39249215139941435,
          0.05661335936823413,
          0.015114838974039427,
          0.011870968032898624,
          0.0243837599448525,
          -0.273123209793728,
          -0.03745526192892299
        ],
        [
          -0.16244856745748582,
          -0.0008272480104223859,
          -0.2654979116180763,
          -0.2925427096719362,
          -0.40779270956906605,
          0.2648455424386509,
          -0.14209381831250775,
          -0.4562062492206315,
          0.15194182368374962,
          0.08773618942565924,
          -0.14808944606982577,
          -0.6048890358360332,
          -0.5619078178133314,
          -0.0019414083851954705,
          -0.20591591281662128,
          0.19441323117813986,
          -0.011743549954501753,
          -0.7604417280080166,
          0.39843419133004476,
          0.3463604103415473,
          0.10558172430265528,
          0.3820943885910364,
          -0.09660478720741428,
          -0.0033885591018455647,
          -0.14242112586893516,
          0.155936415079763,
          0.02938601239221731,
          -0.08955715876422335,
          0.6900325297797545,
          0.0871318411780374,
          -0.10894478011526118,
          -0.05774758303012174
        ],
        [
          -0.16736705838591961,
          -0.022124619947201902,
          -0.1669141637983278,
          -0.09536316755017706,
          -1.0929042806433278,
          -0.0547232667323911,
          -0.20423927616488158,
          -0.24950814047411687,
          -0.04415229980100851,
          -0.10560509484731498,
          -0.9488036720421803,
          1.1333475498590593,
          -0.2328340652644072,
          -0.9410567097680711,
          -0.27529549018966143,
          0.09878911650282406,
          -0.3281374585630868,
          -0.1377993057155515,
          0.196437609777082,
          -0.39011300736153753,
          -0.16282648377726128,
          -0.11520147583427161,
          -0.01537371004303229,
          0.002996084395566342,
          -0.33322922434157093,
          -0.32818630811141813,
          -0.023891177802238102,
          -0.43262420691705467,
          -0.04834587899278099,
          -0.054490981285652974,
          -1.0303170647598625,
          -0.2769696529930642
        ]
      ],
      "b": [
        0.3705059730639537,
        0.3160035032190415,
        0.5889878419909818,
        0.15598237394253878,
        0.13161828007959586,
        -0.09185756405623922,
        0.43934535774182765,
        0.39711895413617826,
        -0.0006425081143400001,
        0.4172168837040866,
        0.0017793632980046504,
        -0.03280045448286935,
        -0.04437784679463312,
        -0.04158350797973842,
        0.33488010880048014,
        -0.20649688659138207
      ],
      "activation": "relu"
    },
    {
      "W": [
        [
          -0.4635313423490776,
          0.4104623461170499,
          0.20955316123256923,
          0.576626875223051,
          -0.1609395566879398,
          -0.24544620438107922,
          -0.21965317130081635,
          0.2215745023529532,
          -0.3862770432513069,
          0.2546301115190382,
          0.3872823072840376,
          0.20470922671141312,
          0.45917551982114807,
          -0.31911364049294766,
          0.2612239340638452,
          -0.621454159353328
        ]
      ],
      "b": [
        -0.04498391214888561
      ],
      "activation": "linear"
    }
  ],
  "r2": 0.8704872628532254,
  "rmse": 0.448848518970096,
  "n_obs": 988
}